<?xml version="1.0"?>
<MethodSetup Method="BDT::BDT">
  <GeneralInfo>
    <Info name="TMVA Release" value="4.1.2 [262402]"/>
    <Info name="ROOT Release" value="5.32/00 [335872]"/>
    <Info name="Creator" value="pigard"/>
    <Info name="Date" value="Tue Jul 28 18:05:49 2015"/>
    <Info name="Host" value="Linux cmsdev02.cern.ch 2.6.32-431.11.2.el6.x86_64 #1 SMP Wed Mar 26 09:39:43 CET 2014 x86_64 x86_64 x86_64 GNU/Linux"/>
    <Info name="Dir" value="/grid_mnt/vol__vol_U__u/llr/cms/pigard/myEID/job/NonTrigSpring15_ConvVarCwoBoolean_TMVA412_FullStatLowPt_PairNegWeightsGlobal"/>
    <Info name="Training events" value="52754"/>
    <Info name="TrainingTime" value="4.72852375e+03"/>
    <Info name="AnalysisType" value="Classification"/>
  </GeneralInfo>
  <Options>
    <Option name="V" modified="Yes">False</Option>
    <Option name="VerbosityLevel" modified="No">Default</Option>
    <Option name="VarTransform" modified="No">None</Option>
    <Option name="H" modified="Yes">False</Option>
    <Option name="CreateMVAPdfs" modified="Yes">True</Option>
    <Option name="IgnoreNegWeightsInTraining" modified="No">False</Option>
    <Option name="NTrees" modified="Yes">2000</Option>
    <Option name="RenormByClass" modified="No">False</Option>
    <Option name="BoostType" modified="Yes">Grad</Option>
    <Option name="AdaBoostR2Loss" modified="No">quadratic</Option>
    <Option name="UseBaggedGrad" modified="Yes">False</Option>
    <Option name="GradBaggingFraction" modified="No">6.000000e-01</Option>
    <Option name="Shrinkage" modified="Yes">1.000000e-01</Option>
    <Option name="AdaBoostBeta" modified="No">1.000000e+00</Option>
    <Option name="UseRandomisedTrees" modified="No">False</Option>
    <Option name="UseNvars" modified="Yes">4</Option>
    <Option name="UsePoissonNvars" modified="No">True</Option>
    <Option name="UseNTrainEvents" modified="No">52754</Option>
    <Option name="UseWeightedTrees" modified="No">True</Option>
    <Option name="UseYesNoLeaf" modified="No">True</Option>
    <Option name="NodePurityLimit" modified="No">5.000000e-01</Option>
    <Option name="SeparationType" modified="No">giniindex</Option>
    <Option name="nEventsMin" modified="Yes">100</Option>
    <Option name="nCuts" modified="Yes">2000</Option>
    <Option name="UseFisherCuts" modified="No">False</Option>
    <Option name="MinLinCorrForFisher" modified="No">8.000000e-01</Option>
    <Option name="UseExclusiveVars" modified="No">False</Option>
    <Option name="PruneStrength" modified="Yes">5.000000e+00</Option>
    <Option name="PruneMethod" modified="Yes">costcomplexity</Option>
    <Option name="PruneBeforeBoost" modified="No">False</Option>
    <Option name="PruningValFraction" modified="No">5.000000e-01</Option>
    <Option name="NNodesMax" modified="Yes">5</Option>
    <Option name="MaxDepth" modified="Yes">6</Option>
    <Option name="DoBoostMonitor" modified="No">False</Option>
    <Option name="NegWeightTreatment" modified="Yes">pairnegweightsglobal</Option>
  </Options>
  <Variables NVar="21">
    <Variable VarIndex="0" Expression="ele_oldsigmaietaieta" Label="ele_oldsigmaietaieta" Title="ele_oldsigmaietaieta" Unit="" Internal="ele_oldsigmaietaieta" Type="F" Min="0.00000000e+00" Max="7.95538872e-02"/>
    <Variable VarIndex="1" Expression="ele_oldsigmaiphiiphi" Label="ele_oldsigmaiphiiphi" Title="ele_oldsigmaiphiiphi" Unit="" Internal="ele_oldsigmaiphiiphi" Type="F" Min="0.00000000e+00" Max="9.21095163e-02"/>
    <Variable VarIndex="2" Expression="ele_oldcircularity" Label="ele_oldcircularity" Title="ele_oldcircularity" Unit="" Internal="ele_oldcircularity" Type="F" Min="0.00000000e+00" Max="9.55298424e-01"/>
    <Variable VarIndex="3" Expression="ele_oldr9" Label="ele_oldr9" Title="ele_oldr9" Unit="" Internal="ele_oldr9" Type="F" Min="1.83015183e-01" Max="1.73501129e+01"/>
    <Variable VarIndex="4" Expression="ele_scletawidth" Label="ele_scletawidth" Title="ele_scletawidth" Unit="" Internal="ele_scletawidth" Type="F" Min="0.00000000e+00" Max="6.40830755e-01"/>
    <Variable VarIndex="5" Expression="ele_sclphiwidth" Label="ele_sclphiwidth" Title="ele_sclphiwidth" Unit="" Internal="ele_sclphiwidth" Type="F" Min="0.00000000e+00" Max="1.02058733e+00"/>
    <Variable VarIndex="6" Expression="ele_he" Label="ele_he" Title="ele_he" Unit="" Internal="ele_he" Type="F" Min="0.00000000e+00" Max="2.21452065e+01"/>
    <Variable VarIndex="7" Expression="ele_psEoverEraw" Label="ele_psEoverEraw" Title="ele_psEoverEraw" Unit="" Internal="ele_psEoverEraw" Type="F" Min="0.00000000e+00" Max="1.12178507e+01"/>
    <Variable VarIndex="8" Expression="ele_kfhits" Label="ele_kfhits" Title="ele_kfhits" Unit="" Internal="ele_kfhits" Type="I" Min="2.00000000e+00" Max="1.70000000e+01"/>
    <Variable VarIndex="9" Expression="ele_kfchi2" Label="ele_kfchi2" Title="ele_kfchi2" Unit="" Internal="ele_kfchi2" Type="F" Min="6.20727079e-08" Max="1.90603294e+01"/>
    <Variable VarIndex="10" Expression="ele_gsfchi2" Label="ele_gsfchi2" Title="ele_gsfchi2" Unit="" Internal="ele_gsfchi2" Type="F" Min="1.67866752e-01" Max="4.57213165e+02"/>
    <Variable VarIndex="11" Expression="ele_fbrem" Label="ele_fbrem" Title="ele_fbrem" Unit="" Internal="ele_fbrem" Type="F" Min="-9.97942448e-01" Max="9.98794377e-01"/>
    <Variable VarIndex="12" Expression="ele_gsfhits" Label="ele_gsfhits" Title="ele_gsfhits" Unit="" Internal="ele_gsfhits" Type="I" Min="5.00000000e+00" Max="1.70000000e+01"/>
    <Variable VarIndex="13" Expression="ele_expected_inner_hits" Label="ele_expected_inner_hits" Title="ele_expected_inner_hits" Unit="" Internal="ele_expected_inner_hits" Type="I" Min="0.00000000e+00" Max="5.00000000e+00"/>
    <Variable VarIndex="14" Expression="ele_conversionVertexFitProbability" Label="ele_conversionVertexFitProbability" Title="ele_conversionVertexFitProbability" Unit="" Internal="ele_conversionVertexFitProbability" Type="F" Min="-1.00000000e+00" Max="9.99803185e-01"/>
    <Variable VarIndex="15" Expression="ele_ep" Label="ele_ep" Title="ele_ep" Unit="" Internal="ele_ep" Type="F" Min="3.49334627e-03" Max="5.49233551e+01"/>
    <Variable VarIndex="16" Expression="ele_eelepout" Label="ele_eelepout" Title="ele_eelepout" Unit="" Internal="ele_eelepout" Type="F" Min="4.88317804e-04" Max="1.18371353e+02"/>
    <Variable VarIndex="17" Expression="ele_IoEmIop" Label="ele_IoEmIop" Title="ele_IoEmIop" Unit="" Internal="ele_IoEmIop" Type="F" Min="-1.16866446e+00" Max="5.09947300e-01"/>
    <Variable VarIndex="18" Expression="ele_deltaetain" Label="ele_deltaetain" Title="ele_deltaetain" Unit="" Internal="ele_deltaetain" Type="F" Min="-3.96868610e+00" Max="4.20618153e+00"/>
    <Variable VarIndex="19" Expression="ele_deltaphiin" Label="ele_deltaphiin" Title="ele_deltaphiin" Unit="" Internal="ele_deltaphiin" Type="F" Min="-1.96917665e+00" Max="1.50879169e+00"/>
    <Variable VarIndex="20" Expression="ele_deltaetaseed" Label="ele_deltaetaseed" Title="ele_deltaetaseed" Unit="" Internal="ele_deltaetaseed" Type="F" Min="-3.23185730e+00" Max="1.22058868e+00"/>
  </Variables>
  <Spectators NSpec="10">
    <Spectator SpecIndex="0" Expression="ele_pT" Label="ele_pT" Title="ele_pT" Unit="" Internal="ele_pT" Type="F" Min="5.00000620e+00" Max="9.99995613e+00"/>
    <Spectator SpecIndex="1" Expression="ele_isbarrel" Label="ele_isbarrel" Title="ele_isbarrel" Unit="" Internal="ele_isbarrel" Type="F" Min="0.00000000e+00" Max="0.00000000e+00"/>
    <Spectator SpecIndex="2" Expression="ele_isendcap" Label="ele_isendcap" Title="ele_isendcap" Unit="" Internal="ele_isendcap" Type="F" Min="1.00000000e+00" Max="1.00000000e+00"/>
    <Spectator SpecIndex="3" Expression="scl_eta" Label="scl_eta" Title="scl_eta" Unit="" Internal="scl_eta" Type="F" Min="-3.10750818e+00" Max="2.94841862e+00"/>
    <Spectator SpecIndex="4" Expression="ele_eClass" Label="ele_eClass" Title="ele_eClass" Unit="" Internal="ele_eClass" Type="F" Min="0.00000000e+00" Max="4.00000000e+00"/>
    <Spectator SpecIndex="5" Expression="ele_pfRelIso" Label="ele_pfRelIso" Title="ele_pfRelIso" Unit="" Internal="ele_pfRelIso" Type="F" Min="0.00000000e+00" Max="7.12855148e+01"/>
    <Spectator SpecIndex="6" Expression="ele_expected_inner_hits" Label="ele_expected_inner_hits" Title="ele_expected_inner_hits" Unit="" Internal="ele_expected_inner_hits" Type="F" Min="0.00000000e+00" Max="5.00000000e+00"/>
    <Spectator SpecIndex="7" Expression="ele_vtxconv" Label="ele_vtxconv" Title="ele_vtxconv" Unit="" Internal="ele_vtxconv" Type="F" Min="0.00000000e+00" Max="1.00000000e+00"/>
    <Spectator SpecIndex="8" Expression="mc_event_weight" Label="mc_event_weight" Title="mc_event_weight" Unit="" Internal="mc_event_weight" Type="F" Min="-1.00000107e+00" Max="1.00000107e+00"/>
    <Spectator SpecIndex="9" Expression="mc_ele_CBmatching_category" Label="mc_ele_CBmatching_category" Title="mc_ele_CBmatching_category" Unit="" Internal="mc_ele_CBmatching_category" Type="F" Min="0.00000000e+00" Max="3.00000000e+00"/>
  </Spectators>
  <Classes NClass="2">
    <Class Name="Signal" Index="0"/>
    <Class Name="Background" Index="1"/>
  </Classes>
  <Transformations NTransformations="0"/>
  <MVAPdfs>
    <PDF Name="BDT_PDFSig" MinNSmooth="0" MaxNSmooth="0" InterpolMethod="2" KDE_type="1" KDE_iter="1" KDE_border="1" KDE_finefactor="1.0000000000000000e+00">
      <Histogram Name="BDT_tr_S_original" NBins="1055" XMin="-9.9999815225601196e-01" XMax="9.7431665658950806e-01" HasEquidistantBins="1">
        0.00000000e+00 1.92701980e-01 1.92701980e-01 0.00000000e+00 1.28467992e-01 1.92701980e-01 4.49637949e-01 1.92701980e-01 1.28467992e-01 2.56935984e-01 1.28467992e-01 2.56935984e-01 6.42339960e-02 6.42339960e-02 3.85403961e-01 2.56935984e-01 3.85403961e-01 3.21169972e-01 2.56935984e-01 3.85403961e-01 2.56935984e-01 1.28467992e-01 1.92701980e-01 3.21169972e-01 1.92701980e-01 1.28467992e-01 1.92701980e-01 2.56935984e-01 1.92701980e-01 1.28467992e-01 3.85403961e-01 1.28467992e-01 1.28467992e-01 1.28467992e-01 3.21169972e-01 0.00000000e+00 1.92701980e-01 3.21169972e-01 2.56935984e-01 1.92701980e-01 1.92701980e-01 6.42339960e-02 1.92701980e-01 1.92701980e-01 1.92701980e-01 1.28467992e-01 6.42339960e-02 1.28467992e-01 6.42339960e-02 1.28467992e-01 6.42339960e-02 3.21169972e-01 1.92701980e-01 1.92701980e-01 1.92701980e-01 2.56935984e-01 3.21169972e-01 1.92701980e-01 1.92701980e-01 2.56935984e-01 1.92701980e-01 2.56935984e-01 1.92701980e-01 6.42339960e-02 1.92701980e-01 1.28467992e-01 6.42339960e-02 3.85403961e-01 3.85403961e-01 1.92701980e-01 1.92701980e-01 3.21169972e-01 1.28467992e-01 1.92701980e-01 3.85403961e-01 0.00000000e+00 3.21169972e-01 6.42339960e-02 3.21169972e-01 2.56935984e-01 1.92701980e-01 6.42339960e-02 2.56935984e-01 2.56935984e-01 2.56935984e-01 1.92701980e-01 1.92701980e-01 3.21169972e-01 1.92701980e-01 2.56935984e-01 2.56935984e-01 2.56935984e-01 1.92701980e-01 2.56935984e-01 4.49637949e-01 1.92701980e-01 3.21169972e-01 2.56935984e-01 4.49637949e-01 6.42339960e-02 1.28467992e-01 2.56935984e-01 1.92701980e-01 5.13871968e-01 1.92701980e-01 1.92701980e-01 2.56935984e-01 2.56935984e-01 1.92701980e-01 1.92701980e-01 1.28467992e-01 3.85403961e-01 1.28467992e-01 1.92701980e-01 1.28467992e-01 1.92701980e-01 5.13871968e-01 1.28467992e-01 6.42339960e-02 3.85403961e-01 1.92701980e-01 3.21169972e-01 6.42339960e-02 1.92701980e-01 3.21169972e-01 3.21169972e-01 6.42339945e-01 1.28467992e-01 3.21169972e-01 1.92701980e-01 1.28467992e-01 6.42339960e-02 4.49637949e-01 1.28467992e-01 3.21169972e-01 6.42339960e-02 1.92701980e-01 2.56935984e-01 0.00000000e+00 2.56935984e-01 2.56935984e-01 1.92701980e-01 1.28467992e-01 3.21169972e-01 4.49637949e-01 2.56935984e-01 1.92701980e-01 6.42339960e-02 2.56935984e-01 1.92701980e-01 1.92701980e-01 1.28467992e-01 3.21169972e-01 3.21169972e-01 1.92701980e-01 6.42339960e-02 3.85403961e-01 1.28467992e-01 3.85403961e-01 3.85403961e-01 1.92701980e-01 3.85403961e-01 0.00000000e+00 2.56935984e-01 2.56935984e-01 1.92701980e-01 1.92701980e-01 6.42339960e-02 3.85403961e-01 6.42339960e-02 4.49637949e-01 3.85403961e-01 2.56935984e-01 1.92701980e-01 3.85403961e-01 1.28467992e-01 0.00000000e+00 3.21169972e-01 3.85403961e-01 3.85403961e-01 3.85403961e-01 3.21169972e-01 3.21169972e-01 2.56935984e-01 2.56935984e-01 3.85403961e-01 6.42339960e-02 5.78105927e-01 1.28467992e-01 1.92701980e-01 3.21169972e-01 5.78105927e-01 3.21169972e-01 1.28467992e-01 1.28467992e-01 6.42339960e-02 2.56935984e-01 3.85403961e-01 2.56935984e-01 4.49637949e-01 1.28467992e-01 1.92701980e-01 1.28467992e-01 3.85403961e-01 2.56935984e-01 1.92701980e-01 2.56935984e-01 2.56935984e-01 1.28467992e-01 1.92701980e-01 1.92701980e-01 2.56935984e-01 1.92701980e-01 6.42339960e-02 3.85403961e-01 1.92701980e-01 3.85403961e-01 5.78105927e-01 2.56935984e-01 3.21169972e-01 1.92701980e-01 2.56935984e-01 2.56935984e-01 3.21169972e-01 0.00000000e+00 2.56935984e-01 2.56935984e-01 2.56935984e-01 3.85403961e-01 3.85403961e-01 2.56935984e-01 1.92701980e-01 3.21169972e-01 3.21169972e-01 3.21169972e-01 6.42339960e-02 1.92701980e-01 3.85403961e-01 1.28467992e-01 2.56935984e-01 3.85403961e-01 1.92701980e-01 2.56935984e-01 1.28467992e-01 3.21169972e-01 3.85403961e-01 3.21169972e-01 1.92701980e-01 3.85403961e-01 1.92701980e-01 3.21169972e-01 1.92701980e-01 1.92701980e-01 3.21169972e-01 1.28467992e-01 1.92701980e-01 1.92701980e-01 3.21169972e-01 3.21169972e-01 6.42339960e-02 1.28467992e-01 1.92701980e-01 6.42339960e-02 7.06573963e-01 4.49637949e-01 3.21169972e-01 3.85403961e-01 6.42339960e-02 4.49637949e-01 1.28467992e-01 2.56935984e-01 3.21169972e-01 2.56935984e-01 6.42339960e-02 3.85403961e-01 1.92701980e-01 3.21169972e-01 1.92701980e-01 1.28467992e-01 1.92701980e-01 1.92701980e-01 3.21169972e-01 1.28467992e-01 3.21169972e-01 2.56935984e-01 4.49637949e-01 1.92701980e-01 3.21169972e-01 1.92701980e-01 3.85403961e-01 4.49637949e-01 4.49637949e-01 5.13871968e-01 3.21169972e-01 4.49637949e-01 1.92701980e-01 1.28467992e-01 5.13871968e-01 5.13871968e-01 1.92701980e-01 3.85403961e-01 5.78105927e-01 4.49637949e-01 3.21169972e-01 6.42339960e-02 3.85403961e-01 1.92701980e-01 1.92701980e-01 3.21169972e-01 1.28467992e-01 2.56935984e-01 3.21169972e-01 5.13871968e-01 3.21169972e-01 4.49637949e-01 3.21169972e-01 4.49637949e-01 0.00000000e+00 1.28467992e-01 3.21169972e-01 1.92701980e-01 2.56935984e-01 1.92701980e-01 2.56935984e-01 1.92701980e-01 2.56935984e-01 3.21169972e-01 1.28467992e-01 3.21169972e-01 6.42339960e-02 1.92701980e-01 3.21169972e-01 2.56935984e-01 2.56935984e-01 4.49637949e-01 3.21169972e-01 4.49637949e-01 3.85403961e-01 3.21169972e-01 3.21169972e-01 4.49637949e-01 2.56935984e-01 6.42339960e-02 1.28467992e-01 3.85403961e-01 1.28467992e-01 1.28467992e-01 2.56935984e-01 3.21169972e-01 0.00000000e+00 1.92701980e-01 5.78105927e-01 6.42339960e-02 2.56935984e-01 2.56935984e-01 1.92701980e-01 1.92701980e-01 3.21169972e-01 2.56935984e-01 0.00000000e+00 3.21169972e-01 0.00000000e+00 1.28467992e-01 5.78105927e-01 3.21169972e-01 3.85403961e-01 1.92701980e-01 1.28467992e-01 2.56935984e-01 4.49637949e-01 1.92701980e-01 1.28467992e-01 1.92701980e-01 3.85403961e-01 2.56935984e-01 5.78105927e-01 3.85403961e-01 2.56935984e-01 5.13871968e-01 1.92701980e-01 3.21169972e-01 6.42339945e-01 2.56935984e-01 3.85403961e-01 3.85403961e-01 3.85403961e-01 1.28467992e-01 1.92701980e-01 2.56935984e-01 3.21169972e-01 3.21169972e-01 3.85403961e-01 2.56935984e-01 2.56935984e-01 1.92701980e-01 2.56935984e-01 4.49637949e-01 3.21169972e-01 3.21169972e-01 4.49637949e-01 4.49637949e-01 1.28467992e-01 1.92701980e-01 3.21169972e-01 3.21169972e-01 2.56935984e-01 4.49637949e-01 1.28467992e-01 6.42339960e-02 1.92701980e-01 2.56935984e-01 3.21169972e-01 5.13871968e-01 1.92701980e-01 1.28467992e-01 1.92701980e-01 1.92701980e-01 1.28467992e-01 1.28467992e-01 1.92701980e-01 1.28467992e-01 4.49637949e-01 6.42339945e-01 3.21169972e-01 1.92701980e-01 5.13871968e-01 5.13871968e-01 6.42339945e-01 5.13871968e-01 3.85403961e-01 2.56935984e-01 3.85403961e-01 2.56935984e-01 3.21169972e-01 5.13871968e-01 4.49637949e-01 3.85403961e-01 5.78105927e-01 2.56935984e-01 2.56935984e-01 4.49637949e-01 3.21169972e-01 3.21169972e-01 4.49637949e-01 2.56935984e-01 1.28467992e-01 3.85403961e-01 5.78105927e-01 3.85403961e-01 3.85403961e-01 3.85403961e-01 2.56935984e-01 2.56935984e-01 3.85403961e-01 5.78105927e-01 3.85403961e-01 5.78105927e-01 3.85403961e-01 2.56935984e-01 3.85403961e-01 3.85403961e-01 2.56935984e-01 4.49637949e-01 3.21169972e-01 3.85403961e-01 1.92701980e-01 3.21169972e-01 2.56935984e-01 2.56935984e-01 5.78105927e-01 1.92701980e-01 2.56935984e-01 5.78105927e-01 3.21169972e-01 7.06573963e-01 3.85403961e-01 2.56935984e-01 3.85403961e-01 5.78105927e-01 1.92701980e-01 3.21169972e-01 3.85403961e-01 1.28467992e-01 3.85403961e-01 2.56935984e-01 4.49637949e-01 2.56935984e-01 2.56935984e-01 1.28467992e-01 2.56935984e-01 5.13871968e-01 2.56935984e-01 1.92701980e-01 2.56935984e-01 5.78105927e-01 3.21169972e-01 2.56935984e-01 1.92701980e-01 7.06573963e-01 3.85403961e-01 3.21169972e-01 3.21169972e-01 3.21169972e-01 1.92701980e-01 4.49637949e-01 5.13871968e-01 3.85403961e-01 6.42339960e-02 3.85403961e-01 5.13871968e-01 3.21169972e-01 5.78105927e-01 3.85403961e-01 5.78105927e-01 1.28467992e-01 4.49637949e-01 2.56935984e-01 4.49637949e-01 9.63509917e-01 3.85403961e-01 4.49637949e-01 6.42339960e-02 6.42339945e-01 3.21169972e-01 3.85403961e-01 1.28467992e-01 2.56935984e-01 2.56935984e-01 3.85403961e-01 3.21169972e-01 3.21169972e-01 5.13871968e-01 5.78105927e-01 2.56935984e-01 3.21169972e-01 2.56935984e-01 6.42339945e-01 1.92701980e-01 1.28467992e-01 2.56935984e-01 5.13871968e-01 2.56935984e-01 3.85403961e-01 6.42339945e-01 3.85403961e-01 7.70807922e-01 4.49637949e-01 3.21169972e-01 8.35041940e-01 4.49637949e-01 6.42339960e-02 5.13871968e-01 2.56935984e-01 1.92701980e-01 3.85403961e-01 5.13871968e-01 1.92701980e-01 3.21169972e-01 1.92701980e-01 1.92701980e-01 5.78105927e-01 1.92701980e-01 4.49637949e-01 2.56935984e-01 7.70807922e-01 3.85403961e-01 4.49637949e-01 2.56935984e-01 3.85403961e-01 6.42339945e-01 5.13871968e-01 5.13871968e-01 5.13871968e-01 5.13871968e-01 4.49637949e-01 4.49637949e-01 2.56935984e-01 4.49637949e-01 5.78105927e-01 5.13871968e-01 3.85403961e-01 5.13871968e-01 3.85403961e-01 7.06573963e-01 7.06573963e-01 2.56935984e-01 3.85403961e-01 4.49637949e-01 3.21169972e-01 3.21169972e-01 3.85403961e-01 3.85403961e-01 3.85403961e-01 5.78105927e-01 2.56935984e-01 2.56935984e-01 7.70807922e-01 7.70807922e-01 3.21169972e-01 3.85403961e-01 4.49637949e-01 5.13871968e-01 3.85403961e-01 4.49637949e-01 5.13871968e-01 2.56935984e-01 5.13871968e-01 3.21169972e-01 7.70807922e-01 2.56935984e-01 3.85403961e-01 4.49637949e-01 2.56935984e-01 1.28467992e-01 4.49637949e-01 1.92701980e-01 6.42339945e-01 5.13871968e-01 3.85403961e-01 3.85403961e-01 4.49637949e-01 5.13871968e-01 3.85403961e-01 3.21169972e-01 5.78105927e-01 4.49637949e-01 6.42339945e-01 8.99275899e-01 2.56935984e-01 1.28467992e-01 5.13871968e-01 4.49637949e-01 3.85403961e-01 5.78105927e-01 5.78105927e-01 4.49637949e-01 8.99275899e-01 5.13871968e-01 6.42339945e-01 3.21169972e-01 3.85403961e-01 5.78105927e-01 7.06573963e-01 3.21169972e-01 5.13871968e-01 4.49637949e-01 3.85403961e-01 4.49637949e-01 2.56935984e-01 7.06573963e-01 3.21169972e-01 1.92701980e-01 6.42339945e-01 4.49637949e-01 5.13871968e-01 8.35041940e-01 1.92701980e-01 3.21169972e-01 3.21169972e-01 3.21169972e-01 3.21169972e-01 7.06573963e-01 1.28467992e-01 2.56935984e-01 3.21169972e-01 3.21169972e-01 5.13871968e-01 3.21169972e-01 5.13871968e-01 3.85403961e-01 8.35041940e-01 4.49637949e-01 6.42339945e-01 6.42339945e-01 7.06573963e-01 5.78105927e-01 5.13871968e-01 6.42339945e-01 2.56935984e-01 6.42339945e-01 5.13871968e-01 5.13871968e-01 4.49637949e-01 3.21169972e-01 4.49637949e-01 3.21169972e-01 3.21169972e-01 6.42339945e-01 7.06573963e-01 3.85403961e-01 5.13871968e-01 7.06573963e-01 8.35041940e-01 5.78105927e-01 7.06573963e-01 5.78105927e-01 8.35041940e-01 1.28467992e-01 7.06573963e-01 5.78105927e-01 8.35041940e-01 5.78105927e-01 6.42339945e-01 5.78105927e-01 8.99275899e-01 6.42339945e-01 5.13871968e-01 5.78105927e-01 4.49637949e-01 3.85403961e-01 8.99275899e-01 8.99275899e-01 6.42339945e-01 5.78105927e-01 3.85403961e-01 4.49637949e-01 8.99275899e-01 5.13871968e-01 5.13871968e-01 2.56935984e-01 7.70807922e-01 6.42339945e-01 6.42339945e-01 5.78105927e-01 8.99275899e-01 6.42339945e-01 5.78105927e-01 7.06573963e-01 5.78105927e-01 4.49637949e-01 5.78105927e-01 5.78105927e-01 8.35041940e-01 7.06573963e-01 4.49637949e-01 7.06573963e-01 6.42339945e-01 4.49637949e-01 8.35041940e-01 4.49637949e-01 4.49637949e-01 0.00000000e+00 7.06573963e-01 5.13871968e-01 5.78105927e-01 2.56935984e-01 6.42339945e-01 8.99275899e-01 8.35041940e-01 1.02774394e+00 6.42339945e-01 8.35041940e-01 5.78105927e-01 3.21169972e-01 4.49637949e-01 3.85403961e-01 2.56935984e-01 7.70807922e-01 6.42339945e-01 7.70807922e-01 7.06573963e-01 6.42339945e-01 7.70807922e-01 9.63509917e-01 3.21169972e-01 2.56935984e-01 6.42339945e-01 3.21169972e-01 7.06573963e-01 1.34891391e+00 7.70807922e-01 4.49637949e-01 6.42339945e-01 1.28467992e-01 3.85403961e-01 6.42339945e-01 1.02774394e+00 8.99275899e-01 5.13871968e-01 7.70807922e-01 4.49637949e-01 1.02774394e+00 7.06573963e-01 8.35041940e-01 7.70807922e-01 7.06573963e-01 1.15621185e+00 1.02774394e+00 9.63509917e-01 6.42339945e-01 5.78105927e-01 4.49637949e-01 5.78105927e-01 3.85403961e-01 3.21169972e-01 5.78105927e-01 6.42339945e-01 4.49637949e-01 7.06573963e-01 6.42339945e-01 6.42339945e-01 4.49637949e-01 7.70807922e-01 8.99275899e-01 6.42339945e-01 7.70807922e-01 4.49637949e-01 1.15621185e+00 6.42339945e-01 5.13871968e-01 6.42339945e-01 7.06573963e-01 7.70807922e-01 7.06573963e-01 5.13871968e-01 3.21169972e-01 6.42339945e-01 5.13871968e-01 6.42339945e-01 5.78105927e-01 1.15621185e+00 9.63509917e-01 8.99275899e-01 8.99275899e-01 8.99275899e-01 3.21169972e-01 6.42339945e-01 7.70807922e-01 1.02774394e+00 8.99275899e-01 8.99275899e-01 8.35041940e-01 1.34891391e+00 7.70807922e-01 1.09197795e+00 5.78105927e-01 6.42339945e-01 8.35041940e-01 7.06573963e-01 3.85403961e-01 7.70807922e-01 7.06573963e-01 5.13871968e-01 1.09197795e+00 8.35041940e-01 1.09197795e+00 8.35041940e-01 8.99275899e-01 7.70807922e-01 1.34891391e+00 1.22044587e+00 7.70807922e-01 1.86278582e+00 8.35041940e-01 7.70807922e-01 9.63509917e-01 8.99275899e-01 1.02774394e+00 1.02774394e+00 5.13871968e-01 7.70807922e-01 8.99275899e-01 1.34891391e+00 7.70807922e-01 1.15621185e+00 4.49637949e-01 7.70807922e-01 1.09197795e+00 6.42339945e-01 1.09197795e+00 6.42339945e-01 1.41314793e+00 1.22044587e+00 1.02774394e+00 8.99275899e-01 5.78105927e-01 1.34891391e+00 8.35041940e-01 1.02774394e+00 6.42339945e-01 8.99275899e-01 9.63509917e-01 9.63509917e-01 1.15621185e+00 8.35041940e-01 1.15621185e+00 1.22044587e+00 1.28467989e+00 1.09197795e+00 1.28467989e+00 9.63509917e-01 1.09197795e+00 1.09197795e+00 7.06573963e-01 1.22044587e+00 1.09197795e+00 1.02774394e+00 9.63509917e-01 1.41314793e+00 7.70807922e-01 8.99275899e-01 1.28467989e+00 8.99275899e-01 1.54161584e+00 4.49637949e-01 1.41314793e+00 1.02774394e+00 9.63509917e-01 1.34891391e+00 1.41314793e+00 1.34891391e+00 1.34891391e+00 8.35041940e-01 1.22044587e+00 8.35041940e-01 6.42339945e-01 1.41314793e+00 1.09197795e+00 1.02774394e+00 8.35041940e-01 1.15621185e+00 8.99275899e-01 1.34891391e+00 1.60584986e+00 1.60584986e+00 1.02774394e+00 9.63509917e-01 1.09197795e+00 7.70807922e-01 1.02774394e+00 1.34891391e+00 1.54161584e+00 8.35041940e-01 1.22044587e+00 9.63509917e-01 9.63509917e-01 8.99275899e-01 1.22044587e+00 1.22044587e+00 9.63509917e-01 1.47738183e+00 1.54161584e+00 1.60584986e+00 1.79855180e+00 1.22044587e+00 1.60584986e+00 1.79855180e+00 1.22044587e+00 1.22044587e+00 1.22044587e+00 9.63509917e-01 1.34891391e+00 1.60584986e+00 1.28467989e+00 1.60584986e+00 1.28467989e+00 1.60584986e+00 1.15621185e+00 7.70807922e-01 1.09197795e+00 1.02774394e+00 1.15621185e+00 1.41314793e+00 1.54161584e+00 1.67008388e+00 1.60584986e+00 2.18395591e+00 9.63509917e-01 1.22044587e+00 9.63509917e-01 1.73431790e+00 1.54161584e+00 1.54161584e+00 1.09197795e+00 1.67008388e+00 1.99125385e+00 1.41314793e+00 1.79855180e+00 1.79855180e+00 1.67008388e+00 1.28467989e+00 1.67008388e+00 8.35041940e-01 1.67008388e+00 9.63509917e-01 1.54161584e+00 1.09197795e+00 7.70807922e-01 1.34891391e+00 1.28467989e+00 1.09197795e+00 1.28467989e+00 1.28467989e+00 1.15621185e+00 1.47738183e+00 1.54161584e+00 1.15621185e+00 1.60584986e+00 1.41314793e+00 9.63509917e-01 1.09197795e+00 1.02774394e+00 1.54161584e+00 1.15621185e+00 1.41314793e+00 1.09197795e+00 1.41314793e+00 1.41314793e+00 9.63509917e-01 7.06573963e-01 7.06573963e-01 8.99275899e-01 9.63509917e-01 8.35041940e-01 1.09197795e+00 1.02774394e+00 8.35041940e-01 1.22044587e+00 7.06573963e-01 7.06573963e-01 8.35041940e-01 1.02774394e+00 1.41314793e+00 1.02774394e+00 1.41314793e+00 7.06573963e-01 5.78105927e-01 5.78105927e-01 6.42339945e-01 7.70807922e-01 3.85403961e-01 4.49637949e-01 2.56935984e-01 3.21169972e-01 3.85403961e-01 3.21169972e-01 1.28467992e-01 1.28467992e-01 1.92701980e-01 1.28467992e-01 1.28467992e-01 6.42339960e-02 2.56935984e-01 6.42339960e-02 0.00000000e+00 0.00000000e+00 0.00000000e+00 6.42339960e-02 6.42339960e-02 0.00000000e+00 1.28467992e-01 0.00000000e+00 0.00000000e+00 0.00000000e+00 0.00000000e+00 
      </Histogram>
    </PDF>
    <PDF Name="BDT_PDFBkg" MinNSmooth="0" MaxNSmooth="0" InterpolMethod="2" KDE_type="1" KDE_iter="1" KDE_border="1" KDE_finefactor="1.0000000000000000e+00">
      <Histogram Name="BDT_tr_B_original" NBins="1055" XMin="-9.9999815225601196e-01" XMax="9.7431665658950806e-01" HasEquidistantBins="1">
        4.99196205e+01 3.91892509e+01 2.96689224e+01 2.51306305e+01 2.13590202e+01 1.80916862e+01 1.57521124e+01 1.30293331e+01 1.20208902e+01 1.07703838e+01 1.01854696e+01 9.92326641e+00 8.81394577e+00 8.16852283e+00 6.57513571e+00 7.32140541e+00 6.33310223e+00 5.16328955e+00 4.88092232e+00 5.24396610e+00 4.43720198e+00 4.39686394e+00 3.75145268e+00 4.21534204e+00 4.05398893e+00 3.69094539e+00 3.36823988e+00 3.75145268e+00 3.16654873e+00 3.79179096e+00 3.50942349e+00 2.96485758e+00 2.82367396e+00 2.11775541e+00 2.52113748e+00 2.56147575e+00 2.44046116e+00 2.07741737e+00 2.74299765e+00 1.69420445e+00 2.21860099e+00 2.05724812e+00 2.42029190e+00 1.99674094e+00 1.77488089e+00 1.93623364e+00 1.93623364e+00 1.67403531e+00 1.75471175e+00 1.47234428e+00 1.45217514e+00 1.45217514e+00 1.93623364e+00 1.04879320e+00 1.16980779e+00 1.37149882e+00 1.23031509e+00 1.45217514e+00 1.33116055e+00 1.31099153e+00 1.37149882e+00 1.45217514e+00 1.18997693e+00 1.45217514e+00 8.47102225e-01 1.21014595e+00 7.26087630e-01 1.16980779e+00 9.07609522e-01 9.07609522e-01 8.47102225e-01 9.47947741e-01 9.88285899e-01 8.87440443e-01 8.06764007e-01 6.85749412e-01 9.68116820e-01 8.06764007e-01 7.26087630e-01 1.12946963e+00 7.86594927e-01 9.27778602e-01 9.88285899e-01 6.65580332e-01 1.04879320e+00 6.65580332e-01 1.02862406e+00 7.46256709e-01 6.45411253e-01 6.25242174e-01 7.46256709e-01 7.26087630e-01 6.45411253e-01 9.47947741e-01 4.63889360e-01 8.26933146e-01 8.26933146e-01 6.85749412e-01 4.84058470e-01 5.44565737e-01 4.84058470e-01 8.06764007e-01 7.05918550e-01 5.84903955e-01 6.65580332e-01 5.84903955e-01 4.84058470e-01 4.84058470e-01 5.04227579e-01 5.64734876e-01 6.65580332e-01 6.05073310e-02 3.83212954e-01 3.63043875e-01 6.05073035e-01 4.84058470e-01 4.03382063e-01 4.84058470e-01 3.83212954e-01 4.43720251e-01 4.63889360e-01 5.24396658e-01 2.62198359e-01 4.03382063e-01 5.44565737e-01 2.62198359e-01 6.45411253e-01 4.84058470e-01 3.22705656e-01 5.24396658e-01 4.23551172e-01 6.25242174e-01 3.42874765e-01 4.03382063e-01 3.42874765e-01 4.03382063e-01 3.42874765e-01 4.84058470e-01 3.42874765e-01 1.61352873e-01 3.02536577e-01 3.83212954e-01 4.23551172e-01 3.42874765e-01 3.83212954e-01 3.63043875e-01 5.44565737e-01 5.04227579e-01 5.24396658e-01 3.63043875e-01 2.62198359e-01 2.82367468e-01 4.03382063e-01 2.62198359e-01 2.42029279e-01 3.42874765e-01 2.82367468e-01 3.42874765e-01 3.83212954e-01 3.42874765e-01 3.22705656e-01 4.84058470e-01 4.23551172e-01 3.02536577e-01 2.62198359e-01 3.02536577e-01 2.42029279e-01 2.01691076e-01 4.23551172e-01 2.01691076e-01 1.81521967e-01 3.63043875e-01 3.02536577e-01 2.42029279e-01 4.84058470e-01 1.61352873e-01 2.01691076e-01 2.42029279e-01 3.83212954e-01 3.83212954e-01 2.82367468e-01 4.03382063e-01 1.81521982e-01 3.02536577e-01 3.02536577e-01 2.82367468e-01 2.62198359e-01 1.81521982e-01 1.81521982e-01 3.42874765e-01 3.22705656e-01 4.84058470e-01 4.43720251e-01 2.82367468e-01 2.42029279e-01 2.62198359e-01 2.42029279e-01 1.41183764e-01 2.42029279e-01 2.82367468e-01 2.21860170e-01 3.22705656e-01 1.21014647e-01 1.81521982e-01 2.62198359e-01 2.62198359e-01 2.21860170e-01 2.42029279e-01 3.83212954e-01 1.41183764e-01 2.21860170e-01 2.01691076e-01 3.42874765e-01 3.02536577e-01 2.82367468e-01 2.42029279e-01 3.42874765e-01 1.61352873e-01 2.62198359e-01 2.82367468e-01 2.01691076e-01 2.01691076e-01 3.22705656e-01 2.42029279e-01 2.62198359e-01 2.42029279e-01 2.21860170e-01 8.06764290e-02 3.63043875e-01 2.62198359e-01 2.01691076e-01 3.02536577e-01 2.42029279e-01 1.61352873e-01 1.41183764e-01 1.61352873e-01 2.42029279e-01 0.00000000e+00 2.42029279e-01 3.02536577e-01 6.05073310e-02 2.82367468e-01 6.05073199e-02 2.01691076e-01 1.41183764e-01 1.81521982e-01 1.61352873e-01 2.42029279e-01 3.22705656e-01 8.06764290e-02 1.61352858e-01 3.22705656e-01 1.61352873e-01 1.21014647e-01 1.00845538e-01 2.21860170e-01 1.00845538e-01 1.41183764e-01 4.03382182e-02 1.81521982e-01 1.61352873e-01 6.05073236e-02 2.42029279e-01 2.62198359e-01 1.00845538e-01 4.03382145e-02 3.42874765e-01 8.06764364e-02 1.81521982e-01 8.06764290e-02 1.81521982e-01 2.01691076e-01 2.82367468e-01 1.61352873e-01 1.00845538e-01 1.81521982e-01 3.02536577e-01 1.41183764e-01 1.00845538e-01 4.03382145e-02 2.62198359e-01 -2.01691054e-02 1.21014647e-01 6.05073236e-02 1.41183764e-01 8.06764364e-02 1.00845538e-01 2.01691076e-01 2.83538926e-09 1.81521982e-01 2.01691076e-01 2.62198359e-01 1.41183764e-01 2.42029279e-01 1.41183764e-01 2.01691091e-02 1.00845538e-01 1.41183764e-01 6.05073236e-02 8.06764290e-02 1.41183764e-01 8.06764290e-02 1.81521982e-01 1.41183764e-01 1.00845538e-01 2.62198359e-01 1.41183764e-01 1.61352873e-01 6.05073236e-02 2.42029279e-01 1.00845538e-01 1.00845538e-01 1.61352873e-01 4.03382182e-02 1.21014647e-01 4.03382182e-02 8.06764364e-02 6.05073236e-02 4.03382145e-02 2.42029279e-01 1.00845538e-01 1.41183764e-01 8.06764364e-02 8.06764364e-02 1.21014647e-01 2.62198359e-01 4.03382145e-02 4.03382182e-02 2.42029279e-01 4.03382182e-02 1.21014647e-01 1.61352873e-01 1.21014647e-01 6.05073236e-02 6.05073236e-02 4.03382182e-02 6.05073236e-02 1.61352873e-01 0.00000000e+00 1.41183764e-01 1.21014647e-01 6.05073199e-02 1.41183764e-01 1.00845538e-01 1.00845538e-01 1.00845538e-01 6.05073236e-02 1.41183764e-01 2.42029279e-01 1.81521982e-01 1.21014647e-01 6.05073236e-02 6.05073236e-02 1.41183764e-01 1.00845538e-01 8.06764364e-02 1.61352873e-01 1.81521967e-01 1.21014647e-01 1.21014647e-01 6.05073236e-02 1.21014647e-01 2.01691091e-02 6.05073236e-02 2.01691076e-01 1.00845538e-01 8.06764364e-02 6.05073236e-02 1.00845538e-01 1.00845538e-01 4.03382182e-02 4.03382182e-02 1.21014647e-01 8.06764364e-02 0.00000000e+00 1.41183764e-01 1.61352873e-01 6.05073236e-02 1.41183764e-01 1.21014647e-01 6.05073236e-02 1.21014647e-01 2.42029279e-01 6.05073199e-02 4.03382182e-02 1.21014647e-01 1.41183764e-01 1.81521982e-01 1.21014647e-01 1.61352873e-01 1.61352873e-01 1.61352873e-01 1.00845538e-01 1.00845538e-01 2.01691091e-02 8.06764364e-02 8.06764364e-02 -2.01691091e-02 4.03382182e-02 6.05073236e-02 1.41183764e-01 6.05073236e-02 1.41183764e-01 2.01691076e-01 8.06764364e-02 1.21014647e-01 1.21014647e-01 0.00000000e+00 8.06764364e-02 1.00845538e-01 6.05073236e-02 1.41183764e-01 1.21014647e-01 8.06764364e-02 2.01691091e-02 1.61352873e-01 8.06764364e-02 8.06764364e-02 1.00845538e-01 1.21014647e-01 1.21014647e-01 4.03382182e-02 1.41183764e-01 1.41183764e-01 6.05073236e-02 4.03382182e-02 8.06764364e-02 1.00845538e-01 2.01691091e-02 6.05073236e-02 1.00845538e-01 8.06764290e-02 -2.01691091e-02 6.05073236e-02 4.03382182e-02 1.21014647e-01 2.01691091e-02 1.21014647e-01 4.03382182e-02 1.61352873e-01 4.03382182e-02 8.06764364e-02 -4.03382182e-02 1.21014647e-01 4.03382182e-02 8.06764364e-02 6.05073236e-02 1.41183764e-01 1.21014647e-01 1.21014647e-01 6.05073236e-02 8.06764364e-02 8.06764364e-02 6.05073199e-02 2.01691076e-01 8.06764364e-02 6.05073236e-02 1.00845538e-01 6.05073236e-02 2.01691076e-01 4.03382182e-02 6.05073236e-02 0.00000000e+00 2.01691091e-02 2.01691091e-02 2.01691091e-02 8.06764290e-02 1.00845538e-01 1.61352873e-01 1.00845538e-01 -2.01691091e-02 8.06764290e-02 0.00000000e+00 -2.01691091e-02 -2.01691091e-02 6.05073236e-02 1.21014647e-01 2.01691091e-02 8.06764364e-02 2.01691091e-02 4.03382145e-02 4.03382182e-02 1.21014647e-01 8.06764290e-02 4.03382145e-02 8.06764364e-02 2.01691091e-02 6.05073236e-02 1.00845538e-01 6.05073236e-02 2.01691091e-02 8.06764290e-02 6.05073236e-02 6.05073236e-02 4.03382182e-02 1.21014647e-01 0.00000000e+00 0.00000000e+00 6.05073236e-02 1.00845538e-01 2.01691091e-02 8.06764364e-02 8.06764290e-02 6.05073236e-02 4.03382182e-02 1.21014647e-01 1.61352873e-01 6.05073236e-02 6.05073236e-02 1.41183764e-01 -2.01691091e-02 8.06764364e-02 2.01691091e-02 4.03382182e-02 2.01691091e-02 4.03382182e-02 1.61352873e-01 1.00845538e-01 0.00000000e+00 6.05073236e-02 0.00000000e+00 2.01691091e-02 6.05073199e-02 0.00000000e+00 4.03382182e-02 6.05073236e-02 6.05073236e-02 1.00845538e-01 4.03382182e-02 2.01691091e-02 8.06764364e-02 4.03382182e-02 1.00845538e-01 8.06764364e-02 2.01691091e-02 4.03382182e-02 -2.01691091e-02 0.00000000e+00 6.05073236e-02 6.05073236e-02 2.01691091e-02 6.05073236e-02 4.03382182e-02 8.06764364e-02 4.03382182e-02 1.41183764e-01 1.21014647e-01 4.03382182e-02 8.06764364e-02 1.00845538e-01 0.00000000e+00 2.01691091e-02 -2.01691091e-02 2.01691091e-02 0.00000000e+00 -2.01691091e-02 8.06764364e-02 6.05073236e-02 6.05073236e-02 4.03382182e-02 1.41183764e-01 -4.03382145e-02 -2.01691091e-02 1.00845538e-01 1.00845538e-01 6.05073236e-02 2.01691091e-02 8.06764364e-02 8.06764364e-02 4.03382182e-02 -2.01691091e-02 4.03382182e-02 6.05073236e-02 1.00845538e-01 8.06764364e-02 8.06764364e-02 4.03382182e-02 6.05073236e-02 -4.03382182e-02 0.00000000e+00 8.06764364e-02 1.21014647e-01 -2.01691091e-02 8.06764364e-02 4.03382182e-02 6.05073236e-02 -2.01691091e-02 2.01691091e-02 8.06764364e-02 0.00000000e+00 0.00000000e+00 0.00000000e+00 8.06764364e-02 6.05073236e-02 6.05073236e-02 1.00845538e-01 4.03382145e-02 8.06764364e-02 8.06764364e-02 6.05073236e-02 2.01691091e-02 6.05073236e-02 2.01691091e-02 0.00000000e+00 8.06764364e-02 2.01691091e-02 6.05073236e-02 6.05073236e-02 6.05073236e-02 6.05073236e-02 4.03382182e-02 8.06764364e-02 1.00845538e-01 1.00845538e-01 2.01691091e-02 8.06764364e-02 6.05073236e-02 0.00000000e+00 1.00845538e-01 1.00845538e-01 2.01691091e-02 4.03382182e-02 6.05073236e-02 1.41183764e-01 2.01691091e-02 2.01691091e-02 8.06764364e-02 6.05073236e-02 2.01691091e-02 2.01691091e-02 4.03382182e-02 2.01691091e-02 0.00000000e+00 8.06764364e-02 -2.01691091e-02 2.01691091e-02 8.06764364e-02 2.01691091e-02 6.05073236e-02 0.00000000e+00 8.06764364e-02 0.00000000e+00 4.03382145e-02 -4.03382182e-02 0.00000000e+00 2.01691091e-02 2.01691091e-02 1.21014647e-01 0.00000000e+00 8.06764364e-02 1.21014647e-01 1.00845538e-01 2.01691091e-02 2.01691091e-02 1.21014647e-01 8.06764364e-02 0.00000000e+00 8.06764364e-02 8.06764364e-02 8.06764364e-02 2.01691091e-02 6.05073236e-02 4.03382182e-02 -2.01691091e-02 4.03382182e-02 0.00000000e+00 4.03382145e-02 4.03382182e-02 8.06764364e-02 6.05073236e-02 2.01691091e-02 2.01691091e-02 8.06764364e-02 4.03382182e-02 -2.01691091e-02 4.03382182e-02 4.03382182e-02 -2.01691091e-02 8.06764364e-02 2.01691091e-02 0.00000000e+00 -2.01691091e-02 4.03382182e-02 2.01691091e-02 6.05073236e-02 8.06764364e-02 4.03382145e-02 8.06764364e-02 4.03382182e-02 4.03382182e-02 0.00000000e+00 2.01691091e-02 2.01691091e-02 4.03382182e-02 4.03382145e-02 6.05073236e-02 6.05073236e-02 8.06764364e-02 6.05073236e-02 0.00000000e+00 2.01691091e-02 0.00000000e+00 6.05073236e-02 2.01691091e-02 0.00000000e+00 2.01691091e-02 2.01691091e-02 1.21014647e-01 6.05073236e-02 2.01691091e-02 -2.01691091e-02 1.00845538e-01 0.00000000e+00 6.05073236e-02 2.01691091e-02 0.00000000e+00 6.05073236e-02 1.61352873e-01 6.05073236e-02 6.05073236e-02 6.05073236e-02 0.00000000e+00 8.06764364e-02 4.03382182e-02 2.01691091e-02 4.03382182e-02 4.03382182e-02 8.06764364e-02 2.01691091e-02 1.00845538e-01 4.03382182e-02 6.05073236e-02 1.41183764e-01 2.01691091e-02 8.06764364e-02 1.00845538e-01 8.06764364e-02 0.00000000e+00 1.41183764e-01 8.06764364e-02 6.05073236e-02 1.41183764e-01 8.06764364e-02 0.00000000e+00 2.01691091e-02 6.05073236e-02 2.01691091e-02 8.06764364e-02 0.00000000e+00 2.01691091e-02 2.01691091e-02 6.05073236e-02 4.03382145e-02 4.03382182e-02 0.00000000e+00 8.06764364e-02 0.00000000e+00 2.01691091e-02 2.01691091e-02 1.00845538e-01 4.03382182e-02 4.03382145e-02 4.03382182e-02 8.06764364e-02 4.03382182e-02 1.21014647e-01 4.03382182e-02 4.03382182e-02 2.01691091e-02 8.06764364e-02 8.06764364e-02 6.05073236e-02 2.01691091e-02 2.01691091e-02 1.21014647e-01 2.01691091e-02 0.00000000e+00 2.01691091e-02 2.01691091e-02 0.00000000e+00 2.01691091e-02 2.01691091e-02 4.03382182e-02 0.00000000e+00 -2.01691091e-02 6.05073236e-02 0.00000000e+00 0.00000000e+00 0.00000000e+00 4.03382182e-02 6.05073236e-02 -6.05073236e-02 4.03382182e-02 2.01691091e-02 6.05073236e-02 4.03382182e-02 2.01691091e-02 2.01691091e-02 6.05073236e-02 6.05073236e-02 6.05073236e-02 6.05073236e-02 4.03382182e-02 2.01691091e-02 4.03382182e-02 4.03382182e-02 4.03382182e-02 4.03382182e-02 6.05073236e-02 2.01691091e-02 6.05073236e-02 4.03382182e-02 -2.01691091e-02 8.06764364e-02 6.05073236e-02 -4.03382182e-02 2.01691091e-02 6.05073236e-02 2.01691091e-02 -2.01691091e-02 1.00845538e-01 1.00845538e-01 0.00000000e+00 6.05073236e-02 6.05073236e-02 6.05073236e-02 0.00000000e+00 4.03382182e-02 2.01691091e-02 2.01691091e-02 2.01691091e-02 6.05073236e-02 4.03382182e-02 0.00000000e+00 6.05073236e-02 4.03382182e-02 -4.03382182e-02 8.06764364e-02 1.21014647e-01 4.03382182e-02 0.00000000e+00 0.00000000e+00 4.03382145e-02 8.06764364e-02 0.00000000e+00 4.03382182e-02 4.03382145e-02 2.01691091e-02 1.41183764e-01 4.03382182e-02 8.06764364e-02 1.41183764e-01 2.01691091e-02 8.06764364e-02 2.01691091e-02 2.01691091e-02 0.00000000e+00 2.01691091e-02 0.00000000e+00 4.03382182e-02 6.05073236e-02 4.03382182e-02 8.06764364e-02 8.06764364e-02 4.03382182e-02 0.00000000e+00 0.00000000e+00 2.01691091e-02 2.01691091e-02 8.06764364e-02 8.06764364e-02 4.03382182e-02 2.01691091e-02 0.00000000e+00 0.00000000e+00 1.21014647e-01 -4.03382182e-02 2.01691091e-02 0.00000000e+00 2.01691091e-02 0.00000000e+00 2.01691091e-02 2.01691091e-02 4.03382182e-02 8.06764364e-02 4.03382182e-02 6.05073236e-02 4.03382182e-02 2.01691091e-02 0.00000000e+00 8.06764364e-02 -2.01691091e-02 4.03382182e-02 2.01691091e-02 2.01691091e-02 4.03382182e-02 0.00000000e+00 2.01691091e-02 8.06764364e-02 4.03382182e-02 6.05073236e-02 4.03382182e-02 2.01691091e-02 4.03382182e-02 2.01691091e-02 0.00000000e+00 4.03382182e-02 6.05073236e-02 0.00000000e+00 0.00000000e+00 2.01691091e-02 4.03382182e-02 2.01691091e-02 4.03382182e-02 2.01691091e-02 8.06764364e-02 4.03382182e-02 6.05073236e-02 4.03382182e-02 0.00000000e+00 6.05073236e-02 -2.01691091e-02 2.01691091e-02 4.03382182e-02 4.03382182e-02 2.01691091e-02 2.01691091e-02 2.01691091e-02 6.05073236e-02 -4.03382182e-02 -2.01691091e-02 4.03382182e-02 -2.01691091e-02 4.03382182e-02 2.01691091e-02 0.00000000e+00 8.06764364e-02 0.00000000e+00 4.03382182e-02 2.01691091e-02 8.06764364e-02 4.03382182e-02 0.00000000e+00 4.03382182e-02 2.01691091e-02 0.00000000e+00 4.03382145e-02 4.03382182e-02 4.03382182e-02 6.05073236e-02 2.01691091e-02 6.05073236e-02 -2.01691091e-02 -2.01691091e-02 0.00000000e+00 1.00845538e-01 6.05073236e-02 4.03382145e-02 2.01691091e-02 4.03382182e-02 2.01691091e-02 4.03382182e-02 0.00000000e+00 4.03382182e-02 2.01691091e-02 6.05073236e-02 -2.01691091e-02 -2.01691091e-02 0.00000000e+00 8.06764364e-02 8.06764364e-02 4.03382182e-02 2.01691091e-02 2.01691091e-02 0.00000000e+00 2.01691091e-02 2.01691091e-02 2.01691091e-02 4.03382182e-02 -2.01691091e-02 4.03382182e-02 4.03382182e-02 2.01691091e-02 0.00000000e+00 4.03382182e-02 4.03382182e-02 4.03382182e-02 4.03382182e-02 -4.03382182e-02 2.01691091e-02 8.06764364e-02 0.00000000e+00 0.00000000e+00 0.00000000e+00 6.05073236e-02 0.00000000e+00 -2.01691091e-02 0.00000000e+00 0.00000000e+00 4.03382182e-02 0.00000000e+00 -2.01691091e-02 0.00000000e+00 0.00000000e+00 0.00000000e+00 2.01691091e-02 4.03382182e-02 2.01691091e-02 0.00000000e+00 2.01691091e-02 2.01691091e-02 2.01691091e-02 4.03382182e-02 0.00000000e+00 0.00000000e+00 4.03382182e-02 2.01691091e-02 0.00000000e+00 2.01691091e-02 0.00000000e+00 0.00000000e+00 2.01691091e-02 2.01691091e-02 -2.01691091e-02 0.00000000e+00 2.01691091e-02 0.00000000e+00 0.00000000e+00 0.00000000e+00 -2.01691091e-02 0.00000000e+00 0.00000000e+00 0.00000000e+00 2.01691091e-02 0.00000000e+00 0.00000000e+00 0.00000000e+00 0.00000000e+00 0.00000000e+00 0.00000000e+00 0.00000000e+00 0.00000000e+00 0.00000000e+00 0.00000000e+00 0.00000000e+00 0.00000000e+00 0.00000000e+00 0.00000000e+00 0.00000000e+00 0.00000000e+00 0.00000000e+00 0.00000000e+00 0.00000000e+00 0.00000000e+00 0.00000000e+00 
      </Histogram>
    </PDF>
  </MVAPdfs>
  <Weights NTrees="2000" AnalysisType="1">
    <BinaryTree type="DecisionTree" boostWeight="1.0000000000000000e+00" itree="0">
      <Node pos="s" depth="0" NCoef="0" IVar="11" Cut="1.8253713846206665e-01" cType="0" res="-3.4376353025436401e-01" rms="3.6307936906814575e-01" purity="1.5623646974563599e-01" nType="0">
        <Node pos="l" depth="1" NCoef="0" IVar="-1" Cut="0.0000000000000000e+00" cType="1" res="-2.9255665838718414e-02" rms="4.4922959804534912e-01" purity="2.8047150373458862e-01" nType="-99"/>
        <Node pos="r" depth="1" NCoef="0" IVar="16" Cut="7.7350032329559326e-01" cType="0" res="-4.5757758617401123e-01" rms="2.0155087113380432e-01" purity="4.2422410100698471e-02" nType="0">
          <Node pos="l" depth="2" NCoef="0" IVar="-1" Cut="0.0000000000000000e+00" cType="1" res="-5.0663623958826065e-02" rms="2.7954784035682678e-01" purity="8.5448428988456726e-02" nType="-99"/>
          <Node pos="r" depth="2" NCoef="0" IVar="-1" Cut="0.0000000000000000e+00" cType="1" res="-5.7741578668355942e-02" rms="1.1314854025840759e-01" purity="1.2970835901796818e-02" nType="-99"/>
        </Node>
      </Node>
    </BinaryTree>
    <BinaryTree type="DecisionTree" boostWeight="1.0000000000000000e+00" itree="1">
      <Node pos="s" depth="0" NCoef="0" IVar="11" Cut="1.8153928220272064e-01" cType="0" res="-3.2246950268745422e-01" rms="3.6095181107521057e-01" purity="1.5623646974563599e-01" nType="0">
        <Node pos="l" depth="1" NCoef="0" IVar="-1" Cut="0.0000000000000000e+00" cType="1" res="-2.7356153354048729e-02" rms="4.4910544157028198e-01" purity="2.8023099899291992e-01" nType="-99"/>
        <Node pos="r" depth="1" NCoef="0" IVar="16" Cut="7.7827203273773193e-01" cType="0" res="-4.3038281798362732e-01" rms="2.0077180862426758e-01" purity="4.2211107909679413e-02" nType="0">
          <Node pos="l" depth="2" NCoef="0" IVar="-1" Cut="0.0000000000000000e+00" cType="1" res="-4.7674391418695450e-02" rms="2.7981173992156982e-01" purity="8.5626505315303802e-02" nType="-99"/>
          <Node pos="r" depth="2" NCoef="0" IVar="-1" Cut="0.0000000000000000e+00" cType="1" res="-5.4482866078615189e-02" rms="1.1422661691904068e-01" purity="1.3225016184151173e-02" nType="-99"/>
        </Node>
      </Node>
    </BinaryTree>
    <BinaryTree type="DecisionTree" boostWeight="1.0000000000000000e+00" itree="2">
      <Node pos="s" depth="0" NCoef="0" IVar="11" Cut="1.8253713846206665e-01" cType="0" res="-3.0253973603248596e-01" rms="3.5904234647750854e-01" purity="1.5623646974563599e-01" nType="0">
        <Node pos="l" depth="1" NCoef="0" IVar="-1" Cut="0.0000000000000000e+00" cType="1" res="-2.5569248944520950e-02" rms="4.4922962784767151e-01" purity="2.8047150373458862e-01" nType="-99"/>
        <Node pos="r" depth="1" NCoef="0" IVar="16" Cut="7.7350032329559326e-01" cType="0" res="-4.0449178218841553e-01" rms="2.0097263157367706e-01" purity="4.2422410100698471e-02" nType="0">
          <Node pos="l" depth="2" NCoef="0" IVar="-1" Cut="0.0000000000000000e+00" cType="1" res="-4.5105192810297012e-02" rms="2.7953174710273743e-01" purity="8.5448428988456726e-02" nType="-99"/>
          <Node pos="r" depth="2" NCoef="0" IVar="-1" Cut="0.0000000000000000e+00" cType="1" res="-5.1764942705631256e-02" rms="1.1313708126544952e-01" purity="1.2970835901796818e-02" nType="-99"/>
        </Node>
      </Node>
    </BinaryTree>
    <BinaryTree type="DecisionTree" boostWeight="1.0000000000000000e+00" itree="3">
      <Node pos="s" depth="0" NCoef="0" IVar="11" Cut="2.1446897089481354e-01" cType="0" res="-2.8387796878814697e-01" rms="3.5732567310333252e-01" purity="1.5623646974563599e-01" nType="0">
        <Node pos="l" depth="1" NCoef="0" IVar="-1" Cut="0.0000000000000000e+00" cType="1" res="-2.3275341838598251e-02" rms="4.5187255740165710e-01" purity="2.8596451878547668e-01" nType="-99"/>
        <Node pos="r" depth="1" NCoef="0" IVar="0" Cut="3.2819919288158417e-02" cType="1" res="-3.7597700953483582e-01" rms="2.1312028169631958e-01" purity="4.8443753272294998e-02" nType="0">
          <Node pos="l" depth="2" NCoef="0" IVar="-1" Cut="0.0000000000000000e+00" cType="1" res="-4.1239701211452484e-02" rms="2.9368224740028381e-01" purity="9.7045384347438812e-02" nType="-99"/>
          <Node pos="r" depth="2" NCoef="0" IVar="-1" Cut="0.0000000000000000e+00" cType="1" res="-4.8943113535642624e-02" rms="1.4737851917743683e-01" purity="2.2473100572824478e-02" nType="-99"/>
        </Node>
      </Node>
    </BinaryTree>
    <BinaryTree type="DecisionTree" boostWeight="1.0000000000000000e+00" itree="4">
      <Node pos="s" depth="0" NCoef="0" IVar="11" Cut="1.7056271433830261e-01" cType="0" res="-2.6639783382415771e-01" rms="3.5574498772621155e-01" purity="1.5623646974563599e-01" nType="0">
        <Node pos="l" depth="1" NCoef="0" IVar="-1" Cut="0.0000000000000000e+00" cType="1" res="-2.2730560973286629e-02" rms="4.4711419939994812e-01" purity="2.7705061435699463e-01" nType="-99"/>
        <Node pos="r" depth="1" NCoef="0" IVar="16" Cut="8.0071491003036499e-01" cType="0" res="-3.6032652854919434e-01" rms="1.9487020373344421e-01" purity="3.9980474859476089e-02" nType="0">
          <Node pos="l" depth="2" NCoef="0" IVar="-1" Cut="0.0000000000000000e+00" cType="1" res="-4.0733501315116882e-02" rms="2.7785670757293701e-01" purity="8.4580533206462860e-02" nType="-99"/>
          <Node pos="r" depth="2" NCoef="0" IVar="-1" Cut="0.0000000000000000e+00" cType="1" res="-4.7411099076271057e-02" rms="1.1801231652498245e-01" purity="1.4190119691193104e-02" nType="-99"/>
        </Node>
      </Node>
    </BinaryTree>
    <BinaryTree type="DecisionTree" boostWeight="1.0000000000000000e+00" itree="5">
      <Node pos="s" depth="0" NCoef="0" IVar="0" Cut="3.2313689589500427e-02" cType="1" res="-2.5001400709152222e-01" rms="3.5435423254966736e-01" purity="1.5623646974563599e-01" nType="0">
        <Node pos="l" depth="1" NCoef="0" IVar="-1" Cut="0.0000000000000000e+00" cType="1" res="-1.7904864624142647e-02" rms="4.3965822458267212e-01" purity="2.8213599324226379e-01" nType="-99"/>
        <Node pos="r" depth="1" NCoef="0" IVar="11" Cut="2.3542422056198120e-01" cType="0" res="-3.2055300474166870e-01" rms="2.6919305324554443e-01" purity="8.2591824233531952e-02" nType="0">
          <Node pos="l" depth="2" NCoef="0" IVar="-1" Cut="0.0000000000000000e+00" cType="1" res="-3.4627720713615417e-02" rms="3.7316679954528809e-01" purity="1.6721396148204803e-01" nType="-99"/>
          <Node pos="r" depth="2" NCoef="0" IVar="-1" Cut="0.0000000000000000e+00" cType="1" res="-4.4910889118909836e-02" rms="1.5708488225936890e-01" purity="2.5811558589339256e-02" nType="-99"/>
        </Node>
      </Node>
    </BinaryTree>
    <BinaryTree type="DecisionTree" boostWeight="1.0000000000000000e+00" itree="6">
      <Node pos="s" depth="0" NCoef="0" IVar="11" Cut="2.2544553875923157e-01" cType="0" res="-2.3463679850101471e-01" rms="3.5293433070182800e-01" purity="1.5623646974563599e-01" nType="0">
        <Node pos="l" depth="1" NCoef="0" IVar="-1" Cut="0.0000000000000000e+00" cType="1" res="-1.8510567024350166e-02" rms="4.5139178633689880e-01" purity="2.8762298822402954e-01" nType="-99"/>
        <Node pos="r" depth="1" NCoef="0" IVar="11" Cut="1.0495942085981369e-01" cType="0" res="-3.1476446986198425e-01" rms="2.1544542908668518e-01" purity="5.0469834357500076e-02" nType="0">
          <Node pos="l" depth="2" NCoef="0" IVar="-1" Cut="0.0000000000000000e+00" cType="1" res="-3.3828012645244598e-02" rms="3.2294583320617676e-01" purity="1.2156469374895096e-01" nType="-99"/>
          <Node pos="r" depth="2" NCoef="0" IVar="-1" Cut="0.0000000000000000e+00" cType="1" res="-4.3190300464630127e-02" rms="1.6128745675086975e-01" purity="2.7284117415547371e-02" nType="-99"/>
        </Node>
      </Node>
    </BinaryTree>
    <BinaryTree type="DecisionTree" boostWeight="1.0000000000000000e+00" itree="7">
      <Node pos="s" depth="0" NCoef="0" IVar="0" Cut="3.1579289585351944e-02" cType="1" res="-2.2025604546070099e-01" rms="3.5167342424392700e-01" purity="1.5623646974563599e-01" nType="0">
        <Node pos="l" depth="1" NCoef="0" IVar="-1" Cut="0.0000000000000000e+00" cType="1" res="-1.4027678407728672e-02" rms="4.4178271293640137e-01" purity="2.9052388668060303e-01" nType="-99"/>
        <Node pos="r" depth="1" NCoef="0" IVar="0" Cut="3.7868998944759369e-02" cType="1" res="-2.8245061635971069e-01" rms="2.7495718002319336e-01" purity="8.7380252778530121e-02" nType="0">
          <Node pos="l" depth="2" NCoef="0" IVar="-1" Cut="0.0000000000000000e+00" cType="1" res="-3.1138839200139046e-02" rms="3.3740890026092529e-01" purity="1.4071334898471832e-01" nType="-99"/>
          <Node pos="r" depth="2" NCoef="0" IVar="-1" Cut="0.0000000000000000e+00" cType="1" res="-4.1207149624824524e-02" rms="2.1823693811893463e-01" purity="5.2430301904678345e-02" nType="-99"/>
        </Node>
      </Node>
    </BinaryTree>
    <BinaryTree type="DecisionTree" boostWeight="1.0000000000000000e+00" itree="8">
      <Node pos="s" depth="0" NCoef="0" IVar="11" Cut="2.2544553875923157e-01" cType="0" res="-2.0672270655632019e-01" rms="3.5039150714874268e-01" purity="1.5623646974563599e-01" nType="0">
        <Node pos="l" depth="1" NCoef="0" IVar="-1" Cut="0.0000000000000000e+00" cType="1" res="-1.5691034495830536e-02" rms="4.4953241944313049e-01" purity="2.8762298822402954e-01" nType="-99"/>
        <Node pos="r" depth="1" NCoef="0" IVar="16" Cut="8.0213040113449097e-01" cType="0" res="-2.8251591324806213e-01" rms="2.1459843218326569e-01" purity="5.0469834357500076e-02" nType="0">
          <Node pos="l" depth="2" NCoef="0" IVar="-1" Cut="0.0000000000000000e+00" cType="1" res="-3.2991003245115280e-02" rms="2.9732808470726013e-01" purity="1.0143082588911057e-01" nType="-99"/>
          <Node pos="r" depth="2" NCoef="0" IVar="-1" Cut="0.0000000000000000e+00" cType="1" res="-4.1713796555995941e-02" rms="1.3302733004093170e-01" purity="1.8482189625501633e-02" nType="-99"/>
        </Node>
      </Node>
    </BinaryTree>
    <BinaryTree type="DecisionTree" boostWeight="1.0000000000000000e+00" itree="9">
      <Node pos="s" depth="0" NCoef="0" IVar="0" Cut="3.1579289585351944e-02" cType="1" res="-1.9408887624740601e-01" rms="3.4925478696823120e-01" purity="1.5623646974563599e-01" nType="0">
        <Node pos="l" depth="1" NCoef="0" IVar="-1" Cut="0.0000000000000000e+00" cType="1" res="-1.1606169864535332e-02" rms="4.4013214111328125e-01" purity="2.9052388668060303e-01" nType="-99"/>
        <Node pos="r" depth="1" NCoef="0" IVar="0" Cut="3.7503067404031754e-02" cType="1" res="-2.5252172350883484e-01" rms="2.7408394217491150e-01" purity="8.7380252778530121e-02" nType="0">
          <Node pos="l" depth="2" NCoef="0" IVar="-1" Cut="0.0000000000000000e+00" cType="1" res="-2.8196722269058228e-02" rms="3.3878293633460999e-01" purity="1.4296902716159821e-01" nType="-99"/>
          <Node pos="r" depth="2" NCoef="0" IVar="-1" Cut="0.0000000000000000e+00" cType="1" res="-3.8535229861736298e-02" rms="2.2063647210597992e-01" purity="5.3866185247898102e-02" nType="-99"/>
        </Node>
      </Node>
    </BinaryTree>
    <BinaryTree type="DecisionTree" boostWeight="1.0000000000000000e+00" itree="10">
      <Node pos="s" depth="0" NCoef="0" IVar="11" Cut="1.7954353988170624e-01" cType="0" res="-1.8218754231929779e-01" rms="3.4812179207801819e-01" purity="1.5623646974563599e-01" nType="0">
        <Node pos="l" depth="1" NCoef="0" IVar="-1" Cut="0.0000000000000000e+00" cType="1" res="-1.4027469791471958e-02" rms="4.4360366463661194e-01" purity="2.7966985106468201e-01" nType="-99"/>
        <Node pos="r" depth="1" NCoef="0" IVar="7" Cut="6.1667345464229584e-02" cType="0" res="-2.5948262214660645e-01" rms="1.9663728773593903e-01" purity="4.1766889393329620e-02" nType="0">
          <Node pos="l" depth="2" NCoef="0" IVar="-1" Cut="0.0000000000000000e+00" cType="1" res="-3.3948551863431931e-02" rms="2.4249675869941711e-01" purity="6.5455280244350433e-02" nType="-99"/>
          <Node pos="r" depth="2" NCoef="0" IVar="-1" Cut="0.0000000000000000e+00" cType="1" res="-4.0970545262098312e-02" rms="1.0399815440177917e-01" purity="1.1123672127723694e-02" nType="-99"/>
        </Node>
      </Node>
    </BinaryTree>
    <BinaryTree type="DecisionTree" boostWeight="1.0000000000000000e+00" itree="11">
      <Node pos="s" depth="0" NCoef="0" IVar="0" Cut="3.2313689589500427e-02" cType="1" res="-1.7107526957988739e-01" rms="3.4712201356887817e-01" purity="1.5623646974563599e-01" nType="0">
        <Node pos="l" depth="1" NCoef="0" IVar="-1" Cut="0.0000000000000000e+00" cType="1" res="-1.0422336868941784e-02" rms="4.3457829952239990e-01" purity="2.8213599324226379e-01" nType="-99"/>
        <Node pos="r" depth="1" NCoef="0" IVar="17" Cut="-1.3088993728160858e-02" cType="0" res="-2.2991323471069336e-01" rms="2.6669034361839294e-01" purity="8.2591824233531952e-02" nType="0">
          <Node pos="l" depth="2" NCoef="0" IVar="-1" Cut="0.0000000000000000e+00" cType="1" res="-2.9267666861414909e-02" rms="2.9789596796035767e-01" purity="1.0833086818456650e-01" nType="-99"/>
          <Node pos="r" depth="2" NCoef="0" IVar="-1" Cut="0.0000000000000000e+00" cType="1" res="-3.8420729339122772e-02" rms="2.0215615630149841e-01" purity="4.3488144874572754e-02" nType="-99"/>
        </Node>
      </Node>
    </BinaryTree>
    <BinaryTree type="DecisionTree" boostWeight="1.0000000000000000e+00" itree="12">
      <Node pos="s" depth="0" NCoef="0" IVar="11" Cut="2.3941570520401001e-01" cType="0" res="-1.6059187054634094e-01" rms="3.4614089131355286e-01" purity="1.5623646974563599e-01" nType="0">
        <Node pos="l" depth="1" NCoef="0" IVar="-1" Cut="0.0000000000000000e+00" cType="1" res="-1.0720321908593178e-02" rms="4.4702324271202087e-01" purity="2.8935760259628296e-01" nType="-99"/>
        <Node pos="r" depth="1" NCoef="0" IVar="11" Cut="1.1759671568870544e-01" cType="0" res="-2.2777098417282104e-01" rms="2.1792814135551453e-01" purity="5.3119137883186340e-02" nType="0">
          <Node pos="l" depth="2" NCoef="0" IVar="-1" Cut="0.0000000000000000e+00" cType="1" res="-2.4781683459877968e-02" rms="3.3760586380958557e-01" purity="1.3812203705310822e-01" nType="-99"/>
          <Node pos="r" depth="2" NCoef="0" IVar="-1" Cut="0.0000000000000000e+00" cType="1" res="-3.6773458123207092e-02" rms="1.6693228483200073e-01" purity="2.9708979651331902e-02" nType="-99"/>
        </Node>
      </Node>
    </BinaryTree>
    <BinaryTree type="DecisionTree" boostWeight="1.0000000000000000e+00" itree="13">
      <Node pos="s" depth="0" NCoef="0" IVar="0" Cut="3.1579289585351944e-02" cType="1" res="-1.5083186328411102e-01" rms="3.4518873691558838e-01" purity="1.5623646974563599e-01" nType="0">
        <Node pos="l" depth="1" NCoef="0" IVar="-1" Cut="0.0000000000000000e+00" cType="1" res="-7.4932407587766647e-03" rms="4.3710693717002869e-01" purity="2.9052388668060303e-01" nType="-99"/>
        <Node pos="r" depth="1" NCoef="0" IVar="0" Cut="3.9927378296852112e-02" cType="1" res="-2.0279784500598907e-01" rms="2.7261254191398621e-01" purity="8.7380252778530121e-02" nType="0">
          <Node pos="l" depth="2" NCoef="0" IVar="-1" Cut="0.0000000000000000e+00" cType="1" res="-2.5207396596670151e-02" rms="3.2241952419281006e-01" purity="1.2890845537185669e-01" nType="-99"/>
          <Node pos="r" depth="2" NCoef="0" IVar="-1" Cut="0.0000000000000000e+00" cType="1" res="-3.5930227488279343e-02" rms="2.0138193666934967e-01" purity="4.4131346046924591e-02" nType="-99"/>
        </Node>
      </Node>
    </BinaryTree>
    <BinaryTree type="DecisionTree" boostWeight="1.0000000000000000e+00" itree="14">
      <Node pos="s" depth="0" NCoef="0" IVar="11" Cut="2.7733474969863892e-01" cType="0" res="-1.4161609113216400e-01" rms="3.4427455067634583e-01" purity="1.5623646974563599e-01" nType="0">
        <Node pos="l" depth="1" NCoef="0" IVar="-1" Cut="0.0000000000000000e+00" cType="1" res="-8.2316752523183823e-03" rms="4.4715788960456848e-01" purity="2.9321259260177612e-01" nType="-99"/>
        <Node pos="r" depth="1" NCoef="0" IVar="16" Cut="8.0690211057662964e-01" cType="0" res="-2.0274277031421661e-01" rms="2.2744196653366089e-01" purity="5.9012800455093384e-02" nType="0">
          <Node pos="l" depth="2" NCoef="0" IVar="-1" Cut="0.0000000000000000e+00" cType="1" res="-2.5251664221286774e-02" rms="3.0825045704841614e-01" purity="1.1401988565921783e-01" nType="-99"/>
          <Node pos="r" depth="2" NCoef="0" IVar="-1" Cut="0.0000000000000000e+00" cType="1" res="-3.6399602890014648e-02" rms="1.4720904827117920e-01" purity="2.3172629997134209e-02" nType="-99"/>
        </Node>
      </Node>
    </BinaryTree>
    <BinaryTree type="DecisionTree" boostWeight="1.0000000000000000e+00" itree="15">
      <Node pos="s" depth="0" NCoef="0" IVar="11" Cut="1.5459680557250977e-01" cType="0" res="-1.3302753865718842e-01" rms="3.4339055418968201e-01" purity="1.5623646974563599e-01" nType="0">
        <Node pos="l" depth="1" NCoef="0" IVar="-1" Cut="0.0000000000000000e+00" cType="1" res="-9.7005032002925873e-03" rms="4.3567517399787903e-01" purity="2.7212312817573547e-01" nType="-99"/>
        <Node pos="r" depth="1" NCoef="0" IVar="7" Cut="6.1667345464229584e-02" cType="0" res="-2.0310121774673462e-01" rms="1.8550041317939758e-01" purity="3.7258543074131012e-02" nType="0">
          <Node pos="l" depth="2" NCoef="0" IVar="-1" Cut="0.0000000000000000e+00" cType="1" res="-3.0018461868166924e-02" rms="2.3066987097263336e-01" purity="5.9453748166561127e-02" nType="-99"/>
          <Node pos="r" depth="2" NCoef="0" IVar="-1" Cut="0.0000000000000000e+00" cType="1" res="-3.7617467343807220e-02" rms="9.6661493182182312e-02" purity="9.4344085082411766e-03" nType="-99"/>
        </Node>
      </Node>
    </BinaryTree>
    <BinaryTree type="DecisionTree" boostWeight="1.0000000000000000e+00" itree="16">
      <Node pos="s" depth="0" NCoef="0" IVar="0" Cut="3.0419707298278809e-02" cType="1" res="-1.2495446205139160e-01" rms="3.4264478087425232e-01" purity="1.5623646974563599e-01" nType="0">
        <Node pos="l" depth="1" NCoef="0" IVar="-1" Cut="0.0000000000000000e+00" cType="1" res="-2.7628901880234480e-03" rms="4.3953096866607666e-01" purity="3.0326119065284729e-01" nType="-99"/>
        <Node pos="r" depth="1" NCoef="0" IVar="17" Cut="-1.2459347955882549e-02" cType="0" res="-1.6884247958660126e-01" rms="2.8251188993453979e-01" purity="9.6190273761749268e-02" nType="0">
          <Node pos="l" depth="2" NCoef="0" IVar="-1" Cut="0.0000000000000000e+00" cType="1" res="-2.2241031751036644e-02" rms="3.1464463472366333e-01" purity="1.2658184766769409e-01" nType="-99"/>
          <Node pos="r" depth="2" NCoef="0" IVar="-1" Cut="0.0000000000000000e+00" cType="1" res="-3.4066807478666306e-02" rms="2.1591860055923462e-01" purity="5.0470594316720963e-02" nType="-99"/>
        </Node>
      </Node>
    </BinaryTree>
    <BinaryTree type="DecisionTree" boostWeight="1.0000000000000000e+00" itree="17">
      <Node pos="s" depth="0" NCoef="0" IVar="11" Cut="1.7056271433830261e-01" cType="0" res="-1.1733905225992203e-01" rms="3.4175530076026917e-01" purity="1.5623646974563599e-01" nType="0">
        <Node pos="l" depth="1" NCoef="0" IVar="-1" Cut="0.0000000000000000e+00" cType="1" res="-7.6286918483674526e-03" rms="4.3729668855667114e-01" purity="2.7705061435699463e-01" nType="-99"/>
        <Node pos="r" depth="1" NCoef="0" IVar="7" Cut="6.1667345464229584e-02" cType="0" res="-1.8209287524223328e-01" rms="1.9137045741081238e-01" purity="3.9980474859476089e-02" nType="0">
          <Node pos="l" depth="2" NCoef="0" IVar="-1" Cut="0.0000000000000000e+00" cType="1" res="-2.7965808287262917e-02" rms="2.3672106862068176e-01" purity="6.3219018280506134e-02" nType="-99"/>
          <Node pos="r" depth="2" NCoef="0" IVar="-1" Cut="0.0000000000000000e+00" cType="1" res="-3.6486644297838211e-02" rms="1.0072433948516846e-01" purity="1.0247373022139072e-02" nType="-99"/>
        </Node>
      </Node>
    </BinaryTree>
    <BinaryTree type="DecisionTree" boostWeight="1.0000000000000000e+00" itree="18">
      <Node pos="s" depth="0" NCoef="0" IVar="0" Cut="3.5444565117359161e-02" cType="1" res="-1.1024116724729538e-01" rms="3.4105882048606873e-01" purity="1.5623646974563599e-01" nType="0">
        <Node pos="l" depth="1" NCoef="0" IVar="-1" Cut="0.0000000000000000e+00" cType="1" res="-7.3498482815921307e-03" rms="4.0859439969062805e-01" purity="2.4699430167675018e-01" nType="-99"/>
        <Node pos="r" depth="1" NCoef="0" IVar="10" Cut="1.9937840700149536e+00" cType="1" res="-1.7662017047405243e-01" rms="2.3687012493610382e-01" purity="6.3963130116462708e-02" nType="0">
          <Node pos="l" depth="2" NCoef="0" IVar="-1" Cut="0.0000000000000000e+00" cType="1" res="-2.7512911707162857e-02" rms="2.4340349435806274e-01" purity="7.0931755006313324e-02" nType="-99"/>
          <Node pos="r" depth="2" NCoef="0" IVar="-1" Cut="0.0000000000000000e+00" cType="1" res="-3.6025885492563248e-02" rms="2.0136804878711700e-01" purity="4.1927400976419449e-02" nType="-99"/>
        </Node>
      </Node>
    </BinaryTree>
    <BinaryTree type="DecisionTree" boostWeight="1.0000000000000000e+00" itree="19">
      <Node pos="s" depth="0" NCoef="0" IVar="11" Cut="2.8232410550117493e-01" cType="0" res="-1.0350344330072403e-01" rms="3.4035882353782654e-01" purity="1.5623646974563599e-01" nType="0">
        <Node pos="l" depth="1" NCoef="0" IVar="-1" Cut="0.0000000000000000e+00" cType="1" res="-4.2751124128699303e-03" rms="4.4440630078315735e-01" purity="2.9365080595016479e-01" nType="-99"/>
        <Node pos="r" depth="1" NCoef="0" IVar="16" Cut="7.7350032329559326e-01" cType="0" res="-1.5685234963893890e-01" rms="2.2714139521121979e-01" purity="5.9716887772083282e-02" nType="0">
          <Node pos="l" depth="2" NCoef="0" IVar="-1" Cut="0.0000000000000000e+00" cType="1" res="-2.1360278129577637e-02" rms="3.0241841077804565e-01" purity="1.1068648099899292e-01" nType="-99"/>
          <Node pos="r" depth="2" NCoef="0" IVar="-1" Cut="0.0000000000000000e+00" cType="1" res="-3.3989109098911285e-02" rms="1.3706439733505249e-01" purity="2.0017527043819427e-02" nType="-99"/>
        </Node>
      </Node>
    </BinaryTree>
    <BinaryTree type="DecisionTree" boostWeight="1.0000000000000000e+00" itree="20">
      <Node pos="s" depth="0" NCoef="0" IVar="0" Cut="3.2390996813774109e-02" cType="1" res="-9.7268134355545044e-02" rms="3.3965498208999634e-01" purity="1.5623646974563599e-01" nType="0">
        <Node pos="l" depth="1" NCoef="0" IVar="-1" Cut="0.0000000000000000e+00" cType="1" res="-2.6273496914654970e-03" rms="4.2686355113983154e-01" purity="2.8105029463768005e-01" nType="-99"/>
        <Node pos="r" depth="1" NCoef="0" IVar="10" Cut="1.9937840700149536e+00" cType="1" res="-1.4549425244331360e-01" rms="2.6355466246604919e-01" purity="8.2187876105308533e-02" nType="0">
          <Node pos="l" depth="2" NCoef="0" IVar="-1" Cut="0.0000000000000000e+00" cType="1" res="-2.3304492235183716e-02" rms="2.6902589201927185e-01" purity="8.9573964476585388e-02" nType="-99"/>
          <Node pos="r" depth="2" NCoef="0" IVar="-1" Cut="0.0000000000000000e+00" cType="1" res="-3.2901346683502197e-02" rms="2.3209078609943390e-01" purity="5.7426866143941879e-02" nType="-99"/>
        </Node>
      </Node>
    </BinaryTree>
    <BinaryTree type="DecisionTree" boostWeight="1.0000000000000000e+00" itree="21">
      <Node pos="s" depth="0" NCoef="0" IVar="11" Cut="1.3264366984367371e-01" cType="0" res="-9.1347120702266693e-02" rms="3.3896812796592712e-01" purity="1.5623646974563599e-01" nType="0">
        <Node pos="l" depth="1" NCoef="0" IVar="-1" Cut="0.0000000000000000e+00" cType="1" res="-5.4831281304359436e-03" rms="4.2620998620986938e-01" purity="2.6397103071212769e-01" nType="-99"/>
        <Node pos="r" depth="1" NCoef="0" IVar="7" Cut="6.1667345464229584e-02" cType="0" res="-1.5684247016906738e-01" rms="1.7471632361412048e-01" purity="3.3045955002307892e-02" nType="0">
          <Node pos="l" depth="2" NCoef="0" IVar="-1" Cut="0.0000000000000000e+00" cType="1" res="-2.6891738176345825e-02" rms="2.1913994848728180e-01" purity="5.3732860833406448e-02" nType="-99"/>
          <Node pos="r" depth="2" NCoef="0" IVar="-1" Cut="0.0000000000000000e+00" cType="1" res="-3.5191632807254791e-02" rms="9.0115837752819061e-02" purity="7.9313851892948151e-03" nType="-99"/>
        </Node>
      </Node>
    </BinaryTree>
    <BinaryTree type="DecisionTree" boostWeight="1.0000000000000000e+00" itree="22">
      <Node pos="s" depth="0" NCoef="0" IVar="17" Cut="-1.3375903479754925e-02" cType="0" res="-8.5847988724708557e-02" rms="3.3836814761161804e-01" purity="1.5623646974563599e-01" nType="0">
        <Node pos="l" depth="1" NCoef="0" IVar="-1" Cut="0.0000000000000000e+00" cType="1" res="-7.1566589176654816e-03" rms="3.6988705396652222e-01" purity="2.0271882414817810e-01" nType="-99"/>
        <Node pos="r" depth="1" NCoef="0" IVar="13" Cut="2.4987505748867989e-03" cType="1" res="-1.6494691371917725e-01" rms="2.5868460536003113e-01" purity="7.7935703098773956e-02" nType="0">
          <Node pos="l" depth="2" NCoef="0" IVar="-1" Cut="0.0000000000000000e+00" cType="1" res="-2.4786634370684624e-02" rms="2.8084948658943176e-01" purity="9.6249088644981384e-02" nType="-99"/>
          <Node pos="r" depth="2" NCoef="0" IVar="-1" Cut="0.0000000000000000e+00" cType="1" res="-3.7366602569818497e-02" rms="1.5498994290828705e-01" purity="2.2213824093341827e-02" nType="-99"/>
        </Node>
      </Node>
    </BinaryTree>
    <BinaryTree type="DecisionTree" boostWeight="1.0000000000000000e+00" itree="23">
      <Node pos="s" depth="0" NCoef="0" IVar="0" Cut="3.5444565117359161e-02" cType="1" res="-8.0558121204376221e-02" rms="3.3777645230293274e-01" purity="1.5623646974563599e-01" nType="0">
        <Node pos="l" depth="1" NCoef="0" IVar="-1" Cut="0.0000000000000000e+00" cType="1" res="-3.6827989388257265e-03" rms="4.0555813908576965e-01" purity="2.4699430167675018e-01" nType="-99"/>
        <Node pos="r" depth="1" NCoef="0" IVar="10" Cut="1.9937840700149536e+00" cType="1" res="-1.4091114699840546e-01" rms="2.3588545620441437e-01" purity="6.3963130116462708e-02" nType="0">
          <Node pos="l" depth="2" NCoef="0" IVar="-1" Cut="0.0000000000000000e+00" cType="1" res="-2.4281270802021027e-02" rms="2.4249216914176941e-01" purity="7.0931755006313324e-02" nType="-99"/>
          <Node pos="r" depth="2" NCoef="0" IVar="-1" Cut="0.0000000000000000e+00" cType="1" res="-3.3283874392509460e-02" rms="2.0138144493103027e-01" purity="4.1927400976419449e-02" nType="-99"/>
        </Node>
      </Node>
    </BinaryTree>
    <BinaryTree type="DecisionTree" boostWeight="1.0000000000000000e+00" itree="24">
      <Node pos="s" depth="0" NCoef="0" IVar="11" Cut="2.2544553875923157e-01" cType="0" res="-7.5664788484573364e-02" rms="3.3716976642608643e-01" purity="1.5623646974563599e-01" nType="0">
        <Node pos="l" depth="1" NCoef="0" IVar="-1" Cut="0.0000000000000000e+00" cType="1" res="-1.3916250318288803e-03" rms="4.3777191638946533e-01" purity="2.8762298822402954e-01" nType="-99"/>
        <Node pos="r" depth="1" NCoef="0" IVar="16" Cut="8.0213040113449097e-01" cType="0" res="-1.2969738245010376e-01" rms="2.1066202223300934e-01" purity="5.0469834357500076e-02" nType="0">
          <Node pos="l" depth="2" NCoef="0" IVar="-1" Cut="0.0000000000000000e+00" cType="1" res="-1.8581967800855637e-02" rms="2.9097989201545715e-01" purity="1.0143082588911057e-01" nType="-99"/>
          <Node pos="r" depth="2" NCoef="0" IVar="-1" Cut="0.0000000000000000e+00" cType="1" res="-3.2229054719209671e-02" rms="1.3311305642127991e-01" purity="1.8482189625501633e-02" nType="-99"/>
        </Node>
      </Node>
    </BinaryTree>
    <BinaryTree type="DecisionTree" boostWeight="1.0000000000000000e+00" itree="25">
      <Node pos="s" depth="0" NCoef="0" IVar="13" Cut="2.4987505748867989e-03" cType="1" res="-7.1163788437843323e-02" rms="3.3651626110076904e-01" purity="1.5623646974563599e-01" nType="0">
        <Node pos="l" depth="1" NCoef="0" IVar="-1" Cut="0.0000000000000000e+00" cType="1" res="-8.6939614266157150e-03" rms="3.5188686847686768e-01" purity="1.7912933230400085e-01" nType="-99"/>
        <Node pos="r" depth="1" NCoef="0" IVar="11" Cut="1.9348713755607605e-01" cType="0" res="-2.0486819744110107e-01" rms="1.9339895248413086e-01" purity="3.8341011852025986e-02" nType="0">
          <Node pos="l" depth="2" NCoef="0" IVar="-1" Cut="0.0000000000000000e+00" cType="1" res="-3.5434577614068985e-02" rms="2.1053270995616913e-01" purity="4.8187948763370514e-02" nType="-99"/>
          <Node pos="r" depth="2" NCoef="0" IVar="-1" Cut="0.0000000000000000e+00" cType="1" res="-3.1800676137208939e-02" rms="1.5185691416263580e-01" purity="2.3769512772560120e-02" nType="-99"/>
        </Node>
      </Node>
    </BinaryTree>
    <BinaryTree type="DecisionTree" boostWeight="1.0000000000000000e+00" itree="26">
      <Node pos="s" depth="0" NCoef="0" IVar="11" Cut="1.5459680557250977e-01" cType="0" res="-6.6752083599567413e-02" rms="3.3607801795005798e-01" purity="1.5623646974563599e-01" nType="0">
        <Node pos="l" depth="1" NCoef="0" IVar="-1" Cut="0.0000000000000000e+00" cType="1" res="-1.5608849935233593e-03" rms="4.2803931236267090e-01" purity="2.7212312817573547e-01" nType="-99"/>
        <Node pos="r" depth="1" NCoef="0" IVar="7" Cut="6.1667345464229584e-02" cType="0" res="-1.2571552395820618e-01" rms="1.8423289060592651e-01" purity="3.7258543074131012e-02" nType="0">
          <Node pos="l" depth="2" NCoef="0" IVar="-1" Cut="0.0000000000000000e+00" cType="1" res="-2.3173877969384193e-02" rms="2.2883655130863190e-01" purity="5.9453748166561127e-02" nType="-99"/>
          <Node pos="r" depth="2" NCoef="0" IVar="-1" Cut="0.0000000000000000e+00" cType="1" res="-3.3526822924613953e-02" rms="9.7237214446067810e-02" purity="9.4344085082411766e-03" nType="-99"/>
        </Node>
      </Node>
    </BinaryTree>
    <BinaryTree type="DecisionTree" boostWeight="1.0000000000000000e+00" itree="27">
      <Node pos="s" depth="0" NCoef="0" IVar="0" Cut="3.0419707298278809e-02" cType="1" res="-6.2791012227535248e-02" rms="3.3549368381500244e-01" purity="1.5623646974563599e-01" nType="0">
        <Node pos="l" depth="1" NCoef="0" IVar="-1" Cut="0.0000000000000000e+00" cType="1" res="5.0163725391030312e-03" rms="4.3162506818771362e-01" purity="3.0326119065284729e-01" nType="-99"/>
        <Node pos="r" depth="1" NCoef="0" IVar="17" Cut="-1.2459347955882549e-02" cType="0" res="-1.0005610436201096e-01" rms="2.7865624427795410e-01" purity="9.6190273761749268e-02" nType="0">
          <Node pos="l" depth="2" NCoef="0" IVar="-1" Cut="0.0000000000000000e+00" cType="1" res="-1.4322875998914242e-02" rms="3.1027719378471375e-01" purity="1.2658184766769409e-01" nType="-99"/>
          <Node pos="r" depth="2" NCoef="0" IVar="-1" Cut="0.0000000000000000e+00" cType="1" res="-2.8526088222861290e-02" rms="2.1481676399707794e-01" purity="5.0470594316720963e-02" nType="-99"/>
        </Node>
      </Node>
    </BinaryTree>
    <BinaryTree type="DecisionTree" boostWeight="1.0000000000000000e+00" itree="28">
      <Node pos="s" depth="0" NCoef="0" IVar="17" Cut="-1.4164040796458721e-02" cType="0" res="-5.9040497988462448e-02" rms="3.3475622534751892e-01" purity="1.5623646974563599e-01" nType="0">
        <Node pos="l" depth="1" NCoef="0" IVar="-1" Cut="0.0000000000000000e+00" cType="1" res="-3.3503058366477489e-03" rms="3.6613750457763672e-01" purity="2.0196148753166199e-01" nType="-99"/>
        <Node pos="r" depth="1" NCoef="0" IVar="13" Cut="2.4987505748867989e-03" cType="1" res="-1.3283222913742065e-01" rms="2.5514706969261169e-01" purity="7.6412752270698547e-02" nType="0">
          <Node pos="l" depth="2" NCoef="0" IVar="-1" Cut="0.0000000000000000e+00" cType="1" res="-2.1955881267786026e-02" rms="2.7769255638122559e-01" purity="9.4393290579319000e-02" nType="-99"/>
          <Node pos="r" depth="2" NCoef="0" IVar="-1" Cut="0.0000000000000000e+00" cType="1" res="-3.4872747957706451e-02" rms="1.5483060479164124e-01" purity="2.2003749385476112e-02" nType="-99"/>
        </Node>
      </Node>
    </BinaryTree>
    <BinaryTree type="DecisionTree" boostWeight="1.0000000000000000e+00" itree="29">
      <Node pos="s" depth="0" NCoef="0" IVar="11" Cut="1.8253713846206665e-01" cType="0" res="-5.5427953600883484e-02" rms="3.3421438932418823e-01" purity="1.5623646974563599e-01" nType="0">
        <Node pos="l" depth="1" NCoef="0" IVar="-1" Cut="0.0000000000000000e+00" cType="1" res="6.1830371851101518e-04" rms="4.3062698841094971e-01" purity="2.8047150373458862e-01" nType="-99"/>
        <Node pos="r" depth="1" NCoef="0" IVar="7" Cut="6.1667345464229584e-02" cType="0" res="-1.0953666269779205e-01" rms="1.9498912990093231e-01" purity="4.2422410100698471e-02" nType="0">
          <Node pos="l" depth="2" NCoef="0" IVar="-1" Cut="0.0000000000000000e+00" cType="1" res="-2.0486604422330856e-02" rms="2.3922605812549591e-01" purity="6.6119000315666199e-02" nType="-99"/>
          <Node pos="r" depth="2" NCoef="0" IVar="-1" Cut="0.0000000000000000e+00" cType="1" res="-3.2522886991500854e-02" rms="1.0662982612848282e-01" purity="1.1591495014727116e-02" nType="-99"/>
        </Node>
      </Node>
    </BinaryTree>
    <BinaryTree type="DecisionTree" boostWeight="1.0000000000000000e+00" itree="30">
      <Node pos="s" depth="0" NCoef="0" IVar="0" Cut="3.5444565117359161e-02" cType="1" res="-5.2175812423229218e-02" rms="3.3362749218940735e-01" purity="1.5623646974563599e-01" nType="0">
        <Node pos="l" depth="1" NCoef="0" IVar="-1" Cut="0.0000000000000000e+00" cType="1" res="5.6051166029646993e-04" rms="4.0061485767364502e-01" purity="2.4699430167675018e-01" nType="-99"/>
        <Node pos="r" depth="1" NCoef="0" IVar="10" Cut="1.9937840700149536e+00" cType="1" res="-1.0825771093368530e-01" rms="2.3465365171432495e-01" purity="6.3963130116462708e-02" nType="0">
          <Node pos="l" depth="2" NCoef="0" IVar="-1" Cut="0.0000000000000000e+00" cType="1" res="-2.0645111799240112e-02" rms="2.4069003760814667e-01" purity="7.0931755006313324e-02" nType="-99"/>
          <Node pos="r" depth="2" NCoef="0" IVar="-1" Cut="0.0000000000000000e+00" cType="1" res="-3.1120499595999718e-02" rms="2.0153854787349701e-01" purity="4.1927400976419449e-02" nType="-99"/>
        </Node>
      </Node>
    </BinaryTree>
    <BinaryTree type="DecisionTree" boostWeight="1.0000000000000000e+00" itree="31">
      <Node pos="s" depth="0" NCoef="0" IVar="13" Cut="2.4987505748867989e-03" cType="1" res="-4.9056902527809143e-02" rms="3.3302661776542664e-01" purity="1.5623646974563599e-01" nType="0">
        <Node pos="l" depth="1" NCoef="0" IVar="-1" Cut="0.0000000000000000e+00" cType="1" res="-5.1877507939934731e-03" rms="3.4867036342620850e-01" purity="1.7912933230400085e-01" nType="-99"/>
        <Node pos="r" depth="1" NCoef="0" IVar="11" Cut="1.8949970602989197e-01" cType="0" res="-1.7383289337158203e-01" rms="1.9337689876556396e-01" purity="3.8341011852025986e-02" nType="0">
          <Node pos="l" depth="2" NCoef="0" IVar="-1" Cut="0.0000000000000000e+00" cType="1" res="-3.3278536051511765e-02" rms="2.1047747135162354e-01" purity="4.8233933746814728e-02" nType="-99"/>
          <Node pos="r" depth="2" NCoef="0" IVar="-1" Cut="0.0000000000000000e+00" cType="1" res="-2.9721941798925400e-02" rms="1.5047077834606171e-01" purity="2.3292394354939461e-02" nType="-99"/>
        </Node>
      </Node>
    </BinaryTree>
    <BinaryTree type="DecisionTree" boostWeight="1.0000000000000000e+00" itree="32">
      <Node pos="s" depth="0" NCoef="0" IVar="11" Cut="1.3264366984367371e-01" cType="0" res="-4.6035271137952805e-02" rms="3.3258754014968872e-01" purity="1.5623646974563599e-01" nType="0">
        <Node pos="l" depth="1" NCoef="0" IVar="-1" Cut="0.0000000000000000e+00" cType="1" res="1.0253321379423141e-03" rms="4.1850727796554565e-01" purity="2.6397103071212769e-01" nType="-99"/>
        <Node pos="r" depth="1" NCoef="0" IVar="16" Cut="7.7327996492385864e-01" cType="0" res="-1.0524746775627136e-01" rms="1.7392554879188538e-01" purity="3.3045955002307892e-02" nType="0">
          <Node pos="l" depth="2" NCoef="0" IVar="-1" Cut="0.0000000000000000e+00" cType="1" res="-1.8700618296861649e-02" rms="2.4958227574825287e-01" purity="7.1306198835372925e-02" nType="-99"/>
          <Node pos="r" depth="2" NCoef="0" IVar="-1" Cut="0.0000000000000000e+00" cType="1" res="-3.1900644302368164e-02" rms="9.8014660179615021e-02" purity="9.3811526894569397e-03" nType="-99"/>
        </Node>
      </Node>
    </BinaryTree>
    <BinaryTree type="DecisionTree" boostWeight="1.0000000000000000e+00" itree="33">
      <Node pos="s" depth="0" NCoef="0" IVar="0" Cut="2.9917221516370773e-02" cType="1" res="-4.3366644531488419e-02" rms="3.3201065659523010e-01" purity="1.5623646974563599e-01" nType="0">
        <Node pos="l" depth="1" NCoef="0" IVar="-1" Cut="0.0000000000000000e+00" cType="1" res="8.1964368000626564e-03" rms="4.2988651990890503e-01" purity="3.0863124132156372e-01" nType="-99"/>
        <Node pos="r" depth="1" NCoef="0" IVar="10" Cut="2.8237464427947998e+00" cType="1" res="-7.5923211872577667e-02" rms="2.8061321377754211e-01" purity="9.9915869534015656e-02" nType="0">
          <Node pos="l" depth="2" NCoef="0" IVar="-1" Cut="0.0000000000000000e+00" cType="1" res="-1.3615515083074570e-02" rms="2.8482243418693542e-01" purity="1.0732289403676987e-01" nType="-99"/>
          <Node pos="r" depth="2" NCoef="0" IVar="-1" Cut="0.0000000000000000e+00" cType="1" res="-2.7249734848737717e-02" rms="2.4868361651897430e-01" purity="6.8878434598445892e-02" nType="-99"/>
        </Node>
      </Node>
    </BinaryTree>
    <BinaryTree type="DecisionTree" boostWeight="1.0000000000000000e+00" itree="34">
      <Node pos="s" depth="0" NCoef="0" IVar="11" Cut="2.8232410550117493e-01" cType="0" res="-4.0798380970954895e-02" rms="3.3137556910514832e-01" purity="1.5623646974563599e-01" nType="0">
        <Node pos="l" depth="1" NCoef="0" IVar="-1" Cut="0.0000000000000000e+00" cType="1" res="3.9913887158036232e-03" rms="4.3350335955619812e-01" purity="2.9365080595016479e-01" nType="-99"/>
        <Node pos="r" depth="1" NCoef="0" IVar="16" Cut="8.0690211057662964e-01" cType="0" res="-8.5508294403553009e-02" rms="2.2382299602031708e-01" purity="5.9716887772083282e-02" nType="0">
          <Node pos="l" depth="2" NCoef="0" IVar="-1" Cut="0.0000000000000000e+00" cType="1" res="-1.1491605080664158e-02" rms="3.0192652344703674e-01" purity="1.1473946273326874e-01" nType="-99"/>
          <Node pos="r" depth="2" NCoef="0" IVar="-1" Cut="0.0000000000000000e+00" cType="1" res="-2.8693903237581253e-02" rms="1.4759618043899536e-01" purity="2.3697346448898315e-02" nType="-99"/>
        </Node>
      </Node>
    </BinaryTree>
    <BinaryTree type="DecisionTree" boostWeight="1.0000000000000000e+00" itree="35">
      <Node pos="s" depth="0" NCoef="0" IVar="17" Cut="-1.2587766163051128e-02" cType="0" res="-3.8457721471786499e-02" rms="3.3077761530876160e-01" purity="1.5623646974563599e-01" nType="0">
        <Node pos="l" depth="1" NCoef="0" IVar="-1" Cut="0.0000000000000000e+00" cType="1" res="7.1067194221541286e-04" rms="3.6242645978927612e-01" purity="2.0357868075370789e-01" nType="-99"/>
        <Node pos="r" depth="1" NCoef="0" IVar="6" Cut="1.0413610190153122e-01" cType="1" res="-1.0604327172040939e-01" rms="2.5785374641418457e-01" purity="7.9550273716449738e-02" nType="0">
          <Node pos="l" depth="2" NCoef="0" IVar="-1" Cut="0.0000000000000000e+00" cType="1" res="-1.7520772293210030e-02" rms="2.8813943266868591e-01" purity="1.0427974164485931e-01" nType="-99"/>
          <Node pos="r" depth="2" NCoef="0" IVar="-1" Cut="0.0000000000000000e+00" cType="1" res="-3.0776176601648331e-02" rms="1.8430233001708984e-01" purity="3.5369046032428741e-02" nType="-99"/>
        </Node>
      </Node>
    </BinaryTree>
    <BinaryTree type="DecisionTree" boostWeight="1.0000000000000000e+00" itree="36">
      <Node pos="s" depth="0" NCoef="0" IVar="13" Cut="2.4987505748867989e-03" cType="1" res="-3.6148104816675186e-02" rms="3.3018761873245239e-01" purity="1.5623646974563599e-01" nType="0">
        <Node pos="l" depth="1" NCoef="0" IVar="-1" Cut="0.0000000000000000e+00" cType="1" res="-2.9061771929264069e-03" rms="3.4594947099685669e-01" purity="1.7912933230400085e-01" nType="-99"/>
        <Node pos="r" depth="1" NCoef="0" IVar="11" Cut="1.9348713755607605e-01" cType="0" res="-1.5460667014122009e-01" rms="1.9334806501865387e-01" purity="3.8341011852025986e-02" nType="0">
          <Node pos="l" depth="2" NCoef="0" IVar="-1" Cut="0.0000000000000000e+00" cType="1" res="-3.1975768506526947e-02" rms="2.1024860441684723e-01" purity="4.8187948763370514e-02" nType="-99"/>
          <Node pos="r" depth="2" NCoef="0" IVar="-1" Cut="0.0000000000000000e+00" cType="1" res="-2.8266239911317825e-02" rms="1.5187661349773407e-01" purity="2.3769512772560120e-02" nType="-99"/>
        </Node>
      </Node>
    </BinaryTree>
    <BinaryTree type="DecisionTree" boostWeight="1.0000000000000000e+00" itree="37">
      <Node pos="s" depth="0" NCoef="0" IVar="11" Cut="1.2466071546077728e-01" cType="0" res="-3.3942688256502151e-02" rms="3.2973819971084595e-01" purity="1.5623646974563599e-01" nType="0">
        <Node pos="l" depth="1" NCoef="0" IVar="-1" Cut="0.0000000000000000e+00" cType="1" res="2.5187029968947172e-03" rms="4.1268822550773621e-01" purity="2.6000368595123291e-01" nType="-99"/>
        <Node pos="r" depth="1" NCoef="0" IVar="7" Cut="6.1667345464229584e-02" cType="0" res="-9.1157555580139160e-02" rms="1.6912220418453217e-01" purity="3.1326867640018463e-02" nType="0">
          <Node pos="l" depth="2" NCoef="0" IVar="-1" Cut="0.0000000000000000e+00" cType="1" res="-2.0152579993009567e-02" rms="2.1292895078659058e-01" purity="5.1447659730911255e-02" nType="-99"/>
          <Node pos="r" depth="2" NCoef="0" IVar="-1" Cut="0.0000000000000000e+00" cType="1" res="-3.1965203583240509e-02" rms="8.6980223655700684e-02" purity="7.3469439521431923e-03" nType="-99"/>
        </Node>
      </Node>
    </BinaryTree>
    <BinaryTree type="DecisionTree" boostWeight="1.0000000000000000e+00" itree="38">
      <Node pos="s" depth="0" NCoef="0" IVar="0" Cut="3.6101661622524261e-02" cType="1" res="-3.2017495483160019e-02" rms="3.2919993996620178e-01" purity="1.5623646974563599e-01" nType="0">
        <Node pos="l" depth="1" NCoef="0" IVar="-1" Cut="0.0000000000000000e+00" cType="1" res="3.3785637933760881e-03" rms="3.9152568578720093e-01" purity="2.4087192118167877e-01" nType="-99"/>
        <Node pos="r" depth="1" NCoef="0" IVar="10" Cut="1.9937840700149536e+00" cType="1" res="-8.7280467152595520e-02" rms="2.2732175886631012e-01" purity="6.0237430036067963e-02" nType="0">
          <Node pos="l" depth="2" NCoef="0" IVar="-1" Cut="0.0000000000000000e+00" cType="1" res="-1.8291983753442764e-02" rms="2.3344059288501740e-01" purity="6.7076154053211212e-02" nType="-99"/>
          <Node pos="r" depth="2" NCoef="0" IVar="-1" Cut="0.0000000000000000e+00" cType="1" res="-2.9767306521534920e-02" rms="1.9442136585712433e-01" purity="3.8790099322795868e-02" nType="-99"/>
        </Node>
      </Node>
    </BinaryTree>
    <BinaryTree type="DecisionTree" boostWeight="1.0000000000000000e+00" itree="39">
      <Node pos="s" depth="0" NCoef="0" IVar="17" Cut="-1.7316589131951332e-02" cType="0" res="-3.0163103714585304e-02" rms="3.2860192656517029e-01" purity="1.5623646974563599e-01" nType="0">
        <Node pos="l" depth="1" NCoef="0" IVar="-1" Cut="0.0000000000000000e+00" cType="1" res="1.1573118390515447e-03" rms="3.5790076851844788e-01" purity="1.9888103008270264e-01" nType="-99"/>
        <Node pos="r" depth="1" NCoef="0" IVar="6" Cut="1.2392337620258331e-01" cType="1" res="-1.0068244487047195e-01" rms="2.4569556117057800e-01" purity="7.1114659309387207e-02" nType="0">
          <Node pos="l" depth="2" NCoef="0" IVar="-1" Cut="0.0000000000000000e+00" cType="1" res="-1.9037373363971710e-02" rms="2.6781824231147766e-01" purity="8.7851792573928833e-02" nType="-99"/>
          <Node pos="r" depth="2" NCoef="0" IVar="-1" Cut="0.0000000000000000e+00" cType="1" res="-3.1179426237940788e-02" rms="1.6965335607528687e-01" purity="2.8385214507579803e-02" nType="-99"/>
        </Node>
      </Node>
    </BinaryTree>
    <BinaryTree type="DecisionTree" boostWeight="1.0000000000000000e+00" itree="40">
      <Node pos="s" depth="0" NCoef="0" IVar="11" Cut="2.1446897089481354e-01" cType="0" res="-2.8367787599563599e-02" rms="3.2807433605194092e-01" purity="1.5623646974563599e-01" nType="0">
        <Node pos="l" depth="1" NCoef="0" IVar="-1" Cut="0.0000000000000000e+00" cType="1" res="4.8641716130077839e-03" rms="4.2574340105056763e-01" purity="2.8596451878547668e-01" nType="-99"/>
        <Node pos="r" depth="1" NCoef="0" IVar="16" Cut="8.1644546985626221e-01" cType="0" res="-7.4316240847110748e-02" rms="2.0446254312992096e-01" purity="4.8443753272294998e-02" nType="0">
          <Node pos="l" depth="2" NCoef="0" IVar="-1" Cut="0.0000000000000000e+00" cType="1" res="-1.0118366219103336e-02" rms="2.8420376777648926e-01" purity="9.9397651851177216e-02" nType="-99"/>
          <Node pos="r" depth="2" NCoef="0" IVar="-1" Cut="0.0000000000000000e+00" cType="1" res="-2.8315074741840363e-02" rms="1.3466992974281311e-01" purity="1.9077327102422714e-02" nType="-99"/>
        </Node>
      </Node>
    </BinaryTree>
    <BinaryTree type="DecisionTree" boostWeight="1.0000000000000000e+00" itree="41">
      <Node pos="s" depth="0" NCoef="0" IVar="13" Cut="2.4987505748867989e-03" cType="1" res="-2.6805739849805832e-02" rms="3.2750156521797180e-01" purity="1.5623646974563599e-01" nType="0">
        <Node pos="l" depth="1" NCoef="0" IVar="-1" Cut="0.0000000000000000e+00" cType="1" res="-1.1321132769808173e-03" rms="3.4331324696540833e-01" purity="1.7912933230400085e-01" nType="-99"/>
        <Node pos="r" depth="1" NCoef="0" IVar="11" Cut="1.9348713755607605e-01" cType="0" res="-1.3967937231063843e-01" rms="1.9344182312488556e-01" purity="3.8341011852025986e-02" nType="0">
          <Node pos="l" depth="2" NCoef="0" IVar="-1" Cut="0.0000000000000000e+00" cType="1" res="-3.0956840142607689e-02" rms="2.1025294065475464e-01" purity="4.8187948763370514e-02" nType="-99"/>
          <Node pos="r" depth="2" NCoef="0" IVar="-1" Cut="0.0000000000000000e+00" cType="1" res="-2.6943273842334747e-02" rms="1.5177825093269348e-01" purity="2.3769512772560120e-02" nType="-99"/>
        </Node>
      </Node>
    </BinaryTree>
    <BinaryTree type="DecisionTree" boostWeight="1.0000000000000000e+00" itree="42">
      <Node pos="s" depth="0" NCoef="0" IVar="0" Cut="3.1579289585351944e-02" cType="1" res="-2.5193745270371437e-02" rms="3.2703903317451477e-01" purity="1.5623646974563599e-01" nType="0">
        <Node pos="l" depth="1" NCoef="0" IVar="-1" Cut="0.0000000000000000e+00" cType="1" res="8.5242856293916702e-03" rms="4.1518965363502502e-01" purity="2.9052388668060303e-01" nType="-99"/>
        <Node pos="r" depth="1" NCoef="0" IVar="10" Cut="1.9937840700149536e+00" cType="1" res="-6.0679156333208084e-02" rms="2.6399090886116028e-01" purity="8.7380252778530121e-02" nType="0">
          <Node pos="l" depth="2" NCoef="0" IVar="-1" Cut="0.0000000000000000e+00" cType="1" res="-1.1382554657757282e-02" rms="2.6828223466873169e-01" purity="9.4884909689426422e-02" nType="-99"/>
          <Node pos="r" depth="2" NCoef="0" IVar="-1" Cut="0.0000000000000000e+00" cType="1" res="-2.5581384077668190e-02" rms="2.3764912784099579e-01" purity="6.2082652002573013e-02" nType="-99"/>
        </Node>
      </Node>
    </BinaryTree>
    <BinaryTree type="DecisionTree" boostWeight="1.0000000000000000e+00" itree="43">
      <Node pos="s" depth="0" NCoef="0" IVar="11" Cut="1.1767562478780746e-01" cType="0" res="-2.3774601519107819e-02" rms="3.2641297578811646e-01" purity="1.5623646974563599e-01" nType="0">
        <Node pos="l" depth="1" NCoef="0" IVar="-1" Cut="0.0000000000000000e+00" cType="1" res="3.8355453871190548e-03" rms="4.0634104609489441e-01" purity="2.5643709301948547e-01" nType="-99"/>
        <Node pos="r" depth="1" NCoef="0" IVar="7" Cut="6.1667345464229584e-02" cType="0" res="-7.8901112079620361e-02" rms="1.6480703651905060e-01" purity="2.9739500954747200e-02" nType="0">
          <Node pos="l" depth="2" NCoef="0" IVar="-1" Cut="0.0000000000000000e+00" cType="1" res="-1.8729420378804207e-02" rms="2.0816026628017426e-01" purity="4.9216981977224350e-02" nType="-99"/>
          <Node pos="r" depth="2" NCoef="0" IVar="-1" Cut="0.0000000000000000e+00" cType="1" res="-3.1441941857337952e-02" rms="8.4093451499938965e-02" purity="6.7603774368762970e-03" nType="-99"/>
        </Node>
      </Node>
    </BinaryTree>
    <BinaryTree type="DecisionTree" boostWeight="1.0000000000000000e+00" itree="44">
      <Node pos="s" depth="0" NCoef="0" IVar="6" Cut="4.6252090483903885e-02" cType="1" res="-2.2480491548776627e-02" rms="3.2589119672775269e-01" purity="1.5623646974563599e-01" nType="0">
        <Node pos="l" depth="1" NCoef="0" IVar="-1" Cut="0.0000000000000000e+00" cType="1" res="1.0734990239143372e-02" rms="3.7853413820266724e-01" purity="2.3683033883571625e-01" nType="-99"/>
        <Node pos="r" depth="1" NCoef="0" IVar="10" Cut="2.8237464427947998e+00" cType="1" res="-5.7564385235309601e-02" rms="2.8898289799690247e-01" purity="1.1479206383228302e-01" nType="0">
          <Node pos="l" depth="2" NCoef="0" IVar="-1" Cut="0.0000000000000000e+00" cType="1" res="-9.6946181729435921e-03" rms="2.9223343729972839e-01" purity="1.2325353175401688e-01" nType="-99"/>
          <Node pos="r" depth="2" NCoef="0" IVar="-1" Cut="0.0000000000000000e+00" cType="1" res="-2.5811038911342621e-02" rms="2.6003932952880859e-01" purity="7.8502349555492401e-02" nType="-99"/>
        </Node>
      </Node>
    </BinaryTree>
    <BinaryTree type="DecisionTree" boostWeight="1.0000000000000000e+00" itree="45">
      <Node pos="s" depth="0" NCoef="0" IVar="13" Cut="2.4987505748867989e-03" cType="1" res="-2.1180428564548492e-02" rms="3.2520797848701477e-01" purity="1.5623646974563599e-01" nType="0">
        <Node pos="l" depth="1" NCoef="0" IVar="-1" Cut="0.0000000000000000e+00" cType="1" res="-5.2545052312780172e-05" rms="3.4111323952674866e-01" purity="1.7912933230400085e-01" nType="-99"/>
        <Node pos="r" depth="1" NCoef="0" IVar="11" Cut="1.9348713755607605e-01" cType="0" res="-1.2912106513977051e-01" rms="1.9304981827735901e-01" purity="3.8341011852025986e-02" nType="0">
          <Node pos="l" depth="2" NCoef="0" IVar="-1" Cut="0.0000000000000000e+00" cType="1" res="-3.0077345669269562e-02" rms="2.1016268432140350e-01" purity="4.8187948763370514e-02" nType="-99"/>
          <Node pos="r" depth="2" NCoef="0" IVar="-1" Cut="0.0000000000000000e+00" cType="1" res="-2.6147559285163879e-02" rms="1.5186221897602081e-01" purity="2.3769512772560120e-02" nType="-99"/>
        </Node>
      </Node>
    </BinaryTree>
    <BinaryTree type="DecisionTree" boostWeight="1.0000000000000000e+00" itree="46">
      <Node pos="s" depth="0" NCoef="0" IVar="11" Cut="1.7954353988170624e-01" cType="0" res="-1.9926333799958229e-02" rms="3.2474914193153381e-01" purity="1.5623646974563599e-01" nType="0">
        <Node pos="l" depth="1" NCoef="0" IVar="-1" Cut="0.0000000000000000e+00" cType="1" res="5.5174520239233971e-03" rms="4.1820940375328064e-01" purity="2.7966985106468201e-01" nType="-99"/>
        <Node pos="r" depth="1" NCoef="0" IVar="7" Cut="6.1667345464229584e-02" cType="0" res="-6.5885871648788452e-02" rms="1.9151364266872406e-01" purity="4.1766889393329620e-02" nType="0">
          <Node pos="l" depth="2" NCoef="0" IVar="-1" Cut="0.0000000000000000e+00" cType="1" res="-1.3872158713638783e-02" rms="2.3549754917621613e-01" purity="6.5455280244350433e-02" nType="-99"/>
          <Node pos="r" depth="2" NCoef="0" IVar="-1" Cut="0.0000000000000000e+00" cType="1" res="-3.0049907043576241e-02" rms="1.0427419841289520e-01" purity="1.1123672127723694e-02" nType="-99"/>
        </Node>
      </Node>
    </BinaryTree>
    <BinaryTree type="DecisionTree" boostWeight="1.0000000000000000e+00" itree="47">
      <Node pos="s" depth="0" NCoef="0" IVar="0" Cut="3.6140311509370804e-02" cType="1" res="-1.8881564959883690e-02" rms="3.2421407103538513e-01" purity="1.5623646974563599e-01" nType="0">
        <Node pos="l" depth="1" NCoef="0" IVar="-1" Cut="0.0000000000000000e+00" cType="1" res="5.4196603596210480e-03" rms="3.8536897301673889e-01" purity="2.4047543108463287e-01" nType="-99"/>
        <Node pos="r" depth="1" NCoef="0" IVar="10" Cut="1.8277915716171265e+00" cType="1" res="-6.9562174379825592e-02" rms="2.2523847222328186e-01" purity="6.0018848627805710e-02" nType="0">
          <Node pos="l" depth="2" NCoef="0" IVar="-1" Cut="0.0000000000000000e+00" cType="1" res="-1.5563082881271839e-02" rms="2.3097661137580872e-01" purity="6.6702403128147125e-02" nType="-99"/>
          <Node pos="r" depth="2" NCoef="0" IVar="-1" Cut="0.0000000000000000e+00" cType="1" res="-2.7770550921559334e-02" rms="1.9698148965835571e-01" purity="4.0262177586555481e-02" nType="-99"/>
        </Node>
      </Node>
    </BinaryTree>
    <BinaryTree type="DecisionTree" boostWeight="1.0000000000000000e+00" itree="48">
      <Node pos="s" depth="0" NCoef="0" IVar="17" Cut="-1.3375903479754925e-02" cType="0" res="-1.7851987853646278e-02" rms="3.2364162802696228e-01" purity="1.5623646974563599e-01" nType="0">
        <Node pos="l" depth="1" NCoef="0" IVar="-1" Cut="0.0000000000000000e+00" cType="1" res="4.3802391737699509e-03" rms="3.5418152809143066e-01" purity="2.0271882414817810e-01" nType="-99"/>
        <Node pos="r" depth="1" NCoef="0" IVar="6" Cut="1.0413610190153122e-01" cType="1" res="-7.8819580376148224e-02" rms="2.5288233160972595e-01" purity="7.7935703098773956e-02" nType="0">
          <Node pos="l" depth="2" NCoef="0" IVar="-1" Cut="0.0000000000000000e+00" cType="1" res="-1.4316965825855732e-02" rms="2.8306177258491516e-01" purity="1.0210150480270386e-01" nType="-99"/>
          <Node pos="r" depth="2" NCoef="0" IVar="-1" Cut="0.0000000000000000e+00" cType="1" res="-2.8347102925181389e-02" rms="1.8129418790340424e-01" purity="3.4626238048076630e-02" nType="-99"/>
        </Node>
      </Node>
    </BinaryTree>
    <BinaryTree type="DecisionTree" boostWeight="1.0000000000000000e+00" itree="49">
      <Node pos="s" depth="0" NCoef="0" IVar="11" Cut="1.3264366984367371e-01" cType="0" res="-1.6848465427756310e-02" rms="3.2305693626403809e-01" purity="1.5623646974563599e-01" nType="0">
        <Node pos="l" depth="1" NCoef="0" IVar="-1" Cut="0.0000000000000000e+00" cType="1" res="5.0403154455125332e-03" rms="4.0704002976417542e-01" purity="2.6397103071212769e-01" nType="-99"/>
        <Node pos="r" depth="1" NCoef="0" IVar="16" Cut="7.7327996492385864e-01" cType="0" res="-6.5858200192451477e-02" rms="1.7248442769050598e-01" purity="3.3045955002307892e-02" nType="0">
          <Node pos="l" depth="2" NCoef="0" IVar="-1" Cut="0.0000000000000000e+00" cType="1" res="-1.2189014814794064e-02" rms="2.4724292755126953e-01" purity="7.1306198835372925e-02" nType="-99"/>
          <Node pos="r" depth="2" NCoef="0" IVar="-1" Cut="0.0000000000000000e+00" cType="1" res="-2.9561484232544899e-02" rms="9.7886189818382263e-02" purity="9.3811526894569397e-03" nType="-99"/>
        </Node>
      </Node>
    </BinaryTree>
    <BinaryTree type="DecisionTree" boostWeight="1.0000000000000000e+00" itree="50">
      <Node pos="s" depth="0" NCoef="0" IVar="13" Cut="2.4987505748867989e-03" cType="1" res="-1.5992335975170135e-02" rms="3.2254573702812195e-01" purity="1.5623646974563599e-01" nType="0">
        <Node pos="l" depth="1" NCoef="0" IVar="-1" Cut="0.0000000000000000e+00" cType="1" res="9.8245870321989059e-04" rms="3.3842933177947998e-01" purity="1.7912933230400085e-01" nType="-99"/>
        <Node pos="r" depth="1" NCoef="0" IVar="11" Cut="1.8949970602989197e-01" cType="0" res="-1.1890669167041779e-01" rms="1.9318628311157227e-01" purity="3.8341011852025986e-02" nType="0">
          <Node pos="l" depth="2" NCoef="0" IVar="-1" Cut="0.0000000000000000e+00" cType="1" res="-2.9341068118810654e-02" rms="2.1038380265235901e-01" purity="4.8233933746814728e-02" nType="-99"/>
          <Node pos="r" depth="2" NCoef="0" IVar="-1" Cut="0.0000000000000000e+00" cType="1" res="-2.4981655180454254e-02" rms="1.5024562180042267e-01" purity="2.3292394354939461e-02" nType="-99"/>
        </Node>
      </Node>
    </BinaryTree>
    <BinaryTree type="DecisionTree" boostWeight="1.0000000000000000e+00" itree="51">
      <Node pos="s" depth="0" NCoef="0" IVar="6" Cut="6.4752921462059021e-02" cType="1" res="-1.5069332905113697e-02" rms="3.2208204269409180e-01" purity="1.5623646974563599e-01" nType="0">
        <Node pos="l" depth="1" NCoef="0" IVar="-1" Cut="0.0000000000000000e+00" cType="1" res="8.2618938758969307e-03" rms="3.6126670241355896e-01" purity="2.1532189846038818e-01" nType="-99"/>
        <Node pos="r" depth="1" NCoef="0" IVar="10" Cut="2.8237464427947998e+00" cType="1" res="-5.6553602218627930e-02" rms="2.7788326144218445e-01" purity="1.0598511993885040e-01" nType="0">
          <Node pos="l" depth="2" NCoef="0" IVar="-1" Cut="0.0000000000000000e+00" cType="1" res="-9.9901091307401657e-03" rms="2.8175035119056702e-01" purity="1.1474759876728058e-01" nType="-99"/>
          <Node pos="r" depth="2" NCoef="0" IVar="-1" Cut="0.0000000000000000e+00" cType="1" res="-2.6401242241263390e-02" rms="2.4636855721473694e-01" purity="6.9192163646221161e-02" nType="-99"/>
        </Node>
      </Node>
    </BinaryTree>
    <BinaryTree type="DecisionTree" boostWeight="1.0000000000000000e+00" itree="52">
      <Node pos="s" depth="0" NCoef="0" IVar="0" Cut="2.9221471399068832e-02" cType="1" res="-1.4228378422558308e-02" rms="3.2146424055099487e-01" purity="1.5623646974563599e-01" nType="0">
        <Node pos="l" depth="1" NCoef="0" IVar="-1" Cut="0.0000000000000000e+00" cType="1" res="1.2762769125401974e-02" rms="4.1765710711479187e-01" purity="3.1548467278480530e-01" nType="-99"/>
        <Node pos="r" depth="1" NCoef="0" IVar="10" Cut="1.9937840700149536e+00" cType="1" res="-3.9567161351442337e-02" rms="2.7899307012557983e-01" purity="1.0502603650093079e-01" nType="0">
