<?xml version="1.0"?>
<MethodSetup Method="BDT::BDT">
  <GeneralInfo>
    <Info name="TMVA Release" value="4.1.2 [262402]"/>
    <Info name="ROOT Release" value="5.32/00 [335872]"/>
    <Info name="Creator" value="pigard"/>
    <Info name="Date" value="Tue Jul 28 17:28:56 2015"/>
    <Info name="Host" value="Linux cmsdev02.cern.ch 2.6.32-431.11.2.el6.x86_64 #1 SMP Wed Mar 26 09:39:43 CET 2014 x86_64 x86_64 x86_64 GNU/Linux"/>
    <Info name="Dir" value="/grid_mnt/vol__vol_U__u/llr/cms/pigard/myEID/job/NonTrigSpring15_ConvVarCwoBoolean_TMVA412_FullStatLowPt_PairNegWeightsGlobal"/>
    <Info name="Training events" value="40814"/>
    <Info name="TrainingTime" value="2.50947156e+03"/>
    <Info name="AnalysisType" value="Classification"/>
  </GeneralInfo>
  <Options>
    <Option name="V" modified="Yes">False</Option>
    <Option name="VerbosityLevel" modified="No">Default</Option>
    <Option name="VarTransform" modified="No">None</Option>
    <Option name="H" modified="Yes">False</Option>
    <Option name="CreateMVAPdfs" modified="Yes">True</Option>
    <Option name="IgnoreNegWeightsInTraining" modified="No">False</Option>
    <Option name="NTrees" modified="Yes">2000</Option>
    <Option name="RenormByClass" modified="No">False</Option>
    <Option name="BoostType" modified="Yes">Grad</Option>
    <Option name="AdaBoostR2Loss" modified="No">quadratic</Option>
    <Option name="UseBaggedGrad" modified="Yes">False</Option>
    <Option name="GradBaggingFraction" modified="No">6.000000e-01</Option>
    <Option name="Shrinkage" modified="Yes">1.000000e-01</Option>
    <Option name="AdaBoostBeta" modified="No">1.000000e+00</Option>
    <Option name="UseRandomisedTrees" modified="No">False</Option>
    <Option name="UseNvars" modified="Yes">4</Option>
    <Option name="UsePoissonNvars" modified="No">True</Option>
    <Option name="UseNTrainEvents" modified="No">40814</Option>
    <Option name="UseWeightedTrees" modified="No">True</Option>
    <Option name="UseYesNoLeaf" modified="No">True</Option>
    <Option name="NodePurityLimit" modified="No">5.000000e-01</Option>
    <Option name="SeparationType" modified="No">giniindex</Option>
    <Option name="nEventsMin" modified="Yes">100</Option>
    <Option name="nCuts" modified="Yes">2000</Option>
    <Option name="UseFisherCuts" modified="No">False</Option>
    <Option name="MinLinCorrForFisher" modified="No">8.000000e-01</Option>
    <Option name="UseExclusiveVars" modified="No">False</Option>
    <Option name="PruneStrength" modified="Yes">5.000000e+00</Option>
    <Option name="PruneMethod" modified="Yes">costcomplexity</Option>
    <Option name="PruneBeforeBoost" modified="No">False</Option>
    <Option name="PruningValFraction" modified="No">5.000000e-01</Option>
    <Option name="NNodesMax" modified="Yes">5</Option>
    <Option name="MaxDepth" modified="Yes">6</Option>
    <Option name="DoBoostMonitor" modified="No">False</Option>
    <Option name="NegWeightTreatment" modified="Yes">pairnegweightsglobal</Option>
  </Options>
  <Variables NVar="20">
    <Variable VarIndex="0" Expression="ele_oldsigmaietaieta" Label="ele_oldsigmaietaieta" Title="ele_oldsigmaietaieta" Unit="" Internal="ele_oldsigmaietaieta" Type="F" Min="0.00000000e+00" Max="2.79403049e-02"/>
    <Variable VarIndex="1" Expression="ele_oldsigmaiphiiphi" Label="ele_oldsigmaiphiiphi" Title="ele_oldsigmaiphiiphi" Unit="" Internal="ele_oldsigmaiphiiphi" Type="F" Min="0.00000000e+00" Max="2.88149416e-02"/>
    <Variable VarIndex="2" Expression="ele_oldcircularity" Label="ele_oldcircularity" Title="ele_oldcircularity" Unit="" Internal="ele_oldcircularity" Type="F" Min="0.00000000e+00" Max="8.90130818e-01"/>
    <Variable VarIndex="3" Expression="ele_oldr9" Label="ele_oldr9" Title="ele_oldr9" Unit="" Internal="ele_oldr9" Type="F" Min="1.59225479e-01" Max="1.16609802e+01"/>
    <Variable VarIndex="4" Expression="ele_scletawidth" Label="ele_scletawidth" Title="ele_scletawidth" Unit="" Internal="ele_scletawidth" Type="F" Min="0.00000000e+00" Max="5.12088425e-02"/>
    <Variable VarIndex="5" Expression="ele_sclphiwidth" Label="ele_sclphiwidth" Title="ele_sclphiwidth" Unit="" Internal="ele_sclphiwidth" Type="F" Min="0.00000000e+00" Max="3.96120757e-01"/>
    <Variable VarIndex="6" Expression="ele_he" Label="ele_he" Title="ele_he" Unit="" Internal="ele_he" Type="F" Min="0.00000000e+00" Max="2.33250370e+01"/>
    <Variable VarIndex="7" Expression="ele_kfhits" Label="ele_kfhits" Title="ele_kfhits" Unit="" Internal="ele_kfhits" Type="I" Min="3.00000000e+00" Max="1.30000000e+01"/>
    <Variable VarIndex="8" Expression="ele_kfchi2" Label="ele_kfchi2" Title="ele_kfchi2" Unit="" Internal="ele_kfchi2" Type="F" Min="9.84416992e-10" Max="2.96971684e+01"/>
    <Variable VarIndex="9" Expression="ele_gsfchi2" Label="ele_gsfchi2" Title="ele_gsfchi2" Unit="" Internal="ele_gsfchi2" Type="F" Min="1.16311528e-01" Max="9.53569702e+02"/>
    <Variable VarIndex="10" Expression="ele_fbrem" Label="ele_fbrem" Title="ele_fbrem" Unit="" Internal="ele_fbrem" Type="F" Min="-9.94108856e-01" Max="9.91451681e-01"/>
    <Variable VarIndex="11" Expression="ele_gsfhits" Label="ele_gsfhits" Title="ele_gsfhits" Unit="" Internal="ele_gsfhits" Type="I" Min="4.00000000e+00" Max="1.50000000e+01"/>
    <Variable VarIndex="12" Expression="ele_expected_inner_hits" Label="ele_expected_inner_hits" Title="ele_expected_inner_hits" Unit="" Internal="ele_expected_inner_hits" Type="I" Min="0.00000000e+00" Max="3.00000000e+00"/>
    <Variable VarIndex="13" Expression="ele_conversionVertexFitProbability" Label="ele_conversionVertexFitProbability" Title="ele_conversionVertexFitProbability" Unit="" Internal="ele_conversionVertexFitProbability" Type="F" Min="-1.00000000e+00" Max="9.99221027e-01"/>
    <Variable VarIndex="14" Expression="ele_ep" Label="ele_ep" Title="ele_ep" Unit="" Internal="ele_ep" Type="F" Min="2.60811858e-02" Max="1.28522930e+01"/>
    <Variable VarIndex="15" Expression="ele_eelepout" Label="ele_eelepout" Title="ele_eelepout" Unit="" Internal="ele_eelepout" Type="F" Min="1.03201568e-02" Max="7.52846832e+01"/>
    <Variable VarIndex="16" Expression="ele_IoEmIop" Label="ele_IoEmIop" Title="ele_IoEmIop" Unit="" Internal="ele_IoEmIop" Type="F" Min="-1.64781058e+00" Max="1.21063840e+00"/>
    <Variable VarIndex="17" Expression="ele_deltaetain" Label="ele_deltaetain" Title="ele_deltaetain" Unit="" Internal="ele_deltaetain" Type="F" Min="-6.85930699e-02" Max="1.22239590e-01"/>
    <Variable VarIndex="18" Expression="ele_deltaphiin" Label="ele_deltaphiin" Title="ele_deltaphiin" Unit="" Internal="ele_deltaphiin" Type="F" Min="-5.92830181e-01" Max="5.78349710e-01"/>
    <Variable VarIndex="19" Expression="ele_deltaetaseed" Label="ele_deltaetaseed" Title="ele_deltaetaseed" Unit="" Internal="ele_deltaetaseed" Type="F" Min="-2.86950469e-01" Max="9.84709084e-01"/>
  </Variables>
  <Spectators NSpec="10">
    <Spectator SpecIndex="0" Expression="ele_pT" Label="ele_pT" Title="ele_pT" Unit="" Internal="ele_pT" Type="F" Min="5.00002813e+00" Max="9.99977875e+00"/>
    <Spectator SpecIndex="1" Expression="ele_isbarrel" Label="ele_isbarrel" Title="ele_isbarrel" Unit="" Internal="ele_isbarrel" Type="F" Min="1.00000000e+00" Max="1.00000000e+00"/>
    <Spectator SpecIndex="2" Expression="ele_isendcap" Label="ele_isendcap" Title="ele_isendcap" Unit="" Internal="ele_isendcap" Type="F" Min="0.00000000e+00" Max="0.00000000e+00"/>
    <Spectator SpecIndex="3" Expression="scl_eta" Label="scl_eta" Title="scl_eta" Unit="" Internal="scl_eta" Type="F" Min="-7.99967051e-01" Max="7.99978852e-01"/>
    <Spectator SpecIndex="4" Expression="ele_eClass" Label="ele_eClass" Title="ele_eClass" Unit="" Internal="ele_eClass" Type="F" Min="0.00000000e+00" Max="4.00000000e+00"/>
    <Spectator SpecIndex="5" Expression="ele_pfRelIso" Label="ele_pfRelIso" Title="ele_pfRelIso" Unit="" Internal="ele_pfRelIso" Type="F" Min="0.00000000e+00" Max="1.24799011e+02"/>
    <Spectator SpecIndex="6" Expression="ele_expected_inner_hits" Label="ele_expected_inner_hits" Title="ele_expected_inner_hits" Unit="" Internal="ele_expected_inner_hits" Type="F" Min="0.00000000e+00" Max="3.00000000e+00"/>
    <Spectator SpecIndex="7" Expression="ele_vtxconv" Label="ele_vtxconv" Title="ele_vtxconv" Unit="" Internal="ele_vtxconv" Type="F" Min="0.00000000e+00" Max="1.00000000e+00"/>
    <Spectator SpecIndex="8" Expression="mc_event_weight" Label="mc_event_weight" Title="mc_event_weight" Unit="" Internal="mc_event_weight" Type="F" Min="-1.00000107e+00" Max="1.00000107e+00"/>
    <Spectator SpecIndex="9" Expression="mc_ele_CBmatching_category" Label="mc_ele_CBmatching_category" Title="mc_ele_CBmatching_category" Unit="" Internal="mc_ele_CBmatching_category" Type="F" Min="0.00000000e+00" Max="3.00000000e+00"/>
  </Spectators>
  <Classes NClass="2">
    <Class Name="Signal" Index="0"/>
    <Class Name="Background" Index="1"/>
  </Classes>
  <Transformations NTransformations="0"/>
  <MVAPdfs>
    <PDF Name="BDT_PDFSig" MinNSmooth="0" MaxNSmooth="0" InterpolMethod="2" KDE_type="1" KDE_iter="1" KDE_border="1" KDE_finefactor="1.0000000000000000e+00">
      <Histogram Name="BDT_tr_S_original" NBins="816" XMin="-9.9999749660491943e-01" XMax="9.9816638231277466e-01" HasEquidistantBins="1">
        7.11454526e-02 1.06718183e-01 3.55727263e-02 7.11454526e-02 0.00000000e+00 3.55727263e-02 1.42290905e-01 7.11454526e-02 1.06718183e-01 3.55727263e-02 1.06718183e-01 3.55727263e-02 3.55727263e-02 1.06718183e-01 3.55727263e-02 7.11454526e-02 1.06718183e-01 0.00000000e+00 7.11454526e-02 1.06718183e-01 0.00000000e+00 1.06718183e-01 3.55727263e-02 0.00000000e+00 0.00000000e+00 7.11454526e-02 1.06718183e-01 7.11454526e-02 1.06718183e-01 0.00000000e+00 1.06718183e-01 3.55727263e-02 3.55727263e-02 1.06718183e-01 1.06718183e-01 7.11454526e-02 0.00000000e+00 0.00000000e+00 0.00000000e+00 1.42290905e-01 0.00000000e+00 3.55727263e-02 0.00000000e+00 3.55727263e-02 3.55727263e-02 7.11454526e-02 0.00000000e+00 3.55727263e-02 7.11454526e-02 7.11454526e-02 3.55727263e-02 3.55727263e-02 0.00000000e+00 3.55727263e-02 3.55727263e-02 7.11454526e-02 3.55727263e-02 7.11454526e-02 1.77863643e-01 0.00000000e+00 7.11454526e-02 1.06718183e-01 3.55727263e-02 3.55727263e-02 3.55727263e-02 7.11454526e-02 3.55727263e-02 7.11454526e-02 1.06718183e-01 3.55727263e-02 3.55727263e-02 0.00000000e+00 7.11454526e-02 0.00000000e+00 7.11454526e-02 0.00000000e+00 7.11454526e-02 0.00000000e+00 3.55727263e-02 3.55727263e-02 1.77863643e-01 3.55727263e-02 1.42290905e-01 7.11454526e-02 7.11454526e-02 0.00000000e+00 1.42290905e-01 3.55727263e-02 1.06718183e-01 1.42290905e-01 1.06718183e-01 1.77863643e-01 1.06718183e-01 1.06718183e-01 3.55727263e-02 7.11454526e-02 0.00000000e+00 7.11454526e-02 7.11454526e-02 1.06718183e-01 7.11454526e-02 3.55727263e-02 3.55727263e-02 3.55727263e-02 3.55727263e-02 1.42290905e-01 7.11454526e-02 0.00000000e+00 3.55727263e-02 3.55727263e-02 7.11454526e-02 3.55727263e-02 1.06718183e-01 3.55727263e-02 1.06718183e-01 3.55727263e-02 7.11454526e-02 1.42290905e-01 7.11454526e-02 1.42290905e-01 3.55727263e-02 7.11454526e-02 7.11454526e-02 3.55727263e-02 3.55727263e-02 1.42290905e-01 7.11454526e-02 7.11454526e-02 7.11454526e-02 3.55727263e-02 7.11454526e-02 1.06718183e-01 7.11454526e-02 0.00000000e+00 3.55727263e-02 1.42290905e-01 3.55727263e-02 0.00000000e+00 1.77863643e-01 3.55727263e-02 1.77863643e-01 1.06718183e-01 7.11454526e-02 0.00000000e+00 7.11454526e-02 1.42290905e-01 7.11454526e-02 0.00000000e+00 1.06718183e-01 2.13436365e-01 7.11454526e-02 7.11454526e-02 3.55727263e-02 3.55727263e-02 3.55727263e-02 3.55727263e-02 0.00000000e+00 0.00000000e+00 1.06718183e-01 3.55727263e-02 3.55727263e-02 3.55727263e-02 1.42290905e-01 1.06718183e-01 7.11454526e-02 7.11454526e-02 3.55727263e-02 1.42290905e-01 0.00000000e+00 3.55727263e-02 7.11454526e-02 1.42290905e-01 3.55727263e-02 7.11454526e-02 3.55727263e-02 3.55727263e-02 7.11454526e-02 7.11454526e-02 3.55727263e-02 0.00000000e+00 7.11454526e-02 3.55727263e-02 3.55727263e-02 1.77863643e-01 0.00000000e+00 3.55727263e-02 7.11454526e-02 1.06718183e-01 3.55727263e-02 7.11454526e-02 1.06718183e-01 3.55727263e-02 1.06718183e-01 7.11454526e-02 1.06718183e-01 1.06718183e-01 1.06718183e-01 1.77863643e-01 7.11454526e-02 3.55727263e-02 7.11454526e-02 3.55727263e-02 3.55727263e-02 7.11454526e-02 3.55727263e-02 7.11454526e-02 1.06718183e-01 7.11454526e-02 7.11454526e-02 3.55727263e-02 1.77863643e-01 1.06718183e-01 1.42290905e-01 1.06718183e-01 2.13436365e-01 3.55727263e-02 1.06718183e-01 0.00000000e+00 3.55727263e-02 1.06718183e-01 7.11454526e-02 1.42290905e-01 1.06718183e-01 7.11454526e-02 1.42290905e-01 3.55727263e-02 7.11454526e-02 7.11454526e-02 7.11454526e-02 1.06718183e-01 0.00000000e+00 1.42290905e-01 7.11454526e-02 3.55727263e-02 3.55727263e-02 1.77863643e-01 3.55727263e-02 3.55727263e-02 1.77863643e-01 1.06718183e-01 1.06718183e-01 3.55727263e-02 1.77863643e-01 7.11454526e-02 1.06718183e-01 1.06718183e-01 1.06718183e-01 0.00000000e+00 1.42290905e-01 3.55727263e-02 1.06718183e-01 7.11454526e-02 2.49009088e-01 7.11454526e-02 1.06718183e-01 1.06718183e-01 1.77863643e-01 3.55727263e-02 7.11454526e-02 2.49009088e-01 3.55727263e-02 1.06718183e-01 7.11454526e-02 1.42290905e-01 7.11454526e-02 1.06718183e-01 1.42290905e-01 0.00000000e+00 7.11454526e-02 3.55727263e-02 1.06718183e-01 1.06718183e-01 3.55727263e-02 3.55727263e-02 7.11454526e-02 7.11454526e-02 1.77863643e-01 0.00000000e+00 7.11454526e-02 1.42290905e-01 2.13436365e-01 1.06718183e-01 1.42290905e-01 7.11454526e-02 7.11454526e-02 3.55727285e-01 1.06718183e-01 7.11454526e-02 7.11454526e-02 1.06718183e-01 1.42290905e-01 1.06718183e-01 2.49009088e-01 7.11454526e-02 1.42290905e-01 7.11454526e-02 7.11454526e-02 1.42290905e-01 1.42290905e-01 1.06718183e-01 3.55727263e-02 1.42290905e-01 1.77863643e-01 1.06718183e-01 1.06718183e-01 1.77863643e-01 1.77863643e-01 2.84581810e-01 2.13436365e-01 7.11454526e-02 1.42290905e-01 7.11454526e-02 1.77863643e-01 7.11454526e-02 1.42290905e-01 1.77863643e-01 1.06718183e-01 1.42290905e-01 7.11454526e-02 1.42290905e-01 1.42290905e-01 3.55727263e-02 3.55727263e-02 7.11454526e-02 1.42290905e-01 2.49009088e-01 7.11454526e-02 1.77863643e-01 7.11454526e-02 1.06718183e-01 1.42290905e-01 1.77863643e-01 1.42290905e-01 1.42290905e-01 1.77863643e-01 1.42290905e-01 2.13436365e-01 1.77863643e-01 1.77863643e-01 1.77863643e-01 2.13436365e-01 7.11454526e-02 1.42290905e-01 1.77863643e-01 1.42290905e-01 2.84581810e-01 7.11454526e-02 1.77863643e-01 1.77863643e-01 1.77863643e-01 1.42290905e-01 1.06718183e-01 3.20154548e-01 1.77863643e-01 1.42290905e-01 1.06718183e-01 7.11454526e-02 1.42290905e-01 3.20154548e-01 1.77863643e-01 2.84581810e-01 2.13436365e-01 1.06718183e-01 1.77863643e-01 1.06718183e-01 2.49009088e-01 2.13436365e-01 7.11454526e-02 1.42290905e-01 1.77863643e-01 1.06718183e-01 3.20154548e-01 2.49009088e-01 2.84581810e-01 1.06718183e-01 1.42290905e-01 3.91299993e-01 1.77863643e-01 2.13436365e-01 3.55727263e-02 1.06718183e-01 1.77863643e-01 1.42290905e-01 2.13436365e-01 1.77863643e-01 1.42290905e-01 1.77863643e-01 2.13436365e-01 2.84581810e-01 7.11454526e-02 2.13436365e-01 2.13436365e-01 3.20154548e-01 1.42290905e-01 7.11454526e-02 1.06718183e-01 2.49009088e-01 1.42290905e-01 3.91299993e-01 2.49009088e-01 1.06718183e-01 2.49009088e-01 1.77863643e-01 2.49009088e-01 1.42290905e-01 1.06718183e-01 3.55727263e-02 3.20154548e-01 1.77863643e-01 1.42290905e-01 7.11454526e-02 2.13436365e-01 1.77863643e-01 2.84581810e-01 2.84581810e-01 3.20154548e-01 2.13436365e-01 2.49009088e-01 3.20154548e-01 3.20154548e-01 4.98018175e-01 2.84581810e-01 2.49009088e-01 1.06718183e-01 1.42290905e-01 1.77863643e-01 2.49009088e-01 2.13436365e-01 2.13436365e-01 1.42290905e-01 1.42290905e-01 2.13436365e-01 1.42290905e-01 3.55727285e-01 2.13436365e-01 2.13436365e-01 1.77863643e-01 3.55727285e-01 3.20154548e-01 4.98018175e-01 2.84581810e-01 2.13436365e-01 3.91299993e-01 2.49009088e-01 2.84581810e-01 1.42290905e-01 1.42290905e-01 1.77863643e-01 1.77863643e-01 2.49009088e-01 2.13436365e-01 2.49009088e-01 1.42290905e-01 3.91299993e-01 7.11454526e-02 1.42290905e-01 3.55727285e-01 2.84581810e-01 1.06718183e-01 1.42290905e-01 3.55727285e-01 1.42290905e-01 1.42290905e-01 2.49009088e-01 2.49009088e-01 2.13436365e-01 3.20154548e-01 3.20154548e-01 3.91299993e-01 7.11454526e-02 3.91299993e-01 4.26872730e-01 2.84581810e-01 2.49009088e-01 2.13436365e-01 3.91299993e-01 3.55727285e-01 3.91299993e-01 3.20154548e-01 4.98018175e-01 3.55727285e-01 3.55727285e-01 2.84581810e-01 3.55727285e-01 2.49009088e-01 4.62445468e-01 3.55727285e-01 3.55727285e-01 2.84581810e-01 5.33590913e-01 2.13436365e-01 3.20154548e-01 3.20154548e-01 2.13436365e-01 4.62445468e-01 2.49009088e-01 2.84581810e-01 2.49009088e-01 5.33590913e-01 3.20154548e-01 4.62445468e-01 7.11454526e-02 4.26872730e-01 3.55727285e-01 1.42290905e-01 5.33590913e-01 2.49009088e-01 4.26872730e-01 4.26872730e-01 2.84581810e-01 5.69163620e-01 6.75881803e-01 4.62445468e-01 3.91299993e-01 3.55727285e-01 4.98018175e-01 3.55727285e-01 3.20154548e-01 5.69163620e-01 2.49009088e-01 5.69163620e-01 3.91299993e-01 3.20154548e-01 3.91299993e-01 4.98018175e-01 2.49009088e-01 3.20154548e-01 2.84581810e-01 3.20154548e-01 3.55727285e-01 4.62445468e-01 3.91299993e-01 4.98018175e-01 2.13436365e-01 2.84581810e-01 4.26872730e-01 3.20154548e-01 5.33590913e-01 3.91299993e-01 3.55727285e-01 5.69163620e-01 3.20154548e-01 3.20154548e-01 4.26872730e-01 4.98018175e-01 4.26872730e-01 4.98018175e-01 4.98018175e-01 7.82599986e-01 7.82599986e-01 3.91299993e-01 5.33590913e-01 3.20154548e-01 3.91299993e-01 3.55727285e-01 3.55727285e-01 6.40309095e-01 4.98018175e-01 2.49009088e-01 4.62445468e-01 6.04736388e-01 6.40309095e-01 5.33590913e-01 4.98018175e-01 5.69163620e-01 4.98018175e-01 5.69163620e-01 6.40309095e-01 2.84581810e-01 6.40309095e-01 7.11454570e-01 5.33590913e-01 6.04736388e-01 5.33590913e-01 4.62445468e-01 7.11454570e-01 4.98018175e-01 6.40309095e-01 4.62445468e-01 7.82599986e-01 9.96036351e-01 3.55727285e-01 7.11454570e-01 6.75881803e-01 5.69163620e-01 4.26872730e-01 7.47027278e-01 6.40309095e-01 1.03160906e+00 7.11454570e-01 5.69163620e-01 8.18172753e-01 4.98018175e-01 6.04736388e-01 7.82599986e-01 7.47027278e-01 8.18172753e-01 8.18172753e-01 5.69163620e-01 7.11454570e-01 9.60463643e-01 5.69163620e-01 6.04736388e-01 7.47027278e-01 6.04736388e-01 7.11454570e-01 7.11454570e-01 6.75881803e-01 8.18172753e-01 9.24890935e-01 7.82599986e-01 9.24890935e-01 4.98018175e-01 6.04736388e-01 4.98018175e-01 7.11454570e-01 6.04736388e-01 1.24504542e+00 7.47027278e-01 1.13832724e+00 6.40309095e-01 8.53745461e-01 9.60463643e-01 7.47027278e-01 9.60463643e-01 9.24890935e-01 9.24890935e-01 1.03160906e+00 6.75881803e-01 9.24890935e-01 8.53745461e-01 8.89318168e-01 7.82599986e-01 1.03160906e+00 1.03160906e+00 9.96036351e-01 9.24890935e-01 6.40309095e-01 9.24890935e-01 9.60463643e-01 1.35176361e+00 1.13832724e+00 1.24504542e+00 1.10275459e+00 1.38733637e+00 1.13832724e+00 1.06718183e+00 1.31619096e+00 8.53745461e-01 1.10275459e+00 7.11454570e-01 7.82599986e-01 1.20947278e+00 1.31619096e+00 1.20947278e+00 1.31619096e+00 1.24504542e+00 1.35176361e+00 1.20947278e+00 1.56519997e+00 1.13832724e+00 8.53745461e-01 9.96036351e-01 1.24504542e+00 1.13832724e+00 1.45848179e+00 1.38733637e+00 1.20947278e+00 1.31619096e+00 1.31619096e+00 1.77863634e+00 1.63634551e+00 1.52962732e+00 1.35176361e+00 1.45848179e+00 1.60077274e+00 1.45848179e+00 1.35176361e+00 1.77863634e+00 1.63634551e+00 1.49405456e+00 1.70749092e+00 2.16993642e+00 1.99207270e+00 1.31619096e+00 1.67191815e+00 1.56519997e+00 1.95650005e+00 1.31619096e+00 1.35176361e+00 1.60077274e+00 1.63634551e+00 1.99207270e+00 1.56519997e+00 1.88535452e+00 2.09879088e+00 1.74306369e+00 1.84978187e+00 2.02764559e+00 2.27665448e+00 1.92092729e+00 1.95650005e+00 2.24108195e+00 2.16993642e+00 2.09879088e+00 1.88535452e+00 1.74306369e+00 2.45451832e+00 1.95650005e+00 1.60077274e+00 2.06321812e+00 2.16993642e+00 2.38337278e+00 2.34780002e+00 2.20550919e+00 1.92092729e+00 2.31222725e+00 2.24108195e+00 1.77863634e+00 2.34780002e+00 2.38337278e+00 2.09879088e+00 2.49009085e+00 1.92092729e+00 2.09879088e+00 1.99207270e+00 1.88535452e+00 1.81420910e+00 2.24108195e+00 2.20550919e+00 2.27665448e+00 2.45451832e+00 2.16993642e+00 1.99207270e+00 1.81420910e+00 2.31222725e+00 2.27665448e+00 2.31222725e+00 2.73909998e+00 2.41894555e+00 1.99207270e+00 1.92092729e+00 1.92092729e+00 1.67191815e+00 1.52962732e+00 2.02764559e+00 2.84581828e+00 1.42290914e+00 2.06321812e+00 1.70749092e+00 2.16993642e+00 1.88535452e+00 1.99207270e+00 1.63634551e+00 1.84978187e+00 2.24108195e+00 1.74306369e+00 1.77863634e+00 1.77863634e+00 1.56519997e+00 1.20947278e+00 1.56519997e+00 1.38733637e+00 1.99207270e+00 1.17390001e+00 1.63634551e+00 9.24890935e-01 1.06718183e+00 1.24504542e+00 1.38733637e+00 1.35176361e+00 1.06718183e+00 1.20947278e+00 9.60463643e-01 1.24504542e+00 8.18172753e-01 9.24890935e-01 9.24890935e-01 8.18172753e-01 7.82599986e-01 1.13832724e+00 7.82599986e-01 1.03160906e+00 7.82599986e-01 8.53745461e-01 7.82599986e-01 9.24890935e-01 1.03160906e+00 4.62445468e-01 7.47027278e-01 4.98018175e-01 9.96036351e-01 7.47027278e-01 7.11454570e-01 4.98018175e-01 6.04736388e-01 7.47027278e-01 5.69163620e-01 1.03160906e+00 1.10275459e+00 6.75881803e-01 3.91299993e-01 8.18172753e-01 7.47027278e-01 8.53745461e-01 8.89318168e-01 1.06718183e+00 6.75881803e-01 8.53745461e-01 5.69163620e-01 8.53745461e-01 8.89318168e-01 6.04736388e-01 5.69163620e-01 3.20154548e-01 1.06718183e-01 
      </Histogram>
    </PDF>
    <PDF Name="BDT_PDFBkg" MinNSmooth="0" MaxNSmooth="0" InterpolMethod="2" KDE_type="1" KDE_iter="1" KDE_border="1" KDE_finefactor="1.0000000000000000e+00">
      <Histogram Name="BDT_tr_B_original" NBins="816" XMin="-9.9999749660491943e-01" XMax="9.9816638231277466e-01" HasEquidistantBins="1">
        8.80526886e+01 4.54381218e+01 2.90495129e+01 1.87659740e+01 1.48877535e+01 1.08342657e+01 9.73331451e+00 8.95764351e+00 6.20528126e+00 7.03098106e+00 5.30451822e+00 5.00426388e+00 4.40375471e+00 4.27864885e+00 4.00341558e+00 3.77822471e+00 2.70230556e+00 2.97754121e+00 2.90247679e+00 2.62724137e+00 2.07677007e+00 1.90162015e+00 1.52630007e+00 1.97668445e+00 1.77651310e+00 1.22604430e+00 1.55132127e+00 1.97668445e+00 1.37617218e+00 1.27608693e+00 1.15098035e+00 1.55132127e+00 1.02587378e+00 1.12595904e+00 1.22604430e+00 1.37617218e+00 6.50554180e-01 9.25788581e-01 1.27608693e+00 1.70144916e+00 1.17600167e+00 1.22604430e+00 9.25788581e-01 9.75831211e-01 7.00596809e-01 8.00682008e-01 8.25703323e-01 5.00426292e-01 9.75831211e-01 9.50809896e-01 6.25532866e-01 8.00682008e-01 6.75575495e-01 7.50639379e-01 3.50298434e-01 5.75490236e-01 7.00596809e-01 9.25788581e-01 6.50554180e-01 4.75405008e-01 5.25447607e-01 5.50468922e-01 7.25618124e-01 6.25532866e-01 3.75319749e-01 5.25447607e-01 5.50468922e-01 5.25447607e-01 3.00255835e-01 5.75490236e-01 4.75405008e-01 4.00341064e-01 2.00170577e-01 4.00341064e-01 3.25277150e-01 5.25447607e-01 6.25532866e-01 3.25277150e-01 5.25447607e-01 3.50298434e-01 3.00255835e-01 2.50213206e-01 4.00341064e-01 2.50213206e-01 4.00341064e-01 4.25362378e-01 5.25447607e-01 3.25277150e-01 2.75234520e-01 2.75234520e-01 5.75490236e-01 1.75149262e-01 1.50127947e-01 4.00341064e-01 2.00170591e-01 4.25362378e-01 3.75319749e-01 4.25362378e-01 2.25191891e-01 4.00341064e-01 3.00255835e-01 1.75149262e-01 4.00341064e-01 1.50127947e-01 2.00170577e-01 2.00170577e-01 3.00255835e-01 2.50213239e-02 3.50298434e-01 1.50127947e-01 1.75149262e-01 2.25191891e-01 3.00255835e-01 2.00170591e-01 3.75319749e-01 3.75319749e-01 2.25191891e-01 1.75149262e-01 2.00170591e-01 3.75319749e-01 2.75234520e-01 2.00170591e-01 2.50213206e-01 3.50298434e-01 1.75149262e-01 1.50127947e-01 2.00170591e-01 1.75149262e-01 2.00170591e-01 3.25277150e-01 2.50213206e-01 4.00341064e-01 1.00085296e-01 1.25106618e-01 2.25191891e-01 2.75234520e-01 2.50213206e-01 2.50213239e-02 5.00426479e-02 2.25191891e-01 2.25191891e-01 1.25106618e-01 1.75149262e-01 3.00255835e-01 2.00170591e-01 3.50298434e-01 2.25191891e-01 7.50639737e-02 1.00085296e-01 1.75149262e-01 2.00170577e-01 1.50127947e-01 2.00170591e-01 1.25106618e-01 0.00000000e+00 1.25106618e-01 2.50213206e-01 2.00170591e-01 2.50213239e-02 1.00085296e-01 1.25106618e-01 1.00085296e-01 1.75149262e-01 5.00426479e-02 2.00170591e-01 1.25106618e-01 1.25106618e-01 1.00085296e-01 1.75149262e-01 3.00255835e-01 2.25191891e-01 1.25106618e-01 2.00170591e-01 1.25106618e-01 1.25106618e-01 1.50127947e-01 1.75149262e-01 1.25106618e-01 1.25106618e-01 2.00170591e-01 7.50639737e-02 1.50127947e-01 0.00000000e+00 1.00085296e-01 1.50127947e-01 1.75149262e-01 1.50127947e-01 7.50639737e-02 1.50127947e-01 5.00426479e-02 1.50127947e-01 7.50639737e-02 -2.50213239e-02 5.00426479e-02 1.00085296e-01 1.00085296e-01 2.50213206e-01 2.25191891e-01 0.00000000e+00 2.00170577e-01 7.50639737e-02 1.50127947e-01 1.75149262e-01 1.25106618e-01 1.75149262e-01 7.50639737e-02 1.50127947e-01 1.00085296e-01 1.00085296e-01 -5.00426479e-02 7.50639737e-02 5.00426479e-02 1.50127947e-01 7.50639737e-02 0.00000000e+00 1.25106618e-01 7.50639737e-02 1.00085296e-01 1.50127947e-01 -1.25106618e-01 2.25191891e-01 1.00085296e-01 2.50213206e-01 1.25106618e-01 1.50127947e-01 1.75149262e-01 2.00170577e-01 2.00170591e-01 7.50639737e-02 1.50127947e-01 7.50639737e-02 1.50127947e-01 1.75149262e-01 1.50127947e-01 7.50639737e-02 1.50127947e-01 2.25191891e-01 1.50127947e-01 1.25106618e-01 1.25106618e-01 1.50127947e-01 1.50127947e-01 1.25106618e-01 5.00426479e-02 5.00426479e-02 1.00085296e-01 1.25106618e-01 7.50639737e-02 7.50639737e-02 2.25191891e-01 1.00085296e-01 2.25191891e-01 1.50127947e-01 1.00085296e-01 7.50639737e-02 1.25106618e-01 1.00085296e-01 5.00426479e-02 7.50639737e-02 1.50127947e-01 1.25106618e-01 2.25191891e-01 2.50213239e-02 1.00085296e-01 2.50213239e-02 2.50213239e-02 0.00000000e+00 7.50639737e-02 1.00085296e-01 1.75149262e-01 1.50127947e-01 1.00085296e-01 2.50213239e-02 1.25106618e-01 5.00426479e-02 7.50639737e-02 1.25106618e-01 5.00426479e-02 1.25106618e-01 1.00085296e-01 7.50639737e-02 1.50127947e-01 1.25106618e-01 1.00085296e-01 1.00085296e-01 5.00426479e-02 1.75149262e-01 2.50213239e-02 1.50127947e-01 5.00426479e-02 7.50639737e-02 5.00426479e-02 1.00085296e-01 7.50639737e-02 2.50213239e-02 1.00085296e-01 7.50639737e-02 5.00426479e-02 1.75149262e-01 0.00000000e+00 1.00085296e-01 7.50639737e-02 5.00426479e-02 1.00085296e-01 5.00426479e-02 2.50213239e-02 5.00426479e-02 1.25106618e-01 7.50639737e-02 7.50639737e-02 1.25106618e-01 2.50213239e-02 1.00085296e-01 2.50213239e-02 5.00426479e-02 1.00085296e-01 1.50127947e-01 1.75149262e-01 2.50213239e-02 5.00426479e-02 0.00000000e+00 2.50213206e-01 2.50213239e-02 5.00426479e-02 7.50639737e-02 2.50213239e-02 1.00085296e-01 2.25191891e-01 -2.50213239e-02 7.50639737e-02 1.00085296e-01 5.00426479e-02 1.00085296e-01 1.00085296e-01 1.75149262e-01 7.50639737e-02 7.50639737e-02 1.50127947e-01 7.50639737e-02 1.50127947e-01 5.00426479e-02 7.50639737e-02 7.50639737e-02 2.00170591e-01 5.00426479e-02 5.00426479e-02 1.50127947e-01 1.25106618e-01 1.00085296e-01 5.00426479e-02 7.50639737e-02 1.50127947e-01 5.00426479e-02 1.50127947e-01 -2.50213239e-02 5.00426479e-02 5.00426479e-02 5.00426479e-02 7.50639737e-02 1.00085296e-01 1.25106618e-01 2.50213239e-02 0.00000000e+00 1.00085296e-01 7.50639737e-02 1.25106618e-01 -5.00426479e-02 1.00085296e-01 1.75149262e-01 1.00085296e-01 7.50639737e-02 1.50127947e-01 2.50213239e-02 2.00170591e-01 1.00085296e-01 7.50639737e-02 2.50213239e-02 1.00085296e-01 1.50127947e-01 1.25106618e-01 5.00426479e-02 7.50639737e-02 7.50639737e-02 1.75149262e-01 1.00085296e-01 5.00426479e-02 5.00426479e-02 0.00000000e+00 5.00426479e-02 0.00000000e+00 0.00000000e+00 7.50639737e-02 0.00000000e+00 1.00085296e-01 7.50639737e-02 7.50639737e-02 7.50639737e-02 7.50639737e-02 1.75149262e-01 2.50213239e-02 2.50213239e-02 2.50213239e-02 1.75149262e-01 1.25106618e-01 -2.50213239e-02 2.00170591e-01 0.00000000e+00 5.00426479e-02 1.00085296e-01 2.00170591e-01 7.50639737e-02 0.00000000e+00 2.25191891e-01 2.50213239e-02 5.00426479e-02 2.50213239e-02 1.00085296e-01 1.50127947e-01 1.75149262e-01 5.00426479e-02 7.50639737e-02 2.50213239e-02 1.00085296e-01 1.00085296e-01 -2.50213239e-02 5.00426479e-02 0.00000000e+00 -2.50213239e-02 0.00000000e+00 7.50639737e-02 7.50639737e-02 1.00085296e-01 5.00426479e-02 2.25191891e-01 1.00085296e-01 5.00426479e-02 7.50639737e-02 7.50639737e-02 5.00426479e-02 2.50213239e-02 1.25106618e-01 -2.50213239e-02 5.00426479e-02 5.00426479e-02 5.00426479e-02 -2.50213239e-02 5.00426479e-02 2.00170591e-01 1.00085296e-01 2.50213239e-02 1.25106618e-01 -2.50213239e-02 2.50213239e-02 2.50213239e-02 1.25106618e-01 -2.50213239e-02 2.50213239e-02 1.25106618e-01 -5.00426479e-02 7.50639737e-02 0.00000000e+00 2.50213239e-02 0.00000000e+00 5.00426479e-02 5.00426479e-02 1.75149262e-01 5.00426479e-02 -2.50213239e-02 7.50639737e-02 5.00426479e-02 1.00085296e-01 7.50639737e-02 0.00000000e+00 2.50213239e-02 0.00000000e+00 1.25106618e-01 7.50639737e-02 2.50213239e-02 -5.00426479e-02 7.50639737e-02 7.50639737e-02 1.25106618e-01 1.50127947e-01 1.00085296e-01 0.00000000e+00 5.00426479e-02 1.00085296e-01 0.00000000e+00 1.00085296e-01 1.00085296e-01 5.00426479e-02 1.75149262e-01 7.50639737e-02 -2.50213239e-02 7.50639737e-02 7.50639737e-02 0.00000000e+00 2.00170591e-01 1.00085296e-01 1.00085296e-01 -2.50213239e-02 1.00085296e-01 5.00426479e-02 1.75149262e-01 5.00426479e-02 7.50639737e-02 0.00000000e+00 1.00085296e-01 1.00085296e-01 -2.50213239e-02 1.25106618e-01 1.75149262e-01 -2.50213239e-02 1.00085296e-01 1.50127947e-01 1.25106618e-01 7.50639737e-02 1.00085296e-01 1.00085296e-01 1.25106618e-01 0.00000000e+00 1.00085296e-01 2.50213239e-02 0.00000000e+00 7.50639737e-02 1.00085296e-01 5.00426479e-02 7.50639737e-02 2.50213239e-02 7.50639737e-02 1.00085296e-01 1.50127947e-01 7.50639737e-02 1.50127947e-01 1.00085296e-01 1.00085296e-01 2.50213239e-02 1.50127947e-01 2.50213239e-02 7.50639737e-02 1.25106618e-01 1.50127947e-01 1.25106618e-01 2.50213239e-02 1.25106618e-01 2.25191891e-01 1.00085296e-01 1.50127947e-01 5.00426479e-02 7.50639737e-02 5.00426479e-02 1.00085296e-01 1.75149262e-01 2.50213239e-02 5.00426479e-02 2.00170591e-01 5.00426479e-02 1.50127947e-01 1.25106618e-01 1.75149262e-01 5.00426479e-02 1.00085296e-01 1.50127947e-01 1.50127947e-01 5.00426479e-02 3.00255835e-01 1.50127947e-01 7.50639737e-02 5.00426479e-02 2.00170591e-01 1.00085296e-01 2.50213206e-01 2.50213239e-02 7.50639737e-02 1.00085296e-01 7.50639737e-02 2.25191891e-01 -2.50213239e-02 7.50639737e-02 2.00170591e-01 2.50213239e-02 7.50639737e-02 1.50127947e-01 7.50639737e-02 5.00426479e-02 2.25191891e-01 0.00000000e+00 -2.50213239e-02 2.50213239e-02 1.25106618e-01 1.00085296e-01 7.50639737e-02 5.00426479e-02 2.50213239e-02 5.00426479e-02 2.00170591e-01 1.00085296e-01 1.50127947e-01 1.25106618e-01 1.00085296e-01 2.50213206e-01 1.50127947e-01 1.75149262e-01 1.00085296e-01 5.00426479e-02 2.00170591e-01 5.00426479e-02 7.50639737e-02 2.50213239e-02 5.00426479e-02 0.00000000e+00 2.25191891e-01 5.00426479e-02 -5.00426479e-02 2.50213239e-02 1.25106618e-01 1.00085296e-01 1.00085296e-01 7.50639737e-02 1.25106618e-01 0.00000000e+00 1.50127947e-01 0.00000000e+00 2.00170591e-01 1.75149262e-01 7.50639737e-02 7.50639737e-02 7.50639737e-02 1.50127947e-01 1.75149262e-01 1.50127947e-01 7.50639737e-02 1.25106618e-01 1.75149262e-01 1.25106618e-01 1.00085296e-01 2.50213239e-02 1.50127947e-01 2.50213239e-02 1.50127947e-01 5.00426479e-02 1.25106618e-01 2.00170591e-01 0.00000000e+00 1.50127947e-01 1.00085296e-01 1.00085296e-01 1.75149262e-01 2.00170591e-01 1.25106618e-01 2.50213239e-02 1.25106618e-01 1.00085296e-01 0.00000000e+00 1.25106618e-01 7.50639737e-02 5.00426479e-02 2.00170591e-01 2.50213239e-02 1.75149262e-01 7.50639737e-02 2.50213239e-02 5.00426479e-02 2.25191891e-01 1.00085296e-01 1.75149262e-01 1.00085296e-01 1.00085296e-01 3.50298434e-01 2.50213206e-01 2.50213206e-01 7.50639737e-02 5.00426479e-02 7.50639737e-02 2.50213239e-02 7.50639737e-02 -5.00426479e-02 1.25106618e-01 3.00255835e-01 -2.50213239e-02 1.00085296e-01 1.00085296e-01 1.50127947e-01 1.00085296e-01 1.25106618e-01 1.25106618e-01 1.50127947e-01 2.00170591e-01 5.00426479e-02 1.50127947e-01 1.50127947e-01 1.00085296e-01 1.25106618e-01 1.00085296e-01 2.50213239e-02 5.00426479e-02 1.00085296e-01 2.00170577e-01 5.00426479e-02 7.50639737e-02 1.25106618e-01 1.00085296e-01 7.50639737e-02 1.00085296e-01 7.50639737e-02 1.00085296e-01 1.50127947e-01 0.00000000e+00 1.00085296e-01 2.50213239e-02 1.75149262e-01 2.50213239e-02 5.00426479e-02 1.75149262e-01 2.50213239e-02 2.25191891e-01 1.75149262e-01 2.25191891e-01 1.25106618e-01 1.75149262e-01 0.00000000e+00 1.25106618e-01 1.25106618e-01 1.25106618e-01 2.25191891e-01 1.00085296e-01 1.00085296e-01 2.50213239e-02 1.50127947e-01 2.75234520e-01 -2.50213239e-02 7.50639737e-02 2.50213239e-02 7.50639737e-02 7.50639737e-02 5.00426479e-02 0.00000000e+00 1.00085296e-01 0.00000000e+00 2.50213239e-02 -2.50213239e-02 2.50213239e-02 -2.50213239e-02 1.00085296e-01 2.25191891e-01 1.25106618e-01 -5.00426479e-02 2.50213239e-02 -2.50213239e-02 5.00426479e-02 2.50213239e-02 0.00000000e+00 5.00426479e-02 7.50639737e-02 5.00426479e-02 -2.50213239e-02 7.50639737e-02 5.00426479e-02 5.00426479e-02 1.25106618e-01 -2.50213239e-02 -2.50213239e-02 1.50127947e-01 2.50213239e-02 5.00426479e-02 0.00000000e+00 7.50639737e-02 -2.50213239e-02 0.00000000e+00 -2.50213239e-02 1.75149262e-01 5.00426479e-02 0.00000000e+00 1.00085296e-01 5.00426479e-02 1.50127947e-01 5.00426479e-02 0.00000000e+00 2.50213239e-02 1.50127947e-01 2.50213239e-02 5.00426479e-02 2.50213239e-02 0.00000000e+00 -2.50213239e-02 1.50127947e-01 -2.50213239e-02 -2.50213239e-02 7.50639737e-02 7.50639737e-02 2.50213239e-02 1.00085296e-01 2.50213239e-02 1.00085296e-01 1.25106618e-01 5.00426479e-02 7.50639737e-02 5.00426479e-02 0.00000000e+00 1.25106618e-01 2.50213239e-02 7.50639737e-02 1.00085296e-01 1.25106618e-01 0.00000000e+00 7.50639737e-02 2.00170591e-01 1.00085296e-01 2.50213239e-02 2.50213239e-02 2.50213239e-02 7.50639737e-02 5.00426479e-02 2.50213239e-02 7.50639737e-02 2.50213239e-02 
      </Histogram>
    </PDF>
  </MVAPdfs>
  <Weights NTrees="2000" AnalysisType="1">
    <BinaryTree type="DecisionTree" boostWeight="1.0000000000000000e+00" itree="0">
      <Node pos="s" depth="0" NCoef="0" IVar="10" Cut="6.8258114159107208e-02" cType="0" res="-2.1714207530021667e-01" rms="4.5038795471191406e-01" purity="2.8285792469978333e-01" nType="0">
        <Node pos="l" depth="1" NCoef="0" IVar="-1" Cut="0.0000000000000000e+00" cType="1" res="1.2576510198414326e-02" rms="4.9299418926239014e-01" purity="5.8340710401535034e-01" nType="-99"/>
        <Node pos="r" depth="1" NCoef="0" IVar="15" Cut="8.7642490863800049e-01" cType="0" res="-3.8426223397254944e-01" rms="3.1991019845008850e-01" purity="1.1573777347803116e-01" nType="0">
          <Node pos="l" depth="2" NCoef="0" IVar="-1" Cut="0.0000000000000000e+00" cType="1" res="-2.0263874903321266e-02" rms="4.7596123814582825e-01" purity="3.4683051705360413e-01" nType="-99"/>
          <Node pos="r" depth="2" NCoef="0" IVar="-1" Cut="0.0000000000000000e+00" cType="1" res="-5.4778955876827240e-02" rms="1.2017914652824402e-01" purity="1.4657881110906601e-02" nType="-99"/>
        </Node>
      </Node>
    </BinaryTree>
    <BinaryTree type="DecisionTree" boostWeight="1.0000000000000000e+00" itree="1">
      <Node pos="s" depth="0" NCoef="0" IVar="10" Cut="6.8258114159107208e-02" cType="0" res="-2.0517447590827942e-01" rms="4.4205862283706665e-01" purity="2.8285792469978333e-01" nType="0">
        <Node pos="l" depth="1" NCoef="0" IVar="-1" Cut="0.0000000000000000e+00" cType="1" res="1.1630225926637650e-02" rms="4.9299418926239014e-01" purity="5.8340710401535034e-01" nType="-99"/>
        <Node pos="r" depth="1" NCoef="0" IVar="15" Cut="8.7642490863800049e-01" cType="0" res="-3.6214366555213928e-01" rms="3.1619915366172791e-01" purity="1.1573777347803116e-01" nType="0">
          <Node pos="l" depth="2" NCoef="0" IVar="-1" Cut="0.0000000000000000e+00" cType="1" res="-1.8931403756141663e-02" rms="4.7596123814582825e-01" purity="3.4683051705360413e-01" nType="-99"/>
          <Node pos="r" depth="2" NCoef="0" IVar="-1" Cut="0.0000000000000000e+00" cType="1" res="-5.1845949143171310e-02" rms="1.2017914652824402e-01" purity="1.4657881110906601e-02" nType="-99"/>
        </Node>
      </Node>
    </BinaryTree>
    <BinaryTree type="DecisionTree" boostWeight="1.0000000000000000e+00" itree="2">
      <Node pos="s" depth="0" NCoef="0" IVar="10" Cut="7.6174028217792511e-02" cType="0" res="-1.9389000535011292e-01" rms="4.3456962704658508e-01" purity="2.8285792469978333e-01" nType="0">
        <Node pos="l" depth="1" NCoef="0" IVar="-1" Cut="0.0000000000000000e+00" cType="1" res="1.2151537463068962e-02" rms="4.9142131209373474e-01" purity="5.9222304821014404e-01" nType="-99"/>
        <Node pos="r" depth="1" NCoef="0" IVar="15" Cut="8.7642490863800049e-01" cType="0" res="-3.3686423301696777e-01" rms="3.1900432705879211e-01" purity="1.2143718451261520e-01" nType="0">
          <Node pos="l" depth="2" NCoef="0" IVar="-1" Cut="0.0000000000000000e+00" cType="1" res="-1.6742736101150513e-02" rms="4.7830611467361450e-01" purity="3.5610336065292358e-01" nType="-99"/>
          <Node pos="r" depth="2" NCoef="0" IVar="-1" Cut="0.0000000000000000e+00" cType="1" res="-4.9379233270883560e-02" rms="1.2188309431076050e-01" purity="1.5091734007000923e-02" nType="-99"/>
        </Node>
      </Node>
    </BinaryTree>
    <BinaryTree type="DecisionTree" boostWeight="1.0000000000000000e+00" itree="3">
      <Node pos="s" depth="0" NCoef="0" IVar="10" Cut="6.0342200100421906e-02" cType="0" res="-1.8328523635864258e-01" rms="4.2765203118324280e-01" purity="2.8285792469978333e-01" nType="0">
        <Node pos="l" depth="1" NCoef="0" IVar="-1" Cut="0.0000000000000000e+00" cType="1" res="8.4185656160116196e-03" rms="4.9253261089324951e-01" purity="5.7005596160888672e-01" nType="-99"/>
        <Node pos="r" depth="1" NCoef="0" IVar="15" Cut="8.7642490863800049e-01" cType="0" res="-3.2812657952308655e-01" rms="3.0184704065322876e-01" purity="1.0913066565990448e-01" nType="0">
          <Node pos="l" depth="2" NCoef="0" IVar="-1" Cut="0.0000000000000000e+00" cType="1" res="-1.8042333424091339e-02" rms="4.7209376096725464e-01" purity="3.3529582619667053e-01" nType="-99"/>
          <Node pos="r" depth="2" NCoef="0" IVar="-1" Cut="0.0000000000000000e+00" cType="1" res="-4.7234043478965759e-02" rms="1.1766036599874496e-01" purity="1.4041113667190075e-02" nType="-99"/>
        </Node>
      </Node>
    </BinaryTree>
    <BinaryTree type="DecisionTree" boostWeight="1.0000000000000000e+00" itree="4">
      <Node pos="s" depth="0" NCoef="0" IVar="10" Cut="7.7163517475128174e-02" cType="0" res="-1.7318075895309448e-01" rms="4.2179441452026367e-01" purity="2.8285792469978333e-01" nType="0">
        <Node pos="l" depth="1" NCoef="0" IVar="-1" Cut="0.0000000000000000e+00" cType="1" res="1.0763213969767094e-02" rms="4.9123701453208923e-01" purity="5.9319984912872314e-01" nType="-99"/>
        <Node pos="r" depth="1" NCoef="0" IVar="15" Cut="8.6799049377441406e-01" cType="0" res="-2.9950201511383057e-01" rms="3.1353884935379028e-01" purity="1.2219548970460892e-01" nType="0">
          <Node pos="l" depth="2" NCoef="0" IVar="-1" Cut="0.0000000000000000e+00" cType="1" res="-1.5030418522655964e-02" rms="4.7593685984611511e-01" purity="3.5202190279960632e-01" nType="-99"/>
          <Node pos="r" depth="2" NCoef="0" IVar="-1" Cut="0.0000000000000000e+00" cType="1" res="-4.5546982437372208e-02" rms="1.1568444222211838e-01" purity="1.3546750880777836e-02" nType="-99"/>
        </Node>
      </Node>
    </BinaryTree>
    <BinaryTree type="DecisionTree" boostWeight="1.0000000000000000e+00" itree="5">
      <Node pos="s" depth="0" NCoef="0" IVar="10" Cut="6.0342200100421906e-02" cType="0" res="-1.6373959183692932e-01" rms="4.1615942120552063e-01" purity="2.8285792469978333e-01" nType="0">
        <Node pos="l" depth="1" NCoef="0" IVar="-1" Cut="0.0000000000000000e+00" cType="1" res="7.2623793967068195e-03" rms="4.9161142110824585e-01" purity="5.7005596160888672e-01" nType="-99"/>
        <Node pos="r" depth="1" NCoef="0" IVar="15" Cut="8.8485932350158691e-01" cType="0" res="-2.9203340411186218e-01" rms="2.9679593443870544e-01" purity="1.0913066565990448e-01" nType="0">
          <Node pos="l" depth="2" NCoef="0" IVar="-1" Cut="0.0000000000000000e+00" cType="1" res="-1.5409224666655064e-02" rms="4.7358152270317078e-01" purity="3.3962371945381165e-01" nType="-99"/>
          <Node pos="r" depth="2" NCoef="0" IVar="-1" Cut="0.0000000000000000e+00" cType="1" res="-4.3523956090211868e-02" rms="1.2647889554500580e-01" purity="1.6622826457023621e-02" nType="-99"/>
        </Node>
      </Node>
    </BinaryTree>
    <BinaryTree type="DecisionTree" boostWeight="1.0000000000000000e+00" itree="6">
      <Node pos="s" depth="0" NCoef="0" IVar="0" Cut="1.1296776123344898e-02" cType="1" res="-1.5473154187202454e-01" rms="4.1142907738685608e-01" purity="2.8285792469978333e-01" nType="0">
        <Node pos="l" depth="1" NCoef="0" IVar="-1" Cut="0.0000000000000000e+00" cType="1" res="7.4515533633530140e-03" rms="4.6895840764045715e-01" purity="5.2258086204528809e-01" nType="-99"/>
        <Node pos="r" depth="1" NCoef="0" IVar="10" Cut="1.0289024561643600e-01" cType="0" res="-2.7974763512611389e-01" rms="3.1163945794105530e-01" purity="1.3637879490852356e-01" nType="0">
          <Node pos="l" depth="2" NCoef="0" IVar="-1" Cut="0.0000000000000000e+00" cType="1" res="-1.0510447435081005e-02" rms="4.9812453985214233e-01" purity="4.5673406124114990e-01" nType="-99"/>
          <Node pos="r" depth="2" NCoef="0" IVar="-1" Cut="0.0000000000000000e+00" cType="1" res="-4.1309494525194168e-02" rms="1.9714230298995972e-01" purity="4.5361474156379700e-02" nType="-99"/>
        </Node>
      </Node>
    </BinaryTree>
    <BinaryTree type="DecisionTree" boostWeight="1.0000000000000000e+00" itree="7">
      <Node pos="s" depth="0" NCoef="0" IVar="0" Cut="1.1219576932489872e-02" cType="1" res="-1.4613090455532074e-01" rms="4.0686863660812378e-01" purity="2.8285792469978333e-01" nType="0">
        <Node pos="l" depth="1" NCoef="0" IVar="-1" Cut="0.0000000000000000e+00" cType="1" res="7.4830530211329460e-03" rms="4.6899610757827759e-01" purity="5.2691859006881714e-01" nType="-99"/>
        <Node pos="r" depth="1" NCoef="0" IVar="10" Cut="1.0289024561643600e-01" cType="0" res="-2.6139062643051147e-01" rms="3.1252831220626831e-01" purity="1.3944253325462341e-01" nType="0">
          <Node pos="l" depth="2" NCoef="0" IVar="-1" Cut="0.0000000000000000e+00" cType="1" res="-9.2613436281681061e-03" rms="4.9838164448738098e-01" purity="4.6063834428787231e-01" nType="-99"/>
          <Node pos="r" depth="2" NCoef="0" IVar="-1" Cut="0.0000000000000000e+00" cType="1" res="-3.9649132639169693e-02" rms="2.0047667622566223e-01" purity="4.7132778912782669e-02" nType="-99"/>
        </Node>
      </Node>
    </BinaryTree>
    <BinaryTree type="DecisionTree" boostWeight="1.0000000000000000e+00" itree="8">
      <Node pos="s" depth="0" NCoef="0" IVar="10" Cut="7.7163517475128174e-02" cType="0" res="-1.3802574574947357e-01" rms="4.0274316072463989e-01" purity="2.8285792469978333e-01" nType="0">
        <Node pos="l" depth="1" NCoef="0" IVar="-1" Cut="0.0000000000000000e+00" cType="1" res="9.6172681078314781e-03" rms="4.8818480968475342e-01" purity="5.9319984912872314e-01" nType="-99"/>
        <Node pos="r" depth="1" NCoef="0" IVar="15" Cut="8.7642490863800049e-01" cType="0" res="-2.4218019843101501e-01" rms="3.0164718627929688e-01" purity="1.2219548970460892e-01" nType="0">
          <Node pos="l" depth="2" NCoef="0" IVar="-1" Cut="0.0000000000000000e+00" cType="1" res="-1.0746212676167488e-02" rms="4.6913674473762512e-01" purity="3.5696601867675781e-01" nType="-99"/>
          <Node pos="r" depth="2" NCoef="0" IVar="-1" Cut="0.0000000000000000e+00" cType="1" res="-4.0395069867372513e-02" rms="1.2043795734643936e-01" purity="1.5187239274382591e-02" nType="-99"/>
        </Node>
      </Node>
    </BinaryTree>
    <BinaryTree type="DecisionTree" boostWeight="1.0000000000000000e+00" itree="9">
      <Node pos="s" depth="0" NCoef="0" IVar="0" Cut="1.0936514474451542e-02" cType="1" res="-1.3059733808040619e-01" rms="3.9866119623184204e-01" purity="2.8285792469978333e-01" nType="0">
        <Node pos="l" depth="1" NCoef="0" IVar="-1" Cut="0.0000000000000000e+00" cType="1" res="9.6164755523204803e-03" rms="4.6581929922103882e-01" purity="5.4333412647247314e-01" nType="-99"/>
        <Node pos="r" depth="1" NCoef="0" IVar="10" Cut="1.1773258447647095e-01" cType="0" res="-2.2912633419036865e-01" rms="3.1720674037933350e-01" purity="1.5054078400135040e-01" nType="0">
          <Node pos="l" depth="2" NCoef="0" IVar="-1" Cut="0.0000000000000000e+00" cType="1" res="-6.7403744906187057e-03" rms="4.9910303950309753e-01" purity="4.8058721423149109e-01" nType="-99"/>
          <Node pos="r" depth="2" NCoef="0" IVar="-1" Cut="0.0000000000000000e+00" cType="1" res="-3.6729011684656143e-02" rms="2.1497809886932373e-01" purity="5.6519303470849991e-02" nType="-99"/>
        </Node>
      </Node>
    </BinaryTree>
    <BinaryTree type="DecisionTree" boostWeight="1.0000000000000000e+00" itree="10">
      <Node pos="s" depth="0" NCoef="0" IVar="10" Cut="6.0342200100421906e-02" cType="0" res="-1.2342610955238342e-01" rms="3.9500173926353455e-01" purity="2.8285792469978333e-01" nType="0">
        <Node pos="l" depth="1" NCoef="0" IVar="-1" Cut="0.0000000000000000e+00" cType="1" res="6.8277879618108273e-03" rms="4.8482105135917664e-01" purity="5.7005596160888672e-01" nType="-99"/>
        <Node pos="r" depth="1" NCoef="0" IVar="15" Cut="8.8654619455337524e-01" cType="0" res="-2.2543910145759583e-01" rms="2.8392487764358521e-01" purity="1.0913066565990448e-01" nType="0">
          <Node pos="l" depth="2" NCoef="0" IVar="-1" Cut="0.0000000000000000e+00" cType="1" res="-1.0720944963395596e-02" rms="4.6181011199951172e-01" purity="3.4038931131362915e-01" nType="-99"/>
          <Node pos="r" depth="2" NCoef="0" IVar="-1" Cut="0.0000000000000000e+00" cType="1" res="-3.8255318999290466e-02" rms="1.2592966854572296e-01" purity="1.7133563756942749e-02" nType="-99"/>
        </Node>
      </Node>
    </BinaryTree>
    <BinaryTree type="DecisionTree" boostWeight="1.0000000000000000e+00" itree="11">
      <Node pos="s" depth="0" NCoef="0" IVar="0" Cut="1.1850034818053246e-02" cType="1" res="-1.1673957109451294e-01" rms="3.9179435372352600e-01" purity="2.8285792469978333e-01" nType="0">
        <Node pos="l" depth="1" NCoef="0" IVar="-1" Cut="0.0000000000000000e+00" cType="1" res="4.1102846153080463e-03" rms="4.5636111497879028e-01" purity="4.9124330282211304e-01" nType="-99"/>
        <Node pos="r" depth="1" NCoef="0" IVar="2" Cut="2.2158613801002502e-01" cType="1" res="-2.3037949204444885e-01" rms="2.8463593125343323e-01" purity="1.1846733838319778e-01" nType="0">
          <Node pos="l" depth="2" NCoef="0" IVar="-1" Cut="0.0000000000000000e+00" cType="1" res="-1.3437995687127113e-02" rms="4.1358596086502075e-01" purity="3.0843260884284973e-01" nType="-99"/>
          <Node pos="r" depth="2" NCoef="0" IVar="-1" Cut="0.0000000000000000e+00" cType="1" res="-3.6353453993797302e-02" rms="2.2388489544391632e-01" purity="6.6949799656867981e-02" nType="-99"/>
        </Node>
      </Node>
    </BinaryTree>
    <BinaryTree type="DecisionTree" boostWeight="1.0000000000000000e+00" itree="12">
      <Node pos="s" depth="0" NCoef="0" IVar="15" Cut="8.2930749654769897e-01" cType="0" res="-1.1013039946556091e-01" rms="3.8902071118354797e-01" purity="2.8285792469978333e-01" nType="0">
        <Node pos="l" depth="1" NCoef="0" IVar="-1" Cut="0.0000000000000000e+00" cType="1" res="1.0833044070750475e-03" rms="4.7056654095649719e-01" purity="4.7932437062263489e-01" nType="-99"/>
        <Node pos="r" depth="1" NCoef="0" IVar="10" Cut="4.2926588654518127e-01" cType="0" res="-2.3634554445743561e-01" rms="2.1278256177902222e-01" purity="7.1800805628299713e-02" nType="0">
          <Node pos="l" depth="2" NCoef="0" IVar="-1" Cut="0.0000000000000000e+00" cType="1" res="2.0306687802076340e-02" rms="4.6684274077415466e-01" purity="6.6120392084121704e-01" nType="-99"/>
          <Node pos="r" depth="2" NCoef="0" IVar="-1" Cut="0.0000000000000000e+00" cType="1" res="-3.7514634430408478e-02" rms="1.3789662718772888e-01" purity="2.2858433425426483e-02" nType="-99"/>
        </Node>
      </Node>
    </BinaryTree>
    <BinaryTree type="DecisionTree" boostWeight="1.0000000000000000e+00" itree="13">
      <Node pos="s" depth="0" NCoef="0" IVar="0" Cut="1.0936514474451542e-02" cType="1" res="-1.0414757579565048e-01" rms="3.8609924912452698e-01" purity="2.8285792469978333e-01" nType="0">
        <Node pos="l" depth="1" NCoef="0" IVar="-1" Cut="0.0000000000000000e+00" cType="1" res="9.4924829900264740e-03" rms="4.6034905314445496e-01" purity="5.4333412647247314e-01" nType="-99"/>
        <Node pos="r" depth="1" NCoef="0" IVar="10" Cut="1.3851186633110046e-01" cType="0" res="-1.8849064409732819e-01" rms="3.0988544225692749e-01" purity="1.5054078400135040e-01" nType="0">
          <Node pos="l" depth="2" NCoef="0" IVar="-1" Cut="0.0000000000000000e+00" cType="1" res="-4.6656499616801739e-03" rms="4.9600553512573242e-01" purity="4.8559021949768066e-01" nType="-99"/>
          <Node pos="r" depth="2" NCoef="0" IVar="-1" Cut="0.0000000000000000e+00" cType="1" res="-3.3100519329309464e-02" rms="2.1847040951251984e-01" purity="6.1014857143163681e-02" nType="-99"/>
        </Node>
      </Node>
    </BinaryTree>
    <BinaryTree type="DecisionTree" boostWeight="1.0000000000000000e+00" itree="14">
      <Node pos="s" depth="0" NCoef="0" IVar="10" Cut="5.5394753813743591e-02" cType="0" res="-9.8488859832286835e-02" rms="3.8335606455802917e-01" purity="2.8285792469978333e-01" nType="0">
        <Node pos="l" depth="1" NCoef="0" IVar="-1" Cut="0.0000000000000000e+00" cType="1" res="6.3669439405202866e-03" rms="4.7650483250617981e-01" purity="5.5758768320083618e-01" nType="-99"/>
        <Node pos="r" depth="1" NCoef="0" IVar="15" Cut="8.5955601930618286e-01" cType="0" res="-1.8951684236526489e-01" rms="2.7200588583946228e-01" purity="1.0483381152153015e-01" nType="0">
          <Node pos="l" depth="2" NCoef="0" IVar="-1" Cut="0.0000000000000000e+00" cType="1" res="-1.0818997398018837e-02" rms="4.4599011540412903e-01" purity="3.1718692183494568e-01" nType="-99"/>
          <Node pos="r" depth="2" NCoef="0" IVar="-1" Cut="0.0000000000000000e+00" cType="1" res="-3.6098122596740723e-02" rms="1.0477993637323380e-01" purity="1.1175265535712242e-02" nType="-99"/>
        </Node>
      </Node>
    </BinaryTree>
    <BinaryTree type="DecisionTree" boostWeight="1.0000000000000000e+00" itree="15">
      <Node pos="s" depth="0" NCoef="0" IVar="0" Cut="1.1978699825704098e-02" cType="1" res="-9.3206785619258881e-02" rms="3.8097652792930603e-01" purity="2.8285792469978333e-01" nType="0">
        <Node pos="l" depth="1" NCoef="0" IVar="-1" Cut="0.0000000000000000e+00" cType="1" res="4.1257143020629883e-03" rms="4.4842132925987244e-01" purity="4.8457035422325134e-01" nType="-99"/>
        <Node pos="r" depth="1" NCoef="0" IVar="2" Cut="2.2158613801002502e-01" cType="1" res="-1.9377124309539795e-01" rms="2.7590510249137878e-01" purity="1.1401002854108810e-01" nType="0">
          <Node pos="l" depth="2" NCoef="0" IVar="-1" Cut="0.0000000000000000e+00" cType="1" res="-1.1103094555437565e-02" rms="4.0630626678466797e-01" purity="3.0306175351142883e-01" nType="-99"/>
          <Node pos="r" depth="2" NCoef="0" IVar="-1" Cut="0.0000000000000000e+00" cType="1" res="-3.3686775714159012e-02" rms="2.1926775574684143e-01" purity="6.4529679715633392e-02" nType="-99"/>
        </Node>
      </Node>
    </BinaryTree>
    <BinaryTree type="DecisionTree" boostWeight="1.0000000000000000e+00" itree="16">
      <Node pos="s" depth="0" NCoef="0" IVar="10" Cut="9.3984842300415039e-02" cType="0" res="-8.7970584630966187e-02" rms="3.7884479761123657e-01" purity="2.8285792469978333e-01" nType="0">
        <Node pos="l" depth="1" NCoef="0" IVar="-1" Cut="0.0000000000000000e+00" cType="1" res="1.0154126212000847e-02" rms="4.7924044728279114e-01" purity="6.0240322351455688e-01" nType="-99"/>
        <Node pos="r" depth="1" NCoef="0" IVar="15" Cut="8.8654619455337524e-01" cType="0" res="-1.6025216877460480e-01" rms="2.9449009895324707e-01" purity="1.3283264636993408e-01" nType="0">
          <Node pos="l" depth="2" NCoef="0" IVar="-1" Cut="0.0000000000000000e+00" cType="1" res="-4.7109494917094707e-03" rms="4.6024298667907715e-01" purity="3.7778532505035400e-01" nType="-99"/>
          <Node pos="r" depth="2" NCoef="0" IVar="-1" Cut="0.0000000000000000e+00" cType="1" res="-3.4578651189804077e-02" rms="1.3624903559684753e-01" purity="2.0539583638310432e-02" nType="-99"/>
        </Node>
      </Node>
    </BinaryTree>
    <BinaryTree type="DecisionTree" boostWeight="1.0000000000000000e+00" itree="17">
      <Node pos="s" depth="0" NCoef="0" IVar="0" Cut="1.0627718642354012e-02" cType="1" res="-8.3419039845466614e-02" rms="3.7635979056358337e-01" purity="2.8285792469978333e-01" nType="0">
        <Node pos="l" depth="1" NCoef="0" IVar="-1" Cut="0.0000000000000000e+00" cType="1" res="1.1521860025823116e-02" rms="4.5561507344245911e-01" purity="5.6115382909774780e-01" nType="-99"/>
        <Node pos="r" depth="1" NCoef="0" IVar="10" Cut="9.3984842300415039e-02" cType="0" res="-1.5040104091167450e-01" rms="3.1386312842369080e-01" purity="1.6411243379116058e-01" nType="0">
          <Node pos="l" depth="2" NCoef="0" IVar="-1" Cut="0.0000000000000000e+00" cType="1" res="-3.7250120658427477e-03" rms="4.9226248264312744e-01" purity="4.9143680930137634e-01" nType="-99"/>
          <Node pos="r" depth="2" NCoef="0" IVar="-1" Cut="0.0000000000000000e+00" cType="1" res="-3.0477073043584824e-02" rms="2.1278946101665497e-01" purity="5.8076798915863037e-02" nType="-99"/>
        </Node>
      </Node>
    </BinaryTree>
    <BinaryTree type="DecisionTree" boostWeight="1.0000000000000000e+00" itree="18">
      <Node pos="s" depth="0" NCoef="0" IVar="15" Cut="8.2930749654769897e-01" cType="0" res="-7.8986033797264099e-02" rms="3.7416082620620728e-01" purity="2.8285792469978333e-01" nType="0">
        <Node pos="l" depth="1" NCoef="0" IVar="-1" Cut="0.0000000000000000e+00" cType="1" res="2.2282116115093231e-03" rms="4.6236804127693176e-01" purity="4.7932437062263489e-01" nType="-99"/>
        <Node pos="r" depth="1" NCoef="0" IVar="10" Cut="4.2926588654518127e-01" cType="0" res="-1.7971512675285339e-01" rms="2.0282329618930817e-01" purity="7.1800805628299713e-02" nType="0">
          <Node pos="l" depth="2" NCoef="0" IVar="-1" Cut="0.0000000000000000e+00" cType="1" res="1.7878476530313492e-02" rms="4.6254822611808777e-01" purity="6.6120392084121704e-01" nType="-99"/>
          <Node pos="r" depth="2" NCoef="0" IVar="-1" Cut="0.0000000000000000e+00" cType="1" res="-3.4199681133031845e-02" rms="1.3839328289031982e-01" purity="2.2858433425426483e-02" nType="-99"/>
        </Node>
      </Node>
    </BinaryTree>
    <BinaryTree type="DecisionTree" boostWeight="1.0000000000000000e+00" itree="19">
      <Node pos="s" depth="0" NCoef="0" IVar="0" Cut="1.2326094321906567e-02" cType="1" res="-7.4792779982089996e-02" rms="3.7215444445610046e-01" purity="2.8285792469978333e-01" nType="0">
        <Node pos="l" depth="1" NCoef="0" IVar="-1" Cut="0.0000000000000000e+00" cType="1" res="3.3291135914623737e-03" rms="4.3839421868324280e-01" purity="4.6698236465454102e-01" nType="-99"/>
        <Node pos="r" depth="1" NCoef="0" IVar="6" Cut="3.0307394266128540e-01" cType="1" res="-1.6842466592788696e-01" rms="2.6150587201118469e-01" purity="1.0330910235643387e-01" nType="0">
          <Node pos="l" depth="2" NCoef="0" IVar="-1" Cut="0.0000000000000000e+00" cType="1" res="-2.6087846606969833e-02" rms="2.5946840643882751e-01" purity="1.0759995132684708e-01" nType="-99"/>
          <Node pos="r" depth="2" NCoef="0" IVar="-1" Cut="0.0000000000000000e+00" cType="1" res="-4.5553222298622131e-02" rms="2.0200791954994202e-01" purity="3.8935575634241104e-02" nType="-99"/>
        </Node>
      </Node>
    </BinaryTree>
    <BinaryTree type="DecisionTree" boostWeight="1.0000000000000000e+00" itree="20">
      <Node pos="s" depth="0" NCoef="0" IVar="10" Cut="5.5394753813743591e-02" cType="0" res="-7.0521742105484009e-02" rms="3.7062057852745056e-01" purity="2.8285792469978333e-01" nType="0">
        <Node pos="l" depth="1" NCoef="0" IVar="-1" Cut="0.0000000000000000e+00" cType="1" res="6.5911868587136269e-03" rms="4.6882960200309753e-01" purity="5.5758768320083618e-01" nType="-99"/>
        <Node pos="r" depth="1" NCoef="0" IVar="15" Cut="8.8654619455337524e-01" cType="0" res="-1.4401306211948395e-01" rms="2.6495632529258728e-01" purity="1.0483381152153015e-01" nType="0">
          <Node pos="l" depth="2" NCoef="0" IVar="-1" Cut="0.0000000000000000e+00" cType="1" res="-7.1676247753202915e-03" rms="4.4600605964660645e-01" purity="3.3217814564704895e-01" nType="-99"/>
          <Node pos="r" depth="2" NCoef="0" IVar="-1" Cut="0.0000000000000000e+00" cType="1" res="-3.2654453068971634e-02" rms="1.2562416493892670e-01" purity="1.7052475363016129e-02" nType="-99"/>
        </Node>
      </Node>
    </BinaryTree>
    <BinaryTree type="DecisionTree" boostWeight="1.0000000000000000e+00" itree="21">
      <Node pos="s" depth="0" NCoef="0" IVar="0" Cut="1.0627718642354012e-02" cType="1" res="-6.6838100552558899e-02" rms="3.6899307370185852e-01" purity="2.8285792469978333e-01" nType="0">
        <Node pos="l" depth="1" NCoef="0" IVar="-1" Cut="0.0000000000000000e+00" cType="1" res="1.0965232737362385e-02" rms="4.5171928405761719e-01" purity="5.6115382909774780e-01" nType="-99"/>
        <Node pos="r" depth="1" NCoef="0" IVar="10" Cut="1.9194428622722626e-01" cType="0" res="-1.2489587068557739e-01" rms="3.0970269441604614e-01" purity="1.6411243379116058e-01" nType="0">
          <Node pos="l" depth="2" NCoef="0" IVar="-1" Cut="0.0000000000000000e+00" cType="1" res="-3.5771998227573931e-04" rms="4.9009019136428833e-01" purity="5.1203697919845581e-01" nType="-99"/>
          <Node pos="r" depth="2" NCoef="0" IVar="-1" Cut="0.0000000000000000e+00" cType="1" res="-2.7031585574150085e-02" rms="2.3711006343364716e-01" purity="7.9340137541294098e-02" nType="-99"/>
        </Node>
      </Node>
    </BinaryTree>
    <BinaryTree type="DecisionTree" boostWeight="1.0000000000000000e+00" itree="22">
      <Node pos="s" depth="0" NCoef="0" IVar="15" Cut="8.2930749654769897e-01" cType="0" res="-6.3300363719463348e-02" rms="3.6731112003326416e-01" purity="2.8285792469978333e-01" nType="0">
        <Node pos="l" depth="1" NCoef="0" IVar="-1" Cut="0.0000000000000000e+00" cType="1" res="2.8862014878541231e-03" rms="4.5817357301712036e-01" purity="4.7932437062263489e-01" nType="-99"/>
        <Node pos="r" depth="1" NCoef="0" IVar="10" Cut="5.1923674345016479e-01" cType="0" res="-1.5156775712966919e-01" rms="1.9823701679706573e-01" purity="7.1800805628299713e-02" nType="0">
          <Node pos="l" depth="2" NCoef="0" IVar="-1" Cut="0.0000000000000000e+00" cType="1" res="2.0933723077178001e-02" rms="4.4955399632453918e-01" purity="6.8801194429397583e-01" nType="-99"/>
          <Node pos="r" depth="2" NCoef="0" IVar="-1" Cut="0.0000000000000000e+00" cType="1" res="-3.2188948243856430e-02" rms="1.4851208031177521e-01" purity="2.8653414919972420e-02" nType="-99"/>
        </Node>
      </Node>
    </BinaryTree>
    <BinaryTree type="DecisionTree" boostWeight="1.0000000000000000e+00" itree="23">
      <Node pos="s" depth="0" NCoef="0" IVar="0" Cut="1.2712089344859123e-02" cType="1" res="-5.9997405856847763e-02" rms="3.6568605899810791e-01" purity="2.8285792469978333e-01" nType="0">
        <Node pos="l" depth="1" NCoef="0" IVar="-1" Cut="0.0000000000000000e+00" cType="1" res="2.8233923949301243e-03" rms="4.2820087075233459e-01" purity="4.4903776049613953e-01" nType="-99"/>
        <Node pos="r" depth="1" NCoef="0" IVar="15" Cut="1.1393668651580811e+00" cType="1" res="-1.4847140014171600e-01" rms="2.4973852932453156e-01" purity="9.3088671565055847e-02" nType="0">
          <Node pos="l" depth="2" NCoef="0" IVar="-1" Cut="0.0000000000000000e+00" cType="1" res="-2.4730766192078590e-02" rms="2.4274730682373047e-01" purity="9.5060862600803375e-02" nType="-99"/>
          <Node pos="r" depth="2" NCoef="0" IVar="-1" Cut="0.0000000000000000e+00" cType="1" res="-4.0292751044034958e-02" rms="2.5313353538513184e-01" purity="7.4085511267185211e-02" nType="-99"/>
        </Node>
      </Node>
    </BinaryTree>
    <BinaryTree type="DecisionTree" boostWeight="1.0000000000000000e+00" itree="24">
      <Node pos="s" depth="0" NCoef="0" IVar="15" Cut="8.5268622636795044e-01" cType="0" res="-5.6585047394037247e-02" rms="3.6443647742271423e-01" purity="2.8285792469978333e-01" nType="0">
        <Node pos="l" depth="1" NCoef="0" IVar="-1" Cut="0.0000000000000000e+00" cType="1" res="3.8193929940462112e-03" rms="4.6100842952728271e-01" purity="4.9069383740425110e-01" nType="-99"/>
        <Node pos="r" depth="1" NCoef="0" IVar="10" Cut="4.6090400218963623e-01" cType="0" res="-1.3496179878711700e-01" rms="2.0899409055709839e-01" purity="8.3143800497055054e-02" nType="0">
          <Node pos="l" depth="2" NCoef="0" IVar="-1" Cut="0.0000000000000000e+00" cType="1" res="1.9605163484811783e-02" rms="4.5127215981483459e-01" purity="6.8042367696762085e-01" nType="-99"/>
          <Node pos="r" depth="2" NCoef="0" IVar="-1" Cut="0.0000000000000000e+00" cType="1" res="-3.1054999679327011e-02" rms="1.5390098094940186e-01" purity="3.1343244016170502e-02" nType="-99"/>
        </Node>
      </Node>
    </BinaryTree>
    <BinaryTree type="DecisionTree" boostWeight="1.0000000000000000e+00" itree="25">
      <Node pos="s" depth="0" NCoef="0" IVar="0" Cut="1.0486187413334846e-02" cType="1" res="-5.3709007799625397e-02" rms="3.6288243532180786e-01" purity="2.8285792469978333e-01" nType="0">
        <Node pos="l" depth="1" NCoef="0" IVar="-1" Cut="0.0000000000000000e+00" cType="1" res="1.1226982809603214e-02" rms="4.4779887795448303e-01" purity="5.6816899776458740e-01" nType="-99"/>
        <Node pos="r" depth="1" NCoef="0" IVar="6" Cut="3.7301409244537354e-01" cType="1" res="-1.0222349315881729e-01" rms="3.1034660339355469e-01" purity="1.7088051140308380e-01" nType="0">
          <Node pos="l" depth="2" NCoef="0" IVar="-1" Cut="0.0000000000000000e+00" cType="1" res="-1.6251893714070320e-02" rms="3.0923956632614136e-01" purity="1.7832037806510925e-01" nType="-99"/>
          <Node pos="r" depth="2" NCoef="0" IVar="-1" Cut="0.0000000000000000e+00" cType="1" res="-4.4109158217906952e-02" rms="2.1019312739372253e-01" purity="4.2088575661182404e-02" nType="-99"/>
        </Node>
      </Node>
    </BinaryTree>
    <BinaryTree type="DecisionTree" boostWeight="1.0000000000000000e+00" itree="26">
      <Node pos="s" depth="0" NCoef="0" IVar="10" Cut="5.5394753813743591e-02" cType="0" res="-5.0678562372922897e-02" rms="3.6162132024765015e-01" purity="2.8285792469978333e-01" nType="0">
        <Node pos="l" depth="1" NCoef="0" IVar="-1" Cut="0.0000000000000000e+00" cType="1" res="7.0204529911279678e-03" rms="4.6183767914772034e-01" purity="5.5758768320083618e-01" nType="-99"/>
        <Node pos="r" depth="1" NCoef="0" IVar="15" Cut="1.0535479784011841e+00" cType="1" res="-1.1267538368701935e-01" rms="2.5984507799148560e-01" purity="1.0483381152153015e-01" nType="0">
          <Node pos="l" depth="2" NCoef="0" IVar="-1" Cut="0.0000000000000000e+00" cType="1" res="-1.9099589437246323e-02" rms="2.5990355014801025e-01" purity="1.1203838139772415e-01" nType="-99"/>
          <Node pos="r" depth="2" NCoef="0" IVar="-1" Cut="0.0000000000000000e+00" cType="1" res="-4.0458135306835175e-02" rms="1.6369888186454773e-01" purity="2.2665079683065414e-02" nType="-99"/>
        </Node>
      </Node>
    </BinaryTree>
    <BinaryTree type="DecisionTree" boostWeight="1.0000000000000000e+00" itree="27">
      <Node pos="s" depth="0" NCoef="0" IVar="13" Cut="-9.9900102615356445e-01" cType="1" res="-4.7955650836229324e-02" rms="3.6051350831985474e-01" purity="2.8285792469978333e-01" nType="0">
        <Node pos="l" depth="1" NCoef="0" IVar="-1" Cut="0.0000000000000000e+00" cType="1" res="-6.0716755688190460e-03" rms="3.5765805840492249e-01" purity="2.9270607233047485e-01" nType="-99"/>
        <Node pos="r" depth="1" NCoef="0" IVar="10" Cut="7.3928505182266235e-02" cType="0" res="-4.3388202786445618e-01" rms="1.7387385666370392e-01" purity="1.9799187779426575e-02" nType="0">
          <Node pos="l" depth="2" NCoef="0" IVar="-1" Cut="0.0000000000000000e+00" cType="1" res="-5.7289905846118927e-02" rms="1.6314332187175751e-01" purity="2.3846281692385674e-02" nType="-99"/>
          <Node pos="r" depth="2" NCoef="0" IVar="-1" Cut="0.0000000000000000e+00" cType="1" res="-4.4134333729743958e-02" rms="1.4748990535736084e-01" purity="1.3697079382836819e-02" nType="-99"/>
        </Node>
      </Node>
    </BinaryTree>
    <BinaryTree type="DecisionTree" boostWeight="1.0000000000000000e+00" itree="28">
      <Node pos="s" depth="0" NCoef="0" IVar="15" Cut="8.2930749654769897e-01" cType="0" res="-4.4902205467224121e-02" rms="3.5982826352119446e-01" purity="2.8285792469978333e-01" nType="0">
        <Node pos="l" depth="1" NCoef="0" IVar="-1" Cut="0.0000000000000000e+00" cType="1" res="4.3799933046102524e-03" rms="4.5196172595024109e-01" purity="4.7932437062263489e-01" nType="-99"/>
        <Node pos="r" depth="1" NCoef="0" IVar="10" Cut="6.1415106058120728e-01" cType="0" res="-1.2332229316234589e-01" rms="1.9301435351371765e-01" purity="7.1800805628299713e-02" nType="0">
          <Node pos="l" depth="2" NCoef="0" IVar="-1" Cut="0.0000000000000000e+00" cType="1" res="2.4607393890619278e-02" rms="4.3002608418464661e-01" purity="7.2050261497497559e-01" nType="-99"/>
          <Node pos="r" depth="2" NCoef="0" IVar="-1" Cut="0.0000000000000000e+00" cType="1" res="-2.9776647686958313e-02" rms="1.5685704350471497e-01" purity="3.5148277878761292e-02" nType="-99"/>
        </Node>
      </Node>
    </BinaryTree>
    <BinaryTree type="DecisionTree" boostWeight="1.0000000000000000e+00" itree="29">
      <Node pos="s" depth="0" NCoef="0" IVar="0" Cut="1.3484078459441662e-02" cType="1" res="-4.2680785059928894e-02" rms="3.5849338769912720e-01" purity="2.8285792469978333e-01" nType="0">
        <Node pos="l" depth="1" NCoef="0" IVar="-1" Cut="0.0000000000000000e+00" cType="1" res="2.6642992161214352e-03" rms="4.1189903020858765e-01" purity="4.1739547252655029e-01" nType="-99"/>
        <Node pos="r" depth="1" NCoef="0" IVar="15" Cut="1.1393668651580811e+00" cType="1" res="-1.3384833931922913e-01" rms="2.2502133250236511e-01" purity="7.2765782475471497e-02" nType="0">
          <Node pos="l" depth="2" NCoef="0" IVar="-1" Cut="0.0000000000000000e+00" cType="1" res="-2.4985561147332191e-02" rms="2.1700996160507202e-01" purity="7.4141293764114380e-02" nType="-99"/>
          <Node pos="r" depth="2" NCoef="0" IVar="-1" Cut="0.0000000000000000e+00" cType="1" res="-3.9273258298635483e-02" rms="2.3309631645679474e-01" purity="5.9686776250600815e-02" nType="-99"/>
        </Node>
      </Node>
    </BinaryTree>
    <BinaryTree type="DecisionTree" boostWeight="1.0000000000000000e+00" itree="30">
      <Node pos="s" depth="0" NCoef="0" IVar="12" Cut="1.4992504147812724e-03" cType="1" res="-4.0313947945833206e-02" rms="3.5744369029998779e-01" purity="2.8285792469978333e-01" nType="0">
        <Node pos="l" depth="1" NCoef="0" IVar="-1" Cut="0.0000000000000000e+00" cType="1" res="-3.8067470304667950e-03" rms="3.5402110219001770e-01" purity="2.9726019501686096e-01" nType="-99"/>
        <Node pos="r" depth="1" NCoef="0" IVar="13" Cut="-9.9900102615356445e-01" cType="1" res="-2.9462522268295288e-01" rms="2.9821091890335083e-01" purity="9.9921949207782745e-02" nType="0">
          <Node pos="l" depth="2" NCoef="0" IVar="-1" Cut="0.0000000000000000e+00" cType="1" res="-3.5884350538253784e-02" rms="3.2688510417938232e-01" purity="1.3391448557376862e-01" nType="-99"/>
          <Node pos="r" depth="2" NCoef="0" IVar="-1" Cut="0.0000000000000000e+00" cType="1" res="-5.0629436969757080e-02" rms="1.4749172329902649e-01" purity="8.7041035294532776e-03" nType="-99"/>
        </Node>
      </Node>
    </BinaryTree>
    <BinaryTree type="DecisionTree" boostWeight="1.0000000000000000e+00" itree="31">
      <Node pos="s" depth="0" NCoef="0" IVar="15" Cut="8.0592876672744751e-01" cType="0" res="-3.7785559892654419e-02" rms="3.5666993260383606e-01" purity="2.8285792469978333e-01" nType="0">
        <Node pos="l" depth="1" NCoef="0" IVar="-1" Cut="0.0000000000000000e+00" cType="1" res="4.5109940692782402e-03" rms="4.4413065910339355e-01" purity="4.6745097637176514e-01" nType="-99"/>
        <Node pos="r" depth="1" NCoef="0" IVar="10" Cut="6.1415106058120728e-01" cType="0" res="-1.1635567247867584e-01" rms="1.8106618523597717e-01" purity="6.3974641263484955e-02" nType="0">
          <Node pos="l" depth="2" NCoef="0" IVar="-1" Cut="0.0000000000000000e+00" cType="1" res="2.1134681999683380e-02" rms="4.3313083052635193e-01" purity="7.0676898956298828e-01" nType="-99"/>
          <Node pos="r" depth="2" NCoef="0" IVar="-1" Cut="0.0000000000000000e+00" cType="1" res="-2.9623530805110931e-02" rms="1.4593611657619476e-01" purity="2.9830090701580048e-02" nType="-99"/>
        </Node>
      </Node>
    </BinaryTree>
    <BinaryTree type="DecisionTree" boostWeight="1.0000000000000000e+00" itree="32">
      <Node pos="s" depth="0" NCoef="0" IVar="10" Cut="9.3984842300415039e-02" cType="0" res="-3.5964399576187134e-02" rms="3.5549575090408325e-01" purity="2.8285792469978333e-01" nType="0">
        <Node pos="l" depth="1" NCoef="0" IVar="-1" Cut="0.0000000000000000e+00" cType="1" res="1.0308916680514812e-02" rms="4.6362423896789551e-01" purity="6.0240322351455688e-01" nType="-99"/>
        <Node pos="r" depth="1" NCoef="0" IVar="15" Cut="8.8654619455337524e-01" cType="0" res="-8.3748541772365570e-02" rms="2.7865242958068848e-01" purity="1.3283264636993408e-01" nType="0">
          <Node pos="l" depth="2" NCoef="0" IVar="-1" Cut="0.0000000000000000e+00" cType="1" res="2.6017123673227616e-05" rms="4.4428339600563049e-01" purity="3.7778532505035400e-01" nType="-99"/>
          <Node pos="r" depth="2" NCoef="0" IVar="-1" Cut="0.0000000000000000e+00" cType="1" res="-2.9347833245992661e-02" rms="1.3433659076690674e-01" purity="2.0539583638310432e-02" nType="-99"/>
        </Node>
      </Node>
    </BinaryTree>
    <BinaryTree type="DecisionTree" boostWeight="1.0000000000000000e+00" itree="33">
      <Node pos="s" depth="0" NCoef="0" IVar="6" Cut="2.6810386776924133e-01" cType="1" res="-3.4387521445751190e-02" rms="3.5425505042076111e-01" purity="2.8285792469978333e-01" nType="0">
        <Node pos="l" depth="1" NCoef="0" IVar="-1" Cut="0.0000000000000000e+00" cType="1" res="-3.0131640378385782e-03" rms="3.5045680403709412e-01" purity="2.9557010531425476e-01" nType="-99"/>
        <Node pos="r" depth="1" NCoef="0" IVar="6" Cut="4.0649980306625366e-01" cType="1" res="-2.9792162775993347e-01" rms="2.9738095402717590e-01" purity="1.0540573298931122e-01" nType="0">
          <Node pos="l" depth="2" NCoef="0" IVar="-1" Cut="0.0000000000000000e+00" cType="1" res="-2.5447199121117592e-02" rms="4.0558600425720215e-01" purity="2.4896430969238281e-01" nType="-99"/>
          <Node pos="r" depth="2" NCoef="0" IVar="-1" Cut="0.0000000000000000e+00" cType="1" res="-4.3966416269540787e-02" rms="2.3573277890682220e-01" purity="5.5212538689374924e-02" nType="-99"/>
        </Node>
      </Node>
    </BinaryTree>
    <BinaryTree type="DecisionTree" boostWeight="1.0000000000000000e+00" itree="34">
      <Node pos="s" depth="0" NCoef="0" IVar="13" Cut="-9.9900102615356445e-01" cType="1" res="-3.2245278358459473e-02" rms="3.5349380970001221e-01" purity="2.8285792469978333e-01" nType="0">
        <Node pos="l" depth="1" NCoef="0" IVar="-1" Cut="0.0000000000000000e+00" cType="1" res="-3.6180117167532444e-03" rms="3.5139033198356628e-01" purity="2.9270607233047485e-01" nType="-99"/>
        <Node pos="r" depth="1" NCoef="0" IVar="10" Cut="7.3928505182266235e-02" cType="0" res="-3.9217162132263184e-01" rms="1.7368586361408234e-01" purity="1.9799187779426575e-02" nType="0">
          <Node pos="l" depth="2" NCoef="0" IVar="-1" Cut="0.0000000000000000e+00" cType="1" res="-5.2473366260528564e-02" rms="1.6571000218391418e-01" purity="2.3846281692385674e-02" nType="-99"/>
          <Node pos="r" depth="2" NCoef="0" IVar="-1" Cut="0.0000000000000000e+00" cType="1" res="-4.1768293827772141e-02" rms="1.4758956432342529e-01" purity="1.3697079382836819e-02" nType="-99"/>
        </Node>
      </Node>
    </BinaryTree>
    <BinaryTree type="DecisionTree" boostWeight="1.0000000000000000e+00" itree="35">
      <Node pos="s" depth="0" NCoef="0" IVar="16" Cut="-3.6267757415771484e-02" cType="0" res="-3.0221186578273773e-02" rms="3.5283026099205017e-01" purity="2.8285792469978333e-01" nType="0">
        <Node pos="l" depth="1" NCoef="0" IVar="-1" Cut="0.0000000000000000e+00" cType="1" res="5.0665141316130757e-04" rms="3.5669592022895813e-01" purity="3.1917402148246765e-01" nType="-99"/>
        <Node pos="r" depth="1" NCoef="0" IVar="15" Cut="1.0508124828338623e+00" cType="1" res="-1.7446734011173248e-01" rms="2.9476901888847351e-01" purity="1.2314568459987640e-01" nType="0">
          <Node pos="l" depth="2" NCoef="0" IVar="-1" Cut="0.0000000000000000e+00" cType="1" res="-2.1684268489480019e-02" rms="3.0321127176284790e-01" purity="1.4902129769325256e-01" nType="-99"/>
          <Node pos="r" depth="2" NCoef="0" IVar="-1" Cut="0.0000000000000000e+00" cType="1" res="-3.9121758192777634e-02" rms="2.3657780885696411e-01" purity="6.9049775600433350e-02" nType="-99"/>
        </Node>
      </Node>
    </BinaryTree>
    <BinaryTree type="DecisionTree" boostWeight="1.0000000000000000e+00" itree="36">
      <Node pos="s" depth="0" NCoef="0" IVar="16" Cut="1.4060414396226406e-02" cType="1" res="-2.8453582897782326e-02" rms="3.5183620452880859e-01" purity="2.8285792469978333e-01" nType="0">
        <Node pos="l" depth="1" NCoef="0" IVar="-1" Cut="0.0000000000000000e+00" cType="1" res="4.4527291320264339e-03" rms="4.1107994318008423e-01" purity="4.1616210341453552e-01" nType="-99"/>
        <Node pos="r" depth="1" NCoef="0" IVar="6" Cut="3.6135739088058472e-01" cType="0" res="-1.1824671924114227e-01" rms="1.9049596786499023e-01" purity="6.2988400459289551e-02" nType="0">
          <Node pos="l" depth="2" NCoef="0" IVar="-1" Cut="0.0000000000000000e+00" cType="1" res="-4.5240517705678940e-02" rms="2.8680583834648132e-01" purity="8.9737780392169952e-02" nType="-99"/>
          <Node pos="r" depth="2" NCoef="0" IVar="-1" Cut="0.0000000000000000e+00" cType="1" res="-2.6673208922147751e-02" rms="1.8360738456249237e-01" purity="6.2350939959287643e-02" nType="-99"/>
        </Node>
      </Node>
    </BinaryTree>
    <BinaryTree type="DecisionTree" boostWeight="1.0000000000000000e+00" itree="37">
      <Node pos="s" depth="0" NCoef="0" IVar="4" Cut="9.3464516103267670e-03" cType="1" res="-2.7001669630408287e-02" rms="3.5085573792457581e-01" purity="2.8285792469978333e-01" nType="0">
        <Node pos="l" depth="1" NCoef="0" IVar="-1" Cut="0.0000000000000000e+00" cType="1" res="5.8268392458558083e-03" rms="4.1194140911102295e-01" purity="4.3104392290115356e-01" nType="-99"/>
        <Node pos="r" depth="1" NCoef="0" IVar="6" Cut="2.7976056933403015e-01" cType="1" res="-1.0226763039827347e-01" rms="2.3452702164649963e-01" purity="9.8816126585006714e-02" nType="0">
          <Node pos="l" depth="2" NCoef="0" IVar="-1" Cut="0.0000000000000000e+00" cType="1" res="-2.1100435405969620e-02" rms="2.3162394762039185e-01" purity="1.0177166014909744e-01" nType="-99"/>
          <Node pos="r" depth="2" NCoef="0" IVar="-1" Cut="0.0000000000000000e+00" cType="1" res="-3.9981920272111893e-02" rms="2.0869909226894379e-01" purity="4.0245074778795242e-02" nType="-99"/>
        </Node>
      </Node>
    </BinaryTree>
    <BinaryTree type="DecisionTree" boostWeight="1.0000000000000000e+00" itree="38">
      <Node pos="s" depth="0" NCoef="0" IVar="12" Cut="1.4992504147812724e-03" cType="1" res="-2.5613162666559219e-02" rms="3.4991601109504700e-01" purity="2.8285792469978333e-01" nType="0">
        <Node pos="l" depth="1" NCoef="0" IVar="-1" Cut="0.0000000000000000e+00" cType="1" res="-1.3832380063831806e-03" rms="3.4716454148292542e-01" purity="2.9726019501686096e-01" nType="-99"/>
        <Node pos="r" depth="1" NCoef="0" IVar="12" Cut="1.0009994506835938e+00" cType="1" res="-2.6251134276390076e-01" rms="2.9370760917663574e-01" purity="9.9921949207782745e-02" nType="0">
          <Node pos="l" depth="2" NCoef="0" IVar="-1" Cut="0.0000000000000000e+00" cType="1" res="-3.2748073339462280e-02" rms="3.1747162342071533e-01" purity="1.3203431665897369e-01" nType="-99"/>
          <Node pos="r" depth="2" NCoef="0" IVar="-1" Cut="0.0000000000000000e+00" cType="1" res="-4.7133669257164001e-02" rms="1.8449784815311432e-01" purity="2.1981261670589447e-02" nType="-99"/>
        </Node>
      </Node>
    </BinaryTree>
    <BinaryTree type="DecisionTree" boostWeight="1.0000000000000000e+00" itree="39">
      <Node pos="s" depth="0" NCoef="0" IVar="10" Cut="5.1436796784400940e-02" cType="0" res="-2.4054042994976044e-02" rms="3.4914803504943848e-01" purity="2.8285792469978333e-01" nType="0">
        <Node pos="l" depth="1" NCoef="0" IVar="-1" Cut="0.0000000000000000e+00" cType="1" res="9.0623199939727783e-03" rms="4.4359827041625977e-01" purity="5.4491561651229858e-01" nType="-99"/>
        <Node pos="r" depth="1" NCoef="0" IVar="15" Cut="1.0535479784011841e+00" cType="1" res="-7.9736314713954926e-02" rms="2.5005120038986206e-01" purity="1.0157460719347000e-01" nType="0">
          <Node pos="l" depth="2" NCoef="0" IVar="-1" Cut="0.0000000000000000e+00" cType="1" res="-1.5145465731620789e-02" rms="2.5030094385147095e-01" purity="1.0866203159093857e-01" nType="-99"/>
          <Node pos="r" depth="2" NCoef="0" IVar="-1" Cut="0.0000000000000000e+00" cType="1" res="-3.7799648940563202e-02" rms="1.5963514149188995e-01" purity="2.1110121160745621e-02" nType="-99"/>
        </Node>
      </Node>
    </BinaryTree>
    <BinaryTree type="DecisionTree" boostWeight="1.0000000000000000e+00" itree="40">
      <Node pos="s" depth="0" NCoef="0" IVar="16" Cut="1.4060414396226406e-02" cType="1" res="-2.2976396605372429e-02" rms="3.4821635484695435e-01" purity="2.8285792469978333e-01" nType="0">
        <Node pos="l" depth="1" NCoef="0" IVar="-1" Cut="0.0000000000000000e+00" cType="1" res="4.8591764643788338e-03" rms="4.0754723548889160e-01" purity="4.1616210341453552e-01" nType="-99"/>
        <Node pos="r" depth="1" NCoef="0" IVar="6" Cut="3.6135739088058472e-01" cType="0" res="-1.0704234242439270e-01" rms="1.8958993256092072e-01" purity="6.2988400459289551e-02" nType="0">
          <Node pos="l" depth="2" NCoef="0" IVar="-1" Cut="0.0000000000000000e+00" cType="1" res="-4.2894199490547180e-02" rms="2.8728541731834412e-01" purity="8.9737780392169952e-02" nType="-99"/>
          <Node pos="r" depth="2" NCoef="0" IVar="-1" Cut="0.0000000000000000e+00" cType="1" res="-2.5638671591877937e-02" rms="1.8301233649253845e-01" purity="6.2350939959287643e-02" nType="-99"/>
        </Node>
      </Node>
    </BinaryTree>
    <BinaryTree type="DecisionTree" boostWeight="1.0000000000000000e+00" itree="41">
      <Node pos="s" depth="0" NCoef="0" IVar="16" Cut="-2.2915385663509369e-02" cType="0" res="-2.1854376420378685e-02" rms="3.4732612967491150e-01" purity="2.8285792469978333e-01" nType="0">
        <Node pos="l" depth="1" NCoef="0" IVar="-1" Cut="0.0000000000000000e+00" cType="1" res="2.6648952625691891e-03" rms="3.4976178407669067e-01" purity="3.2070156931877136e-01" nType="-99"/>
        <Node pos="r" depth="1" NCoef="0" IVar="15" Cut="1.0647240877151489e+00" cType="1" res="-1.4710536599159241e-01" rms="3.0736991763114929e-01" purity="1.4651329815387726e-01" nType="0">
          <Node pos="l" depth="2" NCoef="0" IVar="-1" Cut="0.0000000000000000e+00" cType="1" res="-1.7968837171792984e-02" rms="3.1807368993759155e-01" purity="1.7621155083179474e-01" nType="-99"/>
          <Node pos="r" depth="2" NCoef="0" IVar="-1" Cut="0.0000000000000000e+00" cType="1" res="-3.6423213779926300e-02" rms="2.4749314785003662e-01" purity="8.0447115004062653e-02" nType="-99"/>
        </Node>
      </Node>
    </BinaryTree>
    <BinaryTree type="DecisionTree" boostWeight="1.0000000000000000e+00" itree="42">
      <Node pos="s" depth="0" NCoef="0" IVar="13" Cut="-9.9900102615356445e-01" cType="1" res="-2.0645843818783760e-02" rms="3.4629917144775391e-01" purity="2.8285792469978333e-01" nType="0">
        <Node pos="l" depth="1" NCoef="0" IVar="-1" Cut="0.0000000000000000e+00" cType="1" res="-1.6438973834738135e-03" rms="3.4489035606384277e-01" purity="2.9270607233047485e-01" nType="-99"/>
        <Node pos="r" depth="1" NCoef="0" IVar="10" Cut="7.3928505182266235e-02" cType="0" res="-3.5430517792701721e-01" rms="1.7446406185626984e-01" purity="1.9799187779426575e-02" nType="0">
          <Node pos="l" depth="2" NCoef="0" IVar="-1" Cut="0.0000000000000000e+00" cType="1" res="-4.8802811652421951e-02" rms="1.6950385272502899e-01" purity="2.3846281692385674e-02" nType="-99"/>
          <Node pos="r" depth="2" NCoef="0" IVar="-1" Cut="0.0000000000000000e+00" cType="1" res="-3.9663981646299362e-02" rms="1.4662715792655945e-01" purity="1.3697079382836819e-02" nType="-99"/>
        </Node>
      </Node>
    </BinaryTree>
    <BinaryTree type="DecisionTree" boostWeight="1.0000000000000000e+00" itree="43">
      <Node pos="s" depth="0" NCoef="0" IVar="15" Cut="8.5268622636795044e-01" cType="0" res="-1.9390920177102089e-02" rms="3.4565997123718262e-01" purity="2.8285792469978333e-01" nType="0">
        <Node pos="l" depth="1" NCoef="0" IVar="-1" Cut="0.0000000000000000e+00" cType="1" res="7.4179745279252529e-03" rms="4.4128033518791199e-01" purity="4.9069383740425110e-01" nType="-99"/>
        <Node pos="r" depth="1" NCoef="0" IVar="10" Cut="4.2432245612144470e-01" cType="0" res="-8.2633271813392639e-02" rms="1.9751447439193726e-01" purity="8.3143800497055054e-02" nType="0">
          <Node pos="l" depth="2" NCoef="0" IVar="-1" Cut="0.0000000000000000e+00" cType="1" res="1.8909588456153870e-02" rms="4.3526723980903625e-01" purity="6.6958302259445190e-01" nType="-99"/>
          <Node pos="r" depth="2" NCoef="0" IVar="-1" Cut="0.0000000000000000e+00" cType="1" res="-2.7320627123117447e-02" rms="1.4560656249523163e-01" purity="2.9023395851254463e-02" nType="-99"/>
        </Node>
      </Node>
    </BinaryTree>
    <BinaryTree type="DecisionTree" boostWeight="1.0000000000000000e+00" itree="44">
      <Node pos="s" depth="0" NCoef="0" IVar="6" Cut="2.6810386776924133e-01" cType="1" res="-1.8776200711727142e-02" rms="3.4451532363891602e-01" purity="2.8285792469978333e-01" nType="0">
        <Node pos="l" depth="1" NCoef="0" IVar="-1" Cut="0.0000000000000000e+00" cType="1" res="-3.5342323826625943e-04" rms="3.4172320365905762e-01" purity="2.9557010531425476e-01" nType="-99"/>
        <Node pos="r" depth="1" NCoef="0" IVar="6" Cut="3.7193188071250916e-01" cType="1" res="-2.5702518224716187e-01" rms="2.9087600111961365e-01" purity="1.0540573298931122e-01" nType="0">
          <Node pos="l" depth="2" NCoef="0" IVar="-1" Cut="0.0000000000000000e+00" cType="1" res="-1.9995026290416718e-02" rms="4.0809130668640137e-01" purity="2.6992321014404297e-01" nType="-99"/>
          <Node pos="r" depth="2" NCoef="0" IVar="-1" Cut="0.0000000000000000e+00" cType="1" res="-3.9672464132308960e-02" rms="2.4226395785808563e-01" purity="6.2676817178726196e-02" nType="-99"/>
        </Node>
      </Node>
    </BinaryTree>
    <BinaryTree type="DecisionTree" boostWeight="1.0000000000000000e+00" itree="45">
      <Node pos="s" depth="0" NCoef="0" IVar="0" Cut="1.3226748444139957e-02" cType="1" res="-1.7669146880507469e-02" rms="3.4378871321678162e-01" purity="2.8285792469978333e-01" nType="0">
        <Node pos="l" depth="1" NCoef="0" IVar="-1" Cut="0.0000000000000000e+00" cType="1" res="6.3313473947346210e-03" rms="3.9948546886444092e-01" purity="4.2691197991371155e-01" nType="-99"/>
        <Node pos="r" depth="1" NCoef="0" IVar="15" Cut="1.2094935178756714e+00" cType="1" res="-9.2647559940814972e-02" rms="2.2375905513763428e-01" purity="7.9209201037883759e-02" nType="0">
          <Node pos="l" depth="2" NCoef="0" IVar="-1" Cut="0.0000000000000000e+00" cType="1" res="-2.0320439711213112e-02" rms="2.1851110458374023e-01" purity="8.1240370869636536e-02" nType="-99"/>
          <Node pos="r" depth="2" NCoef="0" IVar="-1" Cut="0.0000000000000000e+00" cType="1" res="-3.5868600010871887e-02" rms="2.2313517332077026e-01" purity="5.6276507675647736e-02" nType="-99"/>
        </Node>
      </Node>
    </BinaryTree>
    <BinaryTree type="DecisionTree" boostWeight="1.0000000000000000e+00" itree="46">
      <Node pos="s" depth="0" NCoef="0" IVar="12" Cut="1.4992504147812724e-03" cType="1" res="-1.6892993822693825e-02" rms="3.4287488460540771e-01" purity="2.8285792469978333e-01" nType="0">
        <Node pos="l" depth="1" NCoef="0" IVar="-1" Cut="0.0000000000000000e+00" cType="1" res="8.8278226030524820e-05" rms="3.4071660041809082e-01" purity="2.9726019501686096e-01" nType="-99"/>
        <Node pos="r" depth="1" NCoef="0" IVar="12" Cut="1.0009994506835938e+00" cType="1" res="-2.3686043918132782e-01" rms="2.9001423716545105e-01" purity="9.9921949207782745e-02" nType="0">
          <Node pos="l" depth="2" NCoef="0" IVar="-1" Cut="0.0000000000000000e+00" cType="1" res="-3.0621368438005447e-02" rms="3.1329885125160217e-01" purity="1.3203431665897369e-01" nType="-99"/>
          <Node pos="r" depth="2" NCoef="0" IVar="-1" Cut="0.0000000000000000e+00" cType="1" res="-4.4963624328374863e-02" rms="1.8629671633243561e-01" purity="2.1981261670589447e-02" nType="-99"/>
        </Node>
      </Node>
    </BinaryTree>
    <BinaryTree type="DecisionTree" boostWeight="1.0000000000000000e+00" itree="47">
      <Node pos="s" depth="0" NCoef="0" IVar="15" Cut="8.0592876672744751e-01" cType="0" res="-1.5911713242530823e-02" rms="3.4213513135910034e-01" purity="2.8285792469978333e-01" nType="0">
        <Node pos="l" depth="1" NCoef="0" IVar="-1" Cut="0.0000000000000000e+00" cType="1" res="6.6862124949693680e-03" rms="4.2823871970176697e-01" purity="4.6745097637176514e-01" nType="-99"/>
        <Node pos="r" depth="1" NCoef="0" IVar="10" Cut="4.5101708173751831e-01" cType="0" res="-8.2956105470657349e-02" rms="1.7354206740856171e-01" purity="6.3974641263484955e-02" nType="0">
          <Node pos="l" depth="2" NCoef="0" IVar="-1" Cut="0.0000000000000000e+00" cType="1" res="1.4491129666566849e-02" rms="4.3440568447113037e-01" purity="6.5261840820312500e-01" nType="-99"/>
          <Node pos="r" depth="2" NCoef="0" IVar="-1" Cut="0.0000000000000000e+00" cType="1" res="-2.8098359704017639e-02" rms="1.2627321481704712e-01" purity="2.0079620182514191e-02" nType="-99"/>
        </Node>
      </Node>
    </BinaryTree>
    <BinaryTree type="DecisionTree" boostWeight="1.0000000000000000e+00" itree="48">
      <Node pos="s" depth="0" NCoef="0" IVar="16" Cut="-4.4484604150056839e-02" cType="0" res="-1.5441795811057091e-02" rms="3.4117954969406128e-01" purity="2.8285792469978333e-01" nType="0">
        <Node pos="l" depth="1" NCoef="0" IVar="-1" Cut="0.0000000000000000e+00" cType="1" res="2.5281650014221668e-03" rms="3.4627223014831543e-01" purity="3.1784248352050781e-01" nType="-99"/>
        <Node pos="r" depth="1" NCoef="0" IVar="15" Cut="1.0508124828338623e+00" cType="1" res="-1.4945489168167114e-01" rms="2.7868252992630005e-01" purity="1.1194096505641937e-01" nType="0">
          <Node pos="l" depth="2" NCoef="0" IVar="-1" Cut="0.0000000000000000e+00" cType="1" res="-1.9875776022672653e-02" rms="2.8793358802795410e-01" purity="1.3672740757465363e-01" nType="-99"/>
          <Node pos="r" depth="2" NCoef="0" IVar="-1" Cut="0.0000000000000000e+00" cType="1" res="-3.6729220300912857e-02" rms="2.2439499199390411e-01" purity="6.0829009860754013e-02" nType="-99"/>
        </Node>
      </Node>
    </BinaryTree>
    <BinaryTree type="DecisionTree" boostWeight="1.0000000000000000e+00" itree="49">
      <Node pos="s" depth="0" NCoef="0" IVar="16" Cut="1.4060414396226406e-02" cType="1" res="-1.4641514979302883e-02" rms="3.4029588103294373e-01" purity="2.8285792469978333e-01" nType="0">
        <Node pos="l" depth="1" NCoef="0" IVar="-1" Cut="0.0000000000000000e+00" cType="1" res="5.7192398235201836e-03" rms="3.9869999885559082e-01" purity="4.1616210341453552e-01" nType="-99"/>
        <Node pos="r" depth="1" NCoef="0" IVar="9" Cut="5.3928818702697754e+00" cType="0" res="-9.1632418334484100e-02" rms="1.8732821941375732e-01" purity="6.2988400459289551e-02" nType="0">
          <Node pos="l" depth="2" NCoef="0" IVar="-1" Cut="0.0000000000000000e+00" cType="1" res="-3.6233756691217422e-02" rms="3.3881947398185730e-01" purity="1.5060047805309296e-01" nType="-99"/>
          <Node pos="r" depth="2" NCoef="0" IVar="-1" Cut="0.0000000000000000e+00" cType="1" res="-2.3770039901137352e-02" rms="1.7164692282676697e-01" purity="5.8308269828557968e-02" nType="-99"/>
        </Node>
      </Node>
    </BinaryTree>
    <BinaryTree type="DecisionTree" boostWeight="1.0000000000000000e+00" itree="50">
      <Node pos="s" depth="0" NCoef="0" IVar="13" Cut="-9.9900102615356445e-01" cType="1" res="-1.4031232334673405e-02" rms="3.3947885036468506e-01" purity="2.8285792469978333e-01" nType="0">
        <Node pos="l" depth="1" NCoef="0" IVar="-1" Cut="0.0000000000000000e+00" cType="1" res="-4.9831072101369500e-04" rms="3.3858054876327515e-01" purity="2.9270607233047485e-01" nType="-99"/>
        <Node pos="r" depth="1" NCoef="0" IVar="0" Cut="1.0875596664845943e-02" cType="1" res="-3.2566830515861511e-01" rms="1.7539241909980774e-01" purity="1.9799187779426575e-02" nType="0">
          <Node pos="l" depth="2" NCoef="0" IVar="-1" Cut="0.0000000000000000e+00" cType="1" res="-4.8244174569845200e-02" rms="1.8088284134864807e-01" purity="2.7348695322871208e-02" nType="-99"/>
          <Node pos="r" depth="2" NCoef="0" IVar="-1" Cut="0.0000000000000000e+00" cType="1" res="-3.9449006319046021e-02" rms="1.4708180725574493e-01" purity="1.4233109541237354e-02" nType="-99"/>
        </Node>
      </Node>
    </BinaryTree>
    <BinaryTree type="DecisionTree" boostWeight="1.0000000000000000e+00" itree="51">
      <Node pos="s" depth="0" NCoef="0" IVar="6" Cut="2.2147710621356964e-01" cType="1" res="-1.3215756975114346e-02" rms="3.3886241912841797e-01" purity="2.8285792469978333e-01" nType="0">
        <Node pos="l" depth="1" NCoef="0" IVar="-1" Cut="0.0000000000000000e+00" cType="1" res="8.2902121357619762e-04" rms="3.3553537726402283e-01" purity="2.9544797539710999e-01" nType="-99"/>
        <Node pos="r" depth="1" NCoef="0" IVar="6" Cut="3.7173146009445190e-01" cType="1" res="-2.2000189125537872e-01" rms="3.0934950709342957e-01" purity="1.3044610619544983e-01" nType="0">
          <Node pos="l" depth="2" NCoef="0" IVar="-1" Cut="0.0000000000000000e+00" cType="1" res="-1.7938947305083275e-02" rms="4.1063004732131958e-01" purity="2.8521206974983215e-01" nType="-99"/>
          <Node pos="r" depth="2" NCoef="0" IVar="-1" Cut="0.0000000000000000e+00" cType="1" res="-3.7728760391473770e-02" rms="2.4036796391010284e-01" purity="6.2676817178726196e-02" nType="-99"/>
        </Node>
      </Node>
    </BinaryTree>
    <BinaryTree type="DecisionTree" boostWeight="1.0000000000000000e+00" itree="52">
      <Node pos="s" depth="0" NCoef="0" IVar="10" Cut="5.1436796784400940e-02" cType="0" res="-1.2480489909648895e-02" rms="3.3814918994903564e-01" purity="2.8285792469978333e-01" nType="0">
        <Node pos="l" depth="1" NCoef="0" IVar="-1" Cut="0.0000000000000000e+00" cType="1" res="9.6668945625424385e-03" rms="4.3046849966049194e-01" purity="5.4491561651229858e-01" nType="-99"/>
        <Node pos="r" depth="1" NCoef="0" IVar="15" Cut="1.0535479784011841e+00" cType="1" res="-6.1749137938022614e-02" rms="2.4356062710285187e-01" purity="1.0157460719347000e-01" nType="0">
          <Node pos="l" depth="2" NCoef="0" IVar="-1" Cut="0.0000000000000000e+00" cType="1" res="-1.2636246159672737e-02" rms="2.4466638267040253e-01" purity="1.0866203159093857e-01" nType="-99"/>
          <Node pos="r" depth="2" NCoef="0" IVar="-1" Cut="0.0000000000000000e+00" cType="1" res="-3.5603038966655731e-02" rms="1.5759597718715668e-01" purity="2.1110121160745621e-02" nType="-99"/>
        </Node>
      </Node>
    </BinaryTree>
    <BinaryTree type="DecisionTree" boostWeight="1.0000000000000000e+00" itree="53">
      <Node pos="s" depth="0" NCoef="0" IVar="0" Cut="1.0486187413334846e-02" cType="1" res="-1.2098832055926323e-02" rms="3.3737370371818542e-01" purity="2.8285792469978333e-01" nType="0">
        <Node pos="l" depth="1" NCoef="0" IVar="-1" Cut="0.0000000000000000e+00" cType="1" res="1.3681829907000065e-02" rms="4.1996857523918152e-01" purity="5.6816899776458740e-01" nType="-99"/>
        <Node pos="r" depth="1" NCoef="0" IVar="2" Cut="2.2151352465152740e-01" cType="1" res="-4.8307713121175766e-02" rms="2.9089355468750000e-01" purity="1.7088051140308380e-01" nType="0">
          <Node pos="l" depth="2" NCoef="0" IVar="-1" Cut="0.0000000000000000e+00" cType="1" res="5.5180662311613560e-03" rms="3.8579830527305603e-01" purity="3.5100972652435303e-01" nType="-99"/>
          <Node pos="r" depth="2" NCoef="0" IVar="-1" Cut="0.0000000000000000e+00" cType="1" res="-1.9526163116097450e-02" rms="2.3682391643524170e-01" purity="1.0000725835561752e-01" nType="-99"/>
        </Node>
      </Node>
    </BinaryTree>
    <BinaryTree type="DecisionTree" boostWeight="1.0000000000000000e+00" itree="54">
      <Node pos="s" depth="0" NCoef="0" IVar="12" Cut="1.4992504147812724e-03" cType="1" res="-1.1772667057812214e-02" rms="3.3634927868843079e-01" purity="2.8285792469978333e-01" nType="0">
        <Node pos="l" depth="1" NCoef="0" IVar="-1" Cut="0.0000000000000000e+00" cType="1" res="9.4311177963390946e-04" rms="3.3463984727859497e-01" purity="2.9726019501686096e-01" nType="-99"/>
        <Node pos="r" depth="1" NCoef="0" IVar="12" Cut="1.0009994506835938e+00" cType="1" res="-2.1665841341018677e-01" rms="2.8708365559577942e-01" purity="9.9921949207782745e-02" nType="0">
          <Node pos="l" depth="2" NCoef="0" IVar="-1" Cut="0.0000000000000000e+00" cType="1" res="-2.9027458280324936e-02" rms="3.0982676148414612e-01" purity="1.3203431665897369e-01" nType="-99"/>
          <Node pos="r" depth="2" NCoef="0" IVar="-1" Cut="0.0000000000000000e+00" cType="1" res="-4.3450411409139633e-02" rms="1.8877223134040833e-01" purity="2.1981261670589447e-02" nType="-99"/>
        </Node>
      </Node>
    </BinaryTree>
    <BinaryTree type="DecisionTree" boostWeight="1.0000000000000000e+00" itree="55">
      <Node pos="s" depth="0" NCoef="0" IVar="15" Cut="8.5268622636795044e-01" cType="0" res="-1.1129953898489475e-02" rms="3.3564725518226624e-01" purity="2.8285792469978333e-01" nType="0">
        <Node pos="l" depth="1" NCoef="0" IVar="-1" Cut="0.0000000000000000e+00" cType="1" res="7.6825353316962719e-03" rms="4.2997950315475464e-01" purity="4.9069383740425110e-01" nType="-99"/>
        <Node pos="r" depth="1" NCoef="0" IVar="10" Cut="4.0059387683868408e-01" cType="0" res="-6.6849261522293091e-02" rms="1.9215247035026550e-01" purity="8.3143800497055054e-02" nType="0">
          <Node pos="l" depth="2" NCoef="0" IVar="-1" Cut="0.0000000000000000e+00" cType="1" res="1.6908572986721992e-02" rms="4.2609930038452148e-01" purity="6.5956318378448486e-01" nType="-99"/>
          <Node pos="r" depth="2" NCoef="0" IVar="-1" Cut="0.0000000000000000e+00" cType="1" res="-2.5959959253668785e-02" rms="1.4148204028606415e-01" purity="2.7646534144878387e-02" nType="-99"/>
        </Node>
      </Node>
    </BinaryTree>
    <BinaryTree type="DecisionTree" boostWeight="1.0000000000000000e+00" itree="56">
      <Node pos="s" depth="0" NCoef="0" IVar="16" Cut="-2.0861174911260605e-02" cType="0" res="-1.0975802317261696e-02" rms="3.3470851182937622e-01" purity="2.8285792469978333e-01" nType="0">
        <Node pos="l" depth="1" NCoef="0" IVar="-1" Cut="0.0000000000000000e+00" cType="1" res="4.3185940012335777e-03" rms="3.3735930919647217e-01" purity="3.2062414288520813e-01" nType="-99"/>
        <Node pos="r" depth="1" NCoef="0" IVar="15" Cut="1.0413581132888794e+00" cType="1" res="-1.1605960875749588e-01" rms="3.0270501971244812e-01" purity="1.5212839841842651e-01" nType="0">
          <Node pos="l" depth="2" NCoef="0" IVar="-1" Cut="0.0000000000000000e+00" cType="1" res="-1.4090960845351219e-02" rms="3.1388995051383972e-01" purity="1.8239372968673706e-01" nType="-99"/>
          <Node pos="r" depth="2" NCoef="0" IVar="-1" Cut="0.0000000000000000e+00" cType="1" res="-3.2746855169534683e-02" rms="2.5102466344833374e-01" purity="8.9623190462589264e-02" nType="-99"/>
        </Node>
      </Node>
    </BinaryTree>
    <BinaryTree type="DecisionTree" boostWeight="1.0000000000000000e+00" itree="57">
      <Node pos="s" depth="0" NCoef="0" IVar="13" Cut="-9.9900102615356445e-01" cType="1" res="-1.0472741909325123e-02" rms="3.3381488919258118e-01" purity="2.8285792469978333e-01" nType="0">
        <Node pos="l" depth="1" NCoef="0" IVar="-1" Cut="0.0000000000000000e+00" cType="1" res="6.8217610532883555e-05" rms="3.3347138762474060e-01" purity="2.9270607233047485e-01" nType="-99"/>
        <Node pos="r" depth="1" NCoef="0" IVar="0" Cut="1.0875596664845943e-02" cType="1" res="-2.9858314990997314e-01" rms="1.7731340229511261e-01" purity="1.9799187779426575e-02" nType="0">
          <Node pos="l" depth="2" NCoef="0" IVar="-1" Cut="0.0000000000000000e+00" cType="1" res="-4.6190679073333740e-02" rms="1.8454325199127197e-01" purity="2.7348695322871208e-02" nType="-99"/>
          <Node pos="r" depth="2" NCoef="0" IVar="-1" Cut="0.0000000000000000e+00" cType="1" res="-3.8038454949855804e-02" rms="1.4778393507003784e-01" purity="1.4233109541237354e-02" nType="-99"/>
        </Node>
      </Node>
    </BinaryTree>
    <BinaryTree type="DecisionTree" boostWeight="1.0000000000000000e+00" itree="58">
      <Node pos="s" depth="0" NCoef="0" IVar="16" Cut="1.3033308088779449e-02" cType="1" res="-9.8907183855772018e-03" rms="3.3324819803237915e-01" purity="2.8285792469978333e-01" nType="0">
        <Node pos="l" depth="1" NCoef="0" IVar="-1" Cut="0.0000000000000000e+00" cType="1" res="6.2356838025152683e-03" rms="3.9136540889739990e-01" purity="4.1797310113906860e-01" nType="-99"/>
        <Node pos="r" depth="1" NCoef="0" IVar="9" Cut="5.3928818702697754e+00" cType="0" res="-7.9872488975524902e-02" rms="1.8970964848995209e-01" purity="6.7594036459922791e-02" nType="0">
          <Node pos="l" depth="2" NCoef="0" IVar="-1" Cut="0.0000000000000000e+00" cType="1" res="-3.4095697104930878e-02" rms="3.4163933992385864e-01" purity="1.5921559929847717e-01" nType="-99"/>
          <Node pos="r" depth="2" NCoef="0" IVar="-1" Cut="0.0000000000000000e+00" cType="1" res="-2.2082882001996040e-02" rms="1.7429517209529877e-01" purity="6.2633320689201355e-02" nType="-99"/>
        </Node>
      </Node>
    </BinaryTree>
    <BinaryTree type="DecisionTree" boostWeight="1.0000000000000000e+00" itree="59">
      <Node pos="s" depth="0" NCoef="0" IVar="6" Cut="2.2147710621356964e-01" cType="1" res="-9.5624821260571480e-03" rms="3.3250576257705688e-01" purity="2.8285792469978333e-01" nType="0">
        <Node pos="l" depth="1" NCoef="0" IVar="-1" Cut="0.0000000000000000e+00" cType="1" res="1.4169689966365695e-03" rms="3.2957464456558228e-01" purity="2.9544797539710999e-01" nType="-99"/>
