<?xml version="1.0"?>
<MethodSetup Method="BDT::BDT">
  <GeneralInfo>
    <Info name="TMVA Release" value="4.1.2 [262402]"/>
    <Info name="ROOT Release" value="5.32/00 [335872]"/>
    <Info name="Creator" value="pigard"/>
    <Info name="Date" value="Tue Jul 28 18:07:17 2015"/>
    <Info name="Host" value="Linux cmsdev02.cern.ch 2.6.32-431.11.2.el6.x86_64 #1 SMP Wed Mar 26 09:39:43 CET 2014 x86_64 x86_64 x86_64 GNU/Linux"/>
    <Info name="Dir" value="/grid_mnt/vol__vol_U__u/llr/cms/pigard/myEID/job/NonTrigSpring15_ConvVarCwoBoolean_TMVA412_FullStatLowPt_PairNegWeightsGlobal"/>
    <Info name="Training events" value="87449"/>
    <Info name="TrainingTime" value="4.79674698e+03"/>
    <Info name="AnalysisType" value="Classification"/>
  </GeneralInfo>
  <Options>
    <Option name="V" modified="Yes">False</Option>
    <Option name="VerbosityLevel" modified="No">Default</Option>
    <Option name="VarTransform" modified="No">None</Option>
    <Option name="H" modified="Yes">False</Option>
    <Option name="CreateMVAPdfs" modified="Yes">True</Option>
    <Option name="IgnoreNegWeightsInTraining" modified="No">False</Option>
    <Option name="NTrees" modified="Yes">2000</Option>
    <Option name="RenormByClass" modified="No">False</Option>
    <Option name="BoostType" modified="Yes">Grad</Option>
    <Option name="AdaBoostR2Loss" modified="No">quadratic</Option>
    <Option name="UseBaggedGrad" modified="Yes">False</Option>
    <Option name="GradBaggingFraction" modified="No">6.000000e-01</Option>
    <Option name="Shrinkage" modified="Yes">1.000000e-01</Option>
    <Option name="AdaBoostBeta" modified="No">1.000000e+00</Option>
    <Option name="UseRandomisedTrees" modified="No">False</Option>
    <Option name="UseNvars" modified="Yes">4</Option>
    <Option name="UsePoissonNvars" modified="No">True</Option>
    <Option name="UseNTrainEvents" modified="No">87449</Option>
    <Option name="UseWeightedTrees" modified="No">True</Option>
    <Option name="UseYesNoLeaf" modified="No">True</Option>
    <Option name="NodePurityLimit" modified="No">5.000000e-01</Option>
    <Option name="SeparationType" modified="No">giniindex</Option>
    <Option name="nEventsMin" modified="Yes">100</Option>
    <Option name="nCuts" modified="Yes">2000</Option>
    <Option name="UseFisherCuts" modified="No">False</Option>
    <Option name="MinLinCorrForFisher" modified="No">8.000000e-01</Option>
    <Option name="UseExclusiveVars" modified="No">False</Option>
    <Option name="PruneStrength" modified="Yes">5.000000e+00</Option>
    <Option name="PruneMethod" modified="Yes">costcomplexity</Option>
    <Option name="PruneBeforeBoost" modified="No">False</Option>
    <Option name="PruningValFraction" modified="No">5.000000e-01</Option>
    <Option name="NNodesMax" modified="Yes">5</Option>
    <Option name="MaxDepth" modified="Yes">6</Option>
    <Option name="DoBoostMonitor" modified="No">False</Option>
    <Option name="NegWeightTreatment" modified="Yes">pairnegweightsglobal</Option>
  </Options>
  <Variables NVar="21">
    <Variable VarIndex="0" Expression="ele_oldsigmaietaieta" Label="ele_oldsigmaietaieta" Title="ele_oldsigmaietaieta" Unit="" Internal="ele_oldsigmaietaieta" Type="F" Min="1.11670792e-03" Max="7.92554617e-02"/>
    <Variable VarIndex="1" Expression="ele_oldsigmaiphiiphi" Label="ele_oldsigmaiphiiphi" Title="ele_oldsigmaiphiiphi" Unit="" Internal="ele_oldsigmaiphiiphi" Type="F" Min="2.68925121e-03" Max="8.88551474e-02"/>
    <Variable VarIndex="2" Expression="ele_oldcircularity" Label="ele_oldcircularity" Title="ele_oldcircularity" Unit="" Internal="ele_oldcircularity" Type="F" Min="0.00000000e+00" Max="9.18277562e-01"/>
    <Variable VarIndex="3" Expression="ele_oldr9" Label="ele_oldr9" Title="ele_oldr9" Unit="" Internal="ele_oldr9" Type="F" Min="1.60509929e-01" Max="1.61765156e+01"/>
    <Variable VarIndex="4" Expression="ele_scletawidth" Label="ele_scletawidth" Title="ele_scletawidth" Unit="" Internal="ele_scletawidth" Type="F" Min="0.00000000e+00" Max="1.39909065e+00"/>
    <Variable VarIndex="5" Expression="ele_sclphiwidth" Label="ele_sclphiwidth" Title="ele_sclphiwidth" Unit="" Internal="ele_sclphiwidth" Type="F" Min="0.00000000e+00" Max="1.11455977e+00"/>
    <Variable VarIndex="6" Expression="ele_he" Label="ele_he" Title="ele_he" Unit="" Internal="ele_he" Type="F" Min="0.00000000e+00" Max="1.68637905e+01"/>
    <Variable VarIndex="7" Expression="ele_psEoverEraw" Label="ele_psEoverEraw" Title="ele_psEoverEraw" Unit="" Internal="ele_psEoverEraw" Type="F" Min="0.00000000e+00" Max="5.54012203e+00"/>
    <Variable VarIndex="8" Expression="ele_kfhits" Label="ele_kfhits" Title="ele_kfhits" Unit="" Internal="ele_kfhits" Type="I" Min="2.00000000e+00" Max="1.70000000e+01"/>
    <Variable VarIndex="9" Expression="ele_kfchi2" Label="ele_kfchi2" Title="ele_kfchi2" Unit="" Internal="ele_kfchi2" Type="F" Min="8.30222613e-10" Max="2.26120872e+01"/>
    <Variable VarIndex="10" Expression="ele_gsfchi2" Label="ele_gsfchi2" Title="ele_gsfchi2" Unit="" Internal="ele_gsfchi2" Type="F" Min="2.47218743e-01" Max="5.67425781e+02"/>
    <Variable VarIndex="11" Expression="ele_fbrem" Label="ele_fbrem" Title="ele_fbrem" Unit="" Internal="ele_fbrem" Type="F" Min="-9.96217072e-01" Max="9.98342514e-01"/>
    <Variable VarIndex="12" Expression="ele_gsfhits" Label="ele_gsfhits" Title="ele_gsfhits" Unit="" Internal="ele_gsfhits" Type="I" Min="5.00000000e+00" Max="1.70000000e+01"/>
    <Variable VarIndex="13" Expression="ele_expected_inner_hits" Label="ele_expected_inner_hits" Title="ele_expected_inner_hits" Unit="" Internal="ele_expected_inner_hits" Type="I" Min="0.00000000e+00" Max="5.00000000e+00"/>
    <Variable VarIndex="14" Expression="ele_conversionVertexFitProbability" Label="ele_conversionVertexFitProbability" Title="ele_conversionVertexFitProbability" Unit="" Internal="ele_conversionVertexFitProbability" Type="F" Min="-1.00000000e+00" Max="9.99999642e-01"/>
    <Variable VarIndex="15" Expression="ele_ep" Label="ele_ep" Title="ele_ep" Unit="" Internal="ele_ep" Type="F" Min="1.53019828e-05" Max="2.46401031e+02"/>
    <Variable VarIndex="16" Expression="ele_eelepout" Label="ele_eelepout" Title="ele_eelepout" Unit="" Internal="ele_eelepout" Type="F" Min="1.71927619e-04" Max="9.70877930e+02"/>
    <Variable VarIndex="17" Expression="ele_IoEmIop" Label="ele_IoEmIop" Title="ele_IoEmIop" Unit="" Internal="ele_IoEmIop" Type="F" Min="-1.01413572e+00" Max="4.39812094e-01"/>
    <Variable VarIndex="18" Expression="ele_deltaetain" Label="ele_deltaetain" Title="ele_deltaetain" Unit="" Internal="ele_deltaetain" Type="F" Min="-4.51015139e+00" Max="4.17510223e+00"/>
    <Variable VarIndex="19" Expression="ele_deltaphiin" Label="ele_deltaphiin" Title="ele_deltaphiin" Unit="" Internal="ele_deltaphiin" Type="F" Min="-1.48768675e+00" Max="1.42805958e+00"/>
    <Variable VarIndex="20" Expression="ele_deltaetaseed" Label="ele_deltaetaseed" Title="ele_deltaetaseed" Unit="" Internal="ele_deltaetaseed" Type="F" Min="-2.90368962e+00" Max="1.24210119e+00"/>
  </Variables>
  <Spectators NSpec="10">
    <Spectator SpecIndex="0" Expression="ele_pT" Label="ele_pT" Title="ele_pT" Unit="" Internal="ele_pT" Type="F" Min="1.00000114e+01" Max="5.19869873e+02"/>
    <Spectator SpecIndex="1" Expression="ele_isbarrel" Label="ele_isbarrel" Title="ele_isbarrel" Unit="" Internal="ele_isbarrel" Type="F" Min="0.00000000e+00" Max="0.00000000e+00"/>
    <Spectator SpecIndex="2" Expression="ele_isendcap" Label="ele_isendcap" Title="ele_isendcap" Unit="" Internal="ele_isendcap" Type="F" Min="1.00000000e+00" Max="1.00000000e+00"/>
    <Spectator SpecIndex="3" Expression="scl_eta" Label="scl_eta" Title="scl_eta" Unit="" Internal="scl_eta" Type="F" Min="-3.79263425e+00" Max="2.81409097e+00"/>
    <Spectator SpecIndex="4" Expression="ele_eClass" Label="ele_eClass" Title="ele_eClass" Unit="" Internal="ele_eClass" Type="F" Min="0.00000000e+00" Max="4.00000000e+00"/>
    <Spectator SpecIndex="5" Expression="ele_pfRelIso" Label="ele_pfRelIso" Title="ele_pfRelIso" Unit="" Internal="ele_pfRelIso" Type="F" Min="0.00000000e+00" Max="2.52487125e+01"/>
    <Spectator SpecIndex="6" Expression="ele_expected_inner_hits" Label="ele_expected_inner_hits" Title="ele_expected_inner_hits" Unit="" Internal="ele_expected_inner_hits" Type="F" Min="0.00000000e+00" Max="5.00000000e+00"/>
    <Spectator SpecIndex="7" Expression="ele_vtxconv" Label="ele_vtxconv" Title="ele_vtxconv" Unit="" Internal="ele_vtxconv" Type="F" Min="0.00000000e+00" Max="1.00000000e+00"/>
    <Spectator SpecIndex="8" Expression="mc_event_weight" Label="mc_event_weight" Title="mc_event_weight" Unit="" Internal="mc_event_weight" Type="F" Min="-1.00000107e+00" Max="1.00000107e+00"/>
    <Spectator SpecIndex="9" Expression="mc_ele_CBmatching_category" Label="mc_ele_CBmatching_category" Title="mc_ele_CBmatching_category" Unit="" Internal="mc_ele_CBmatching_category" Type="F" Min="0.00000000e+00" Max="3.00000000e+00"/>
  </Spectators>
  <Classes NClass="2">
    <Class Name="Signal" Index="0"/>
    <Class Name="Background" Index="1"/>
  </Classes>
  <Transformations NTransformations="0"/>
  <MVAPdfs>
    <PDF Name="BDT_PDFSig" MinNSmooth="0" MaxNSmooth="0" InterpolMethod="2" KDE_type="1" KDE_iter="1" KDE_border="1" KDE_finefactor="1.0000000000000000e+00">
      <Histogram Name="BDT_tr_S_original" NBins="1748" XMin="-9.9999886751174927e-01" XMax="9.9654698371887207e-01" HasEquidistantBins="1">
        0.00000000e+00 0.00000000e+00 7.77507275e-02 9.71884131e-02 5.83130457e-02 5.83130457e-02 9.71884131e-02 9.71884131e-02 1.94376819e-02 7.77507275e-02 5.83130457e-02 3.88753638e-02 7.77507275e-02 5.83130457e-02 5.83130457e-02 7.77507275e-02 5.83130457e-02 5.83130457e-02 7.77507275e-02 3.88753638e-02 7.77507275e-02 7.77507275e-02 5.83130457e-02 3.88753638e-02 7.77507275e-02 1.94376819e-02 3.88753638e-02 7.77507275e-02 3.88753638e-02 1.94376819e-02 5.83130457e-02 7.77507275e-02 5.83130457e-02 1.94376819e-02 7.77507275e-02 1.94376819e-02 3.88753638e-02 1.74939141e-01 1.94376819e-02 5.83130457e-02 1.94376819e-02 1.94376819e-02 3.88753638e-02 5.83130457e-02 9.71884131e-02 9.71884131e-02 1.16626091e-01 9.71884131e-02 5.83130457e-02 5.83130457e-02 3.88753638e-02 9.71884131e-02 1.94376819e-02 3.88753638e-02 0.00000000e+00 3.88753638e-02 3.88753638e-02 5.83130457e-02 5.83130457e-02 5.83130457e-02 3.88753638e-02 3.88753638e-02 3.88753638e-02 9.71884131e-02 5.83130457e-02 1.94376819e-02 1.94376819e-02 9.71884131e-02 5.83130457e-02 3.88753638e-02 5.83130457e-02 1.94376819e-02 7.77507275e-02 5.83130457e-02 0.00000000e+00 3.88753638e-02 7.77507275e-02 7.77507275e-02 5.83130457e-02 5.83130457e-02 1.94376819e-02 0.00000000e+00 7.77507275e-02 5.83130457e-02 3.88753638e-02 7.77507275e-02 5.83130457e-02 3.88753638e-02 7.77507275e-02 5.83130457e-02 3.88753638e-02 9.71884131e-02 3.88753638e-02 7.77507275e-02 7.77507275e-02 0.00000000e+00 0.00000000e+00 1.94376819e-02 9.71884131e-02 5.83130457e-02 5.83130457e-02 5.83130457e-02 0.00000000e+00 1.16626091e-01 3.88753638e-02 1.36063769e-01 3.88753638e-02 0.00000000e+00 9.71884131e-02 5.83130457e-02 3.88753638e-02 5.83130457e-02 7.77507275e-02 1.94376819e-02 9.71884131e-02 5.83130457e-02 1.94376819e-02 1.94376819e-02 3.88753638e-02 3.88753638e-02 7.77507275e-02 3.88753638e-02 9.71884131e-02 5.83130457e-02 5.83130457e-02 5.83130457e-02 9.71884131e-02 3.88753638e-02 9.71884131e-02 1.94376819e-02 3.88753638e-02 5.83130457e-02 9.71884131e-02 3.88753638e-02 7.77507275e-02 9.71884131e-02 7.77507275e-02 5.83130457e-02 1.94376819e-02 5.83130457e-02 1.94376819e-02 5.83130457e-02 0.00000000e+00 1.94376819e-02 5.83130457e-02 3.88753638e-02 0.00000000e+00 0.00000000e+00 1.94376819e-02 5.83130457e-02 7.77507275e-02 1.94376819e-02 3.88753638e-02 3.88753638e-02 3.88753638e-02 1.94376819e-02 1.94376819e-02 1.94376819e-02 1.94376819e-02 5.83130457e-02 1.94376819e-02 3.88753638e-02 3.88753638e-02 3.88753638e-02 5.83130457e-02 1.94376819e-02 7.77507275e-02 7.77507275e-02 3.88753638e-02 5.83130457e-02 7.77507275e-02 1.94376819e-02 1.94376819e-02 5.83130457e-02 3.88753638e-02 1.94376819e-02 7.77507275e-02 5.83130457e-02 3.88753638e-02 5.83130457e-02 3.88753638e-02 3.88753638e-02 7.77507275e-02 1.94376819e-02 1.94376819e-02 1.94376819e-02 1.94376819e-02 3.88753638e-02 5.83130457e-02 7.77507275e-02 1.94376819e-02 7.77507275e-02 7.77507275e-02 1.94376819e-02 3.88753638e-02 1.94376819e-02 5.83130457e-02 5.83130457e-02 7.77507275e-02 3.88753638e-02 5.83130457e-02 1.94376819e-02 1.94376819e-02 3.88753638e-02 5.83130457e-02 3.88753638e-02 5.83130457e-02 9.71884131e-02 3.88753638e-02 7.77507275e-02 1.94376819e-02 3.88753638e-02 1.94376819e-02 1.94376819e-02 1.94376819e-02 3.88753638e-02 5.83130457e-02 3.88753638e-02 3.88753638e-02 5.83130457e-02 3.88753638e-02 9.71884131e-02 5.83130457e-02 0.00000000e+00 7.77507275e-02 7.77507275e-02 0.00000000e+00 1.94376819e-02 5.83130457e-02 7.77507275e-02 5.83130457e-02 1.94376819e-02 3.88753638e-02 5.83130457e-02 1.16626091e-01 3.88753638e-02 7.77507275e-02 1.94376819e-02 1.94376819e-02 5.83130457e-02 0.00000000e+00 3.88753638e-02 3.88753638e-02 1.94376819e-02 3.88753638e-02 9.71884131e-02 3.88753638e-02 9.71884131e-02 3.88753638e-02 3.88753638e-02 5.83130457e-02 3.88753638e-02 1.36063769e-01 5.83130457e-02 1.94376819e-02 7.77507275e-02 1.94376819e-02 1.94376819e-02 3.88753638e-02 3.88753638e-02 3.88753638e-02 3.88753638e-02 0.00000000e+00 3.88753638e-02 1.94376819e-02 3.88753638e-02 3.88753638e-02 1.94376819e-02 5.83130457e-02 3.88753638e-02 3.88753638e-02 9.71884131e-02 0.00000000e+00 5.83130457e-02 1.94376819e-02 1.94376819e-02 1.94376819e-02 3.88753638e-02 1.94376819e-02 3.88753638e-02 5.83130457e-02 1.36063769e-01 5.83130457e-02 5.83130457e-02 7.77507275e-02 1.16626091e-01 1.94376819e-02 3.88753638e-02 1.94376819e-02 3.88753638e-02 3.88753638e-02 5.83130457e-02 3.88753638e-02 1.94376819e-02 9.71884131e-02 1.94376819e-02 7.77507275e-02 1.94376819e-02 5.83130457e-02 3.88753638e-02 5.83130457e-02 1.94376819e-02 3.88753638e-02 3.88753638e-02 9.71884131e-02 0.00000000e+00 9.71884131e-02 3.88753638e-02 3.88753638e-02 3.88753638e-02 7.77507275e-02 7.77507275e-02 1.94376819e-02 1.94376819e-02 1.94376819e-02 3.88753638e-02 0.00000000e+00 3.88753638e-02 3.88753638e-02 7.77507275e-02 9.71884131e-02 7.77507275e-02 5.83130457e-02 0.00000000e+00 9.71884131e-02 5.83130457e-02 3.88753638e-02 3.88753638e-02 1.94376819e-02 5.83130457e-02 3.88753638e-02 1.94376819e-02 9.71884131e-02 1.94376819e-02 3.88753638e-02 5.83130457e-02 3.88753638e-02 3.88753638e-02 1.94376819e-02 5.83130457e-02 1.94376819e-02 1.94376819e-02 9.71884131e-02 1.94376819e-02 3.88753638e-02 5.83130457e-02 0.00000000e+00 5.83130457e-02 1.94376819e-02 9.71884131e-02 5.83130457e-02 7.77507275e-02 7.77507275e-02 1.16626091e-01 0.00000000e+00 1.94376819e-02 3.88753638e-02 1.36063769e-01 1.94376819e-02 3.88753638e-02 9.71884131e-02 1.16626091e-01 5.83130457e-02 5.83130457e-02 5.83130457e-02 1.94376819e-02 5.83130457e-02 1.94376819e-02 5.83130457e-02 0.00000000e+00 3.88753638e-02 3.88753638e-02 5.83130457e-02 0.00000000e+00 5.83130457e-02 0.00000000e+00 5.83130457e-02 5.83130457e-02 5.83130457e-02 3.88753638e-02 1.94376819e-02 1.55501455e-01 7.77507275e-02 1.94376819e-02 3.88753638e-02 5.83130457e-02 5.83130457e-02 7.77507275e-02 3.88753638e-02 9.71884131e-02 3.88753638e-02 3.88753638e-02 7.77507275e-02 1.94376819e-02 9.71884131e-02 5.83130457e-02 3.88753638e-02 5.83130457e-02 1.94376819e-02 5.83130457e-02 5.83130457e-02 3.88753638e-02 7.77507275e-02 7.77507275e-02 5.83130457e-02 1.16626091e-01 1.94376819e-02 3.88753638e-02 0.00000000e+00 3.88753638e-02 5.83130457e-02 3.88753638e-02 1.94376819e-02 0.00000000e+00 1.94376819e-02 1.36063769e-01 5.83130457e-02 0.00000000e+00 3.88753638e-02 3.88753638e-02 1.94376819e-02 5.83130457e-02 3.88753638e-02 3.88753638e-02 3.88753638e-02 0.00000000e+00 7.77507275e-02 3.88753638e-02 3.88753638e-02 7.77507275e-02 9.71884131e-02 3.88753638e-02 1.94376819e-02 1.94376819e-02 5.83130457e-02 5.83130457e-02 3.88753638e-02 0.00000000e+00 1.16626091e-01 3.88753638e-02 1.94376819e-02 3.88753638e-02 1.94376819e-02 3.88753638e-02 3.88753638e-02 3.88753638e-02 7.77507275e-02 3.88753638e-02 0.00000000e+00 5.83130457e-02 9.71884131e-02 0.00000000e+00 5.83130457e-02 9.71884131e-02 0.00000000e+00 7.77507275e-02 7.77507275e-02 3.88753638e-02 3.88753638e-02 1.94376819e-02 5.83130457e-02 3.88753638e-02 9.71884131e-02 3.88753638e-02 3.88753638e-02 3.88753638e-02 0.00000000e+00 5.83130457e-02 5.83130457e-02 5.83130457e-02 5.83130457e-02 5.83130457e-02 1.94376819e-02 3.88753638e-02 1.94376819e-02 5.83130457e-02 1.16626091e-01 3.88753638e-02 1.16626091e-01 1.16626091e-01 5.83130457e-02 3.88753638e-02 0.00000000e+00 3.88753638e-02 5.83130457e-02 1.94376819e-02 3.88753638e-02 1.36063769e-01 7.77507275e-02 7.77507275e-02 5.83130457e-02 1.94376819e-02 1.94376819e-02 3.88753638e-02 5.83130457e-02 1.94376819e-02 1.94376819e-02 3.88753638e-02 5.83130457e-02 1.94376819e-02 1.94376819e-02 1.94376819e-02 0.00000000e+00 7.77507275e-02 5.83130457e-02 0.00000000e+00 7.77507275e-02 1.16626091e-01 3.88753638e-02 5.83130457e-02 5.83130457e-02 5.83130457e-02 3.88753638e-02 5.83130457e-02 7.77507275e-02 3.88753638e-02 5.83130457e-02 5.83130457e-02 3.88753638e-02 1.94376819e-02 5.83130457e-02 3.88753638e-02 1.55501455e-01 3.88753638e-02 1.94376819e-02 5.83130457e-02 3.88753638e-02 0.00000000e+00 5.83130457e-02 0.00000000e+00 1.94376819e-02 7.77507275e-02 3.88753638e-02 5.83130457e-02 9.71884131e-02 3.88753638e-02 3.88753638e-02 9.71884131e-02 5.83130457e-02 5.83130457e-02 9.71884131e-02 0.00000000e+00 1.94376819e-02 1.16626091e-01 9.71884131e-02 1.94376819e-02 3.88753638e-02 1.94376819e-02 1.16626091e-01 9.71884131e-02 5.83130457e-02 1.94376819e-02 3.88753638e-02 0.00000000e+00 1.16626091e-01 9.71884131e-02 1.16626091e-01 5.83130457e-02 7.77507275e-02 3.88753638e-02 7.77507275e-02 3.88753638e-02 3.88753638e-02 9.71884131e-02 3.88753638e-02 5.83130457e-02 7.77507275e-02 3.88753638e-02 1.16626091e-01 3.88753638e-02 5.83130457e-02 5.83130457e-02 7.77507275e-02 3.88753638e-02 7.77507275e-02 5.83130457e-02 1.94376819e-02 7.77507275e-02 1.94376819e-02 3.88753638e-02 3.88753638e-02 5.83130457e-02 5.83130457e-02 3.88753638e-02 1.94376819e-02 3.88753638e-02 3.88753638e-02 3.88753638e-02 0.00000000e+00 3.88753638e-02 7.77507275e-02 0.00000000e+00 5.83130457e-02 9.71884131e-02 5.83130457e-02 5.83130457e-02 0.00000000e+00 3.88753638e-02 5.83130457e-02 9.71884131e-02 5.83130457e-02 5.83130457e-02 3.88753638e-02 5.83130457e-02 3.88753638e-02 3.88753638e-02 9.71884131e-02 7.77507275e-02 7.77507275e-02 1.16626091e-01 3.88753638e-02 7.77507275e-02 9.71884131e-02 1.94376819e-02 1.94376819e-02 5.83130457e-02 5.83130457e-02 7.77507275e-02 7.77507275e-02 5.83130457e-02 0.00000000e+00 3.88753638e-02 3.88753638e-02 1.94376819e-02 1.94376819e-02 9.71884131e-02 5.83130457e-02 1.94376819e-02 7.77507275e-02 9.71884131e-02 3.88753638e-02 5.83130457e-02 7.77507275e-02 5.83130457e-02 3.88753638e-02 7.77507275e-02 7.77507275e-02 3.88753638e-02 3.88753638e-02 1.94376819e-02 7.77507275e-02 7.77507275e-02 1.55501455e-01 7.77507275e-02 3.88753638e-02 3.88753638e-02 5.83130457e-02 9.71884131e-02 9.71884131e-02 3.88753638e-02 3.88753638e-02 3.88753638e-02 5.83130457e-02 5.83130457e-02 7.77507275e-02 7.77507275e-02 3.88753638e-02 0.00000000e+00 7.77507275e-02 5.83130457e-02 3.88753638e-02 1.94376819e-02 1.94376819e-02 0.00000000e+00 7.77507275e-02 1.36063769e-01 0.00000000e+00 5.83130457e-02 5.83130457e-02 9.71884131e-02 3.88753638e-02 9.71884131e-02 7.77507275e-02 3.88753638e-02 5.83130457e-02 0.00000000e+00 5.83130457e-02 3.88753638e-02 3.88753638e-02 7.77507275e-02 9.71884131e-02 3.88753638e-02 5.83130457e-02 7.77507275e-02 7.77507275e-02 1.36063769e-01 9.71884131e-02 1.94376819e-02 7.77507275e-02 3.88753638e-02 0.00000000e+00 1.94376819e-02 5.83130457e-02 3.88753638e-02 7.77507275e-02 1.16626091e-01 1.16626091e-01 3.88753638e-02 1.16626091e-01 3.88753638e-02 3.88753638e-02 3.88753638e-02 5.83130457e-02 1.94376826e-01 3.88753638e-02 7.77507275e-02 3.88753638e-02 3.88753638e-02 7.77507275e-02 7.77507275e-02 1.16626091e-01 3.88753638e-02 3.88753638e-02 3.88753638e-02 0.00000000e+00 1.36063769e-01 1.94376819e-02 7.77507275e-02 0.00000000e+00 5.83130457e-02 1.94376819e-02 5.83130457e-02 1.94376819e-02 3.88753638e-02 5.83130457e-02 3.88753638e-02 3.88753638e-02 9.71884131e-02 1.94376819e-02 7.77507275e-02 5.83130457e-02 5.83130457e-02 7.77507275e-02 7.77507275e-02 5.83130457e-02 3.88753638e-02 5.83130457e-02 1.36063769e-01 5.83130457e-02 9.71884131e-02 9.71884131e-02 5.83130457e-02 3.88753638e-02 3.88753638e-02 9.71884131e-02 7.77507275e-02 3.88753638e-02 9.71884131e-02 9.71884131e-02 5.83130457e-02 1.36063769e-01 9.71884131e-02 3.88753638e-02 7.77507275e-02 1.94376819e-02 5.83130457e-02 5.83130457e-02 9.71884131e-02 3.88753638e-02 3.88753638e-02 7.77507275e-02 1.94376819e-02 5.83130457e-02 7.77507275e-02 5.83130457e-02 7.77507275e-02 5.83130457e-02 3.88753638e-02 1.16626091e-01 5.83130457e-02 7.77507275e-02 5.83130457e-02 5.83130457e-02 1.94376819e-02 1.16626091e-01 1.94376819e-02 1.16626091e-01 3.88753638e-02 7.77507275e-02 3.88753638e-02 1.36063769e-01 7.77507275e-02 7.77507275e-02 5.83130457e-02 5.83130457e-02 3.88753638e-02 9.71884131e-02 3.88753638e-02 9.71884131e-02 9.71884131e-02 5.83130457e-02 5.83130457e-02 9.71884131e-02 5.83130457e-02 5.83130457e-02 5.83130457e-02 1.16626091e-01 9.71884131e-02 7.77507275e-02 1.94376819e-02 1.16626091e-01 7.77507275e-02 5.83130457e-02 1.16626091e-01 1.94376819e-02 1.16626091e-01 1.94376819e-02 0.00000000e+00 5.83130457e-02 1.55501455e-01 3.88753638e-02 9.71884131e-02 1.36063769e-01 5.83130457e-02 3.88753638e-02 3.88753638e-02 5.83130457e-02 1.36063769e-01 1.94376819e-02 1.16626091e-01 5.83130457e-02 1.36063769e-01 1.16626091e-01 7.77507275e-02 7.77507275e-02 1.55501455e-01 7.77507275e-02 5.83130457e-02 9.71884131e-02 1.94376819e-02 3.88753638e-02 1.16626091e-01 1.55501455e-01 7.77507275e-02 5.83130457e-02 3.88753638e-02 3.88753638e-02 7.77507275e-02 3.88753638e-02 1.36063769e-01 7.77507275e-02 3.88753638e-02 0.00000000e+00 1.94376819e-02 5.83130457e-02 5.83130457e-02 1.94376819e-02 5.83130457e-02 7.77507275e-02 7.77507275e-02 7.77507275e-02 7.77507275e-02 3.88753638e-02 1.55501455e-01 0.00000000e+00 3.88753638e-02 1.16626091e-01 1.94376819e-02 1.94376819e-02 5.83130457e-02 7.77507275e-02 9.71884131e-02 5.83130457e-02 1.16626091e-01 1.74939141e-01 3.88753638e-02 9.71884131e-02 1.94376819e-02 1.94376819e-02 9.71884131e-02 1.94376819e-02 3.88753638e-02 9.71884131e-02 1.94376819e-02 5.83130457e-02 5.83130457e-02 1.16626091e-01 1.16626091e-01 5.83130457e-02 1.94376819e-02 1.16626091e-01 1.36063769e-01 7.77507275e-02 1.16626091e-01 5.83130457e-02 1.94376819e-02 3.88753638e-02 3.88753638e-02 3.88753638e-02 9.71884131e-02 5.83130457e-02 7.77507275e-02 9.71884131e-02 0.00000000e+00 1.94376819e-02 3.88753638e-02 1.55501455e-01 1.36063769e-01 7.77507275e-02 7.77507275e-02 9.71884131e-02 1.16626091e-01 3.88753638e-02 1.36063769e-01 9.71884131e-02 5.83130457e-02 3.88753638e-02 1.36063769e-01 3.88753638e-02 3.88753638e-02 0.00000000e+00 1.94376819e-02 5.83130457e-02 9.71884131e-02 7.77507275e-02 1.36063769e-01 3.88753638e-02 9.71884131e-02 7.77507275e-02 3.88753638e-02 9.71884131e-02 3.88753638e-02 1.16626091e-01 1.55501455e-01 3.88753638e-02 5.83130457e-02 5.83130457e-02 9.71884131e-02 9.71884131e-02 5.83130457e-02 1.74939141e-01 1.16626091e-01 1.16626091e-01 5.83130457e-02 7.77507275e-02 9.71884131e-02 5.83130457e-02 1.16626091e-01 7.77507275e-02 1.36063769e-01 1.16626091e-01 7.77507275e-02 5.83130457e-02 1.16626091e-01 1.55501455e-01 1.16626091e-01 1.74939141e-01 5.83130457e-02 7.77507275e-02 7.77507275e-02 3.88753638e-02 7.77507275e-02 1.16626091e-01 5.83130457e-02 0.00000000e+00 5.83130457e-02 1.94376819e-02 1.16626091e-01 3.88753638e-02 1.36063769e-01 1.36063769e-01 5.83130457e-02 1.36063769e-01 3.88753638e-02 1.16626091e-01 1.36063769e-01 9.71884131e-02 5.83130457e-02 7.77507275e-02 9.71884131e-02 2.13814497e-01 5.83130457e-02 9.71884131e-02 3.88753638e-02 1.55501455e-01 1.36063769e-01 9.71884131e-02 9.71884131e-02 5.83130457e-02 1.36063769e-01 3.88753638e-02 7.77507275e-02 1.55501455e-01 1.55501455e-01 5.83130457e-02 1.36063769e-01 5.83130457e-02 7.77507275e-02 1.36063769e-01 1.16626091e-01 9.71884131e-02 9.71884131e-02 1.36063769e-01 9.71884131e-02 7.77507275e-02 1.16626091e-01 1.74939141e-01 1.16626091e-01 1.16626091e-01 7.77507275e-02 1.36063769e-01 1.36063769e-01 1.16626091e-01 1.36063769e-01 7.77507275e-02 5.83130457e-02 9.71884131e-02 1.74939141e-01 9.71884131e-02 1.36063769e-01 9.71884131e-02 9.71884131e-02 9.71884131e-02 9.71884131e-02 5.83130457e-02 9.71884131e-02 1.94376819e-02 9.71884131e-02 1.94376826e-01 7.77507275e-02 1.94376819e-02 1.16626091e-01 1.16626091e-01 1.55501455e-01 9.71884131e-02 5.83130457e-02 1.16626091e-01 1.36063769e-01 1.16626091e-01 9.71884131e-02 2.33252183e-01 3.88753638e-02 9.71884131e-02 9.71884131e-02 9.71884131e-02 3.88753638e-02 9.71884131e-02 5.83130457e-02 1.16626091e-01 1.16626091e-01 9.71884131e-02 1.36063769e-01 3.88753638e-02 3.88753638e-02 1.36063769e-01 7.77507275e-02 9.71884131e-02 5.83130457e-02 1.74939141e-01 9.71884131e-02 1.94376819e-02 1.16626091e-01 1.55501455e-01 1.16626091e-01 1.94376826e-01 9.71884131e-02 9.71884131e-02 1.36063769e-01 1.74939141e-01 1.94376826e-01 2.13814497e-01 9.71884131e-02 1.16626091e-01 7.77507275e-02 9.71884131e-02 1.36063769e-01 3.88753638e-02 9.71884131e-02 1.16626091e-01 5.83130457e-02 1.16626091e-01 9.71884131e-02 7.77507275e-02 1.94376819e-02 1.36063769e-01 9.71884131e-02 1.36063769e-01 1.94376826e-01 7.77507275e-02 1.16626091e-01 1.36063769e-01 5.83130457e-02 5.83130457e-02 1.36063769e-01 9.71884131e-02 9.71884131e-02 5.83130457e-02 9.71884131e-02 1.94376826e-01 5.83130457e-02 9.71884131e-02 7.77507275e-02 1.16626091e-01 7.77507275e-02 1.55501455e-01 3.88753638e-02 5.83130457e-02 1.55501455e-01 1.74939141e-01 1.94376826e-01 1.36063769e-01 1.36063769e-01 7.77507275e-02 3.88753638e-02 9.71884131e-02 1.16626091e-01 1.36063769e-01 1.16626091e-01 7.77507275e-02 1.36063769e-01 5.83130457e-02 1.94376826e-01 5.83130457e-02 1.36063769e-01 9.71884131e-02 7.77507275e-02 1.36063769e-01 5.83130457e-02 1.36063769e-01 2.52689868e-01 2.52689868e-01 1.36063769e-01 9.71884131e-02 1.16626091e-01 5.83130457e-02 5.83130457e-02 9.71884131e-02 9.71884131e-02 1.55501455e-01 7.77507275e-02 7.77507275e-02 5.83130457e-02 1.94376826e-01 7.77507275e-02 7.77507275e-02 1.36063769e-01 1.74939141e-01 2.33252183e-01 1.16626091e-01 1.36063769e-01 1.16626091e-01 1.55501455e-01 1.16626091e-01 1.55501455e-01 1.74939141e-01 3.88753638e-02 1.55501455e-01 1.55501455e-01 1.16626091e-01 5.83130457e-02 1.16626091e-01 5.83130457e-02 9.71884131e-02 9.71884131e-02 9.71884131e-02 1.16626091e-01 9.71884131e-02 1.55501455e-01 1.74939141e-01 1.36063769e-01 7.77507275e-02 2.13814497e-01 1.16626091e-01 1.55501455e-01 1.16626091e-01 1.55501455e-01 1.74939141e-01 9.71884131e-02 1.16626091e-01 7.77507275e-02 3.88753638e-02 9.71884131e-02 1.55501455e-01 9.71884131e-02 9.71884131e-02 1.55501455e-01 1.74939141e-01 2.13814497e-01 1.36063769e-01 1.36063769e-01 1.74939141e-01 1.55501455e-01 1.55501455e-01 2.13814497e-01 2.13814497e-01 0.00000000e+00 1.36063769e-01 2.33252183e-01 9.71884131e-02 9.71884131e-02 1.94376826e-01 1.16626091e-01 1.16626091e-01 1.16626091e-01 9.71884131e-02 1.16626091e-01 9.71884131e-02 1.55501455e-01 2.72127539e-01 1.74939141e-01 7.77507275e-02 1.16626091e-01 2.13814497e-01 1.36063769e-01 1.94376826e-01 2.72127539e-01 1.74939141e-01 1.94376826e-01 1.74939141e-01 1.55501455e-01 1.36063769e-01 2.13814497e-01 9.71884131e-02 2.33252183e-01 1.36063769e-01 2.13814497e-01 1.55501455e-01 1.36063769e-01 2.13814497e-01 1.94376826e-01 2.13814497e-01 9.71884131e-02 1.74939141e-01 1.16626091e-01 1.36063769e-01 1.74939141e-01 1.74939141e-01 2.13814497e-01 1.16626091e-01 1.74939141e-01 3.88753638e-02 2.13814497e-01 2.72127539e-01 1.94376826e-01 2.72127539e-01 7.77507275e-02 1.55501455e-01 1.55501455e-01 7.77507275e-02 1.36063769e-01 1.74939141e-01 2.33252183e-01 2.52689868e-01 1.36063769e-01 1.55501455e-01 1.36063769e-01 1.94376826e-01 2.52689868e-01 2.13814497e-01 2.13814497e-01 2.72127539e-01 1.16626091e-01 1.55501455e-01 2.33252183e-01 1.55501455e-01 1.55501455e-01 9.71884131e-02 1.36063769e-01 2.33252183e-01 1.94376826e-01 2.72127539e-01 2.72127539e-01 1.36063769e-01 1.55501455e-01 1.55501455e-01 2.52689868e-01 3.11002910e-01 2.13814497e-01 1.74939141e-01 1.36063769e-01 2.52689868e-01 1.94376826e-01 1.36063769e-01 2.52689868e-01 1.55501455e-01 1.74939141e-01 3.11002910e-01 1.74939141e-01 1.74939141e-01 2.13814497e-01 1.16626091e-01 2.13814497e-01 1.36063769e-01 1.74939141e-01 2.33252183e-01 2.91565239e-01 5.83130457e-02 2.52689868e-01 3.49878281e-01 1.94376826e-01 1.94376826e-01 2.13814497e-01 1.55501455e-01 1.36063769e-01 2.13814497e-01 2.13814497e-01 1.55501455e-01 5.83130457e-02 1.36063769e-01 9.71884131e-02 1.36063769e-01 1.74939141e-01 3.49878281e-01 1.55501455e-01 1.94376826e-01 1.36063769e-01 1.36063769e-01 1.94376826e-01 1.55501455e-01 2.72127539e-01 2.33252183e-01 1.74939141e-01 2.33252183e-01 2.52689868e-01 1.55501455e-01 1.16626091e-01 1.55501455e-01 1.94376826e-01 2.52689868e-01 2.91565239e-01 1.55501455e-01 1.94376826e-01 2.13814497e-01 1.74939141e-01 2.72127539e-01 2.13814497e-01 1.55501455e-01 1.94376826e-01 2.33252183e-01 2.52689868e-01 1.16626091e-01 2.72127539e-01 1.74939141e-01 2.33252183e-01 1.94376826e-01 1.74939141e-01 3.30440581e-01 1.55501455e-01 1.55501455e-01 2.52689868e-01 2.52689868e-01 2.13814497e-01 2.33252183e-01 3.88753653e-01 2.52689868e-01 2.33252183e-01 2.52689868e-01 3.49878281e-01 3.11002910e-01 3.11002910e-01 1.74939141e-01 2.13814497e-01 2.91565239e-01 3.30440581e-01 1.55501455e-01 1.74939141e-01 1.55501455e-01 3.11002910e-01 3.11002910e-01 2.91565239e-01 9.71884131e-02 2.13814497e-01 1.74939141e-01 3.49878281e-01 3.30440581e-01 1.74939141e-01 3.11002910e-01 2.72127539e-01 4.08191323e-01 2.52689868e-01 2.13814497e-01 3.30440581e-01 2.52689868e-01 2.72127539e-01 2.33252183e-01 2.91565239e-01 3.88753653e-01 2.91565239e-01 3.88753653e-01 3.30440581e-01 2.13814497e-01 3.30440581e-01 2.91565239e-01 2.52689868e-01 3.49878281e-01 2.91565239e-01 5.05379736e-01 4.27628994e-01 2.13814497e-01 1.74939141e-01 2.13814497e-01 1.55501455e-01 1.74939141e-01 1.94376826e-01 2.91565239e-01 2.33252183e-01 1.55501455e-01 3.30440581e-01 2.91565239e-01 3.69315952e-01 2.91565239e-01 2.72127539e-01 3.69315952e-01 3.69315952e-01 3.49878281e-01 2.72127539e-01 3.69315952e-01 1.55501455e-01 2.91565239e-01 1.74939141e-01 4.27628994e-01 2.91565239e-01 3.11002910e-01 2.91565239e-01 3.30440581e-01 2.33252183e-01 3.30440581e-01 3.49878281e-01 2.72127539e-01 4.08191323e-01 2.52689868e-01 4.08191323e-01 3.69315952e-01 2.72127539e-01 3.69315952e-01 2.52689868e-01 3.49878281e-01 3.11002910e-01 2.72127539e-01 2.91565239e-01 2.91565239e-01 4.66504365e-01 3.49878281e-01 3.49878281e-01 3.88753653e-01 3.30440581e-01 5.44255078e-01 3.69315952e-01 2.33252183e-01 4.66504365e-01 2.52689868e-01 2.52689868e-01 2.13814497e-01 3.30440581e-01 3.49878281e-01 3.69315952e-01 2.72127539e-01 3.88753653e-01 3.49878281e-01 2.13814497e-01 3.11002910e-01 4.27628994e-01 4.47066694e-01 3.88753653e-01 5.44255078e-01 4.08191323e-01 3.30440581e-01 3.49878281e-01 5.24817407e-01 4.66504365e-01 4.66504365e-01 4.08191323e-01 3.69315952e-01 5.83130479e-01 3.88753653e-01 2.33252183e-01 3.49878281e-01 5.05379736e-01 5.83130479e-01 3.69315952e-01 2.91565239e-01 4.85942066e-01 3.30440581e-01 5.05379736e-01 3.11002910e-01 4.08191323e-01 4.47066694e-01 4.47066694e-01 4.47066694e-01 4.66504365e-01 3.88753653e-01 4.66504365e-01 5.63692808e-01 3.30440581e-01 5.63692808e-01 4.08191323e-01 5.24817407e-01 3.49878281e-01 5.83130479e-01 3.30440581e-01 4.08191323e-01 4.47066694e-01 4.85942066e-01 3.69315952e-01 5.05379736e-01 4.85942066e-01 3.30440581e-01 4.47066694e-01 5.24817407e-01 3.30440581e-01 5.83130479e-01 5.63692808e-01 5.24817407e-01 4.66504365e-01 5.44255078e-01 4.66504365e-01 3.11002910e-01 4.47066694e-01 6.22005820e-01 5.24817407e-01 4.85942066e-01 5.44255078e-01 6.02568150e-01 6.41443491e-01 3.88753653e-01 4.47066694e-01 6.60881162e-01 6.41443491e-01 6.99756563e-01 4.27628994e-01 5.83130479e-01 6.99756563e-01 5.63692808e-01 5.63692808e-01 5.24817407e-01 5.05379736e-01 5.24817407e-01 4.66504365e-01 4.66504365e-01 4.85942066e-01 3.69315952e-01 7.58069575e-01 6.99756563e-01 6.60881162e-01 4.47066694e-01 4.27628994e-01 6.60881162e-01 6.02568150e-01 5.24817407e-01 5.05379736e-01 6.80318892e-01 6.99756563e-01 5.83130479e-01 4.66504365e-01 5.83130479e-01 5.05379736e-01 8.55257988e-01 7.19194233e-01 7.96944976e-01 5.83130479e-01 6.02568150e-01 8.35820317e-01 8.74695718e-01 6.99756563e-01 6.41443491e-01 7.19194233e-01 4.47066694e-01 9.33008730e-01 6.60881162e-01 8.74695718e-01 8.35820317e-01 6.80318892e-01 6.22005820e-01 5.63692808e-01 6.99756563e-01 7.38631904e-01 8.74695718e-01 6.41443491e-01 6.80318892e-01 8.16382647e-01 9.33008730e-01 8.35820317e-01 6.80318892e-01 7.19194233e-01 6.02568150e-01 7.96944976e-01 6.02568150e-01 7.19194233e-01 6.99756563e-01 8.16382647e-01 8.35820317e-01 8.16382647e-01 6.99756563e-01 8.94133389e-01 1.14682329e+00 9.13571060e-01 8.55257988e-01 7.96944976e-01 9.13571060e-01 1.04963481e+00 1.03019714e+00 8.94133389e-01 8.55257988e-01 1.10794783e+00 8.35820317e-01 1.06907248e+00 1.28288698e+00 1.20513630e+00 8.74695718e-01 1.03019714e+00 1.04963481e+00 9.91321802e-01 1.18569863e+00 9.91321802e-01 8.94133389e-01 1.03019714e+00 1.04963481e+00 9.91321802e-01 9.13571060e-01 1.22457397e+00 1.06907248e+00 1.03019714e+00 9.91321802e-01 8.55257988e-01 1.18569863e+00 1.08851016e+00 1.32176232e+00 1.22457397e+00 1.22457397e+00 1.14682329e+00 1.06907248e+00 1.39951313e+00 1.14682329e+00 1.36063778e+00 1.16626096e+00 1.01075947e+00 1.28288698e+00 1.30232465e+00 1.47726381e+00 9.13571060e-01 1.30232465e+00 1.38007545e+00 1.18569863e+00 1.22457397e+00 1.36063778e+00 1.32176232e+00 1.74939144e+00 1.55501461e+00 1.36063778e+00 1.32176232e+00 1.61332762e+00 1.45782614e+00 1.41895080e+00 1.57445228e+00 1.63276529e+00 1.84657979e+00 1.86601746e+00 1.74939144e+00 1.74939144e+00 1.86601746e+00 1.41895080e+00 1.86601746e+00 1.84657979e+00 1.65220296e+00 1.88545513e+00 1.82714212e+00 1.65220296e+00 2.21589565e+00 1.71051598e+00 2.25477123e+00 2.02151895e+00 1.94376826e+00 1.80770445e+00 1.98264360e+00 1.65220296e+00 1.78826678e+00 2.31308413e+00 2.19645810e+00 2.77958846e+00 2.02151895e+00 1.98264360e+00 2.11870742e+00 2.42971015e+00 2.33252192e+00 2.33252192e+00 2.62408710e+00 2.70183778e+00 2.60464931e+00 2.27420878e+00 2.68240023e+00 2.46858573e+00 2.74071312e+00 2.62408710e+00 3.12946677e+00 2.85733914e+00 3.22665524e+00 3.24609280e+00 3.22665524e+00 2.99340296e+00 2.95452762e+00 3.84866095e+00 3.32384372e+00 3.36271906e+00 3.24609280e+00 3.82922339e+00 3.61540890e+00 4.19853926e+00 3.44046974e+00 3.61540890e+00 4.12078857e+00 3.98472476e+00 4.41235399e+00 4.17910147e+00 3.92641187e+00 4.80110741e+00 4.70391893e+00 4.56785536e+00 4.95660877e+00 5.83130455e+00 5.24817419e+00 4.83998299e+00 6.16174507e+00 5.30648708e+00 5.50086403e+00 6.82262659e+00 6.90037727e+00 6.10343218e+00 6.68656254e+00 7.23081779e+00 7.58069611e+00 7.60013390e+00 7.93057442e+00 7.91113663e+00 8.49426746e+00 1.03991594e+01 9.77715397e+00 1.01464701e+01 1.02825336e+01 1.10794792e+01 1.08073511e+01 1.17403603e+01 1.29843712e+01 1.32176237e+01 1.30426846e+01 1.44421978e+01 1.55695829e+01 1.69107838e+01 1.59194613e+01 1.79798565e+01 1.67552814e+01 1.76688538e+01 1.84463596e+01 1.81742325e+01 1.67164059e+01 1.37035656e+01 9.52446461e+00 3.92641187e+00 7.77507305e-01 
      </Histogram>
    </PDF>
    <PDF Name="BDT_PDFBkg" MinNSmooth="0" MaxNSmooth="0" InterpolMethod="2" KDE_type="1" KDE_iter="1" KDE_border="1" KDE_finefactor="1.0000000000000000e+00">
      <Histogram Name="BDT_tr_B_original" NBins="1748" XMin="-9.9999886751174927e-01" XMax="9.9654698371887207e-01" HasEquidistantBins="1">
        6.66804581e+01 4.30650711e+01 2.95760269e+01 2.54490662e+01 2.00993347e+01 1.80741348e+01 1.80741348e+01 1.44058456e+01 1.29920263e+01 1.08904028e+01 1.24188557e+01 9.70583725e+00 9.93510914e+00 9.24729347e+00 8.67411423e+00 8.17735863e+00 7.94808674e+00 8.59768963e+00 6.83993959e+00 7.64239073e+00 5.96106434e+00 5.96106434e+00 6.07570028e+00 4.73828173e+00 7.10742331e+00 6.19033623e+00 4.31795025e+00 5.61715651e+00 4.20331430e+00 4.47079802e+00 4.62364578e+00 4.66185760e+00 3.93583035e+00 4.01225424e+00 4.01225424e+00 3.13337898e+00 4.39437389e+00 3.36265087e+00 4.08867836e+00 3.66834664e+00 3.13337898e+00 3.70655870e+00 3.13337898e+00 3.17159104e+00 3.24801493e+00 2.86589527e+00 3.09516716e+00 2.86589527e+00 2.40735197e+00 2.78947139e+00 2.56019974e+00 2.59841180e+00 2.82768345e+00 1.91059625e+00 2.48377585e+00 2.82768345e+00 2.25450397e+00 3.13337898e+00 2.75125933e+00 2.06344414e+00 3.09516716e+00 1.83417237e+00 2.06344414e+00 2.33092785e+00 2.36913991e+00 2.13986802e+00 1.98702025e+00 1.98702025e+00 2.40735197e+00 2.13986802e+00 2.06344414e+00 1.98702025e+00 1.45205271e+00 1.79596043e+00 1.94880831e+00 2.71304750e+00 1.64311254e+00 1.87238431e+00 2.17808008e+00 2.33092785e+00 1.87238431e+00 1.26099300e+00 1.03172159e+00 1.94880831e+00 1.37562871e+00 1.64311254e+00 1.75774848e+00 2.02523232e+00 1.68132448e+00 1.06993353e+00 1.41384077e+00 1.45205271e+00 1.83417237e+00 1.41384077e+00 1.56668866e+00 1.60490060e+00 1.79596043e+00 1.26099300e+00 1.41384077e+00 1.64311254e+00 1.22278106e+00 1.68132448e+00 1.10814536e+00 1.26099300e+00 1.71953642e+00 1.22278106e+00 7.64238417e-01 7.26026535e-01 1.22278106e+00 1.33741677e+00 1.26099300e+00 1.03172159e+00 1.33741677e+00 1.26099300e+00 1.29920483e+00 1.26099300e+00 8.78874063e-01 8.40662181e-01 1.14635730e+00 1.14635730e+00 6.87814593e-01 9.17085946e-01 1.06993353e+00 1.29920483e+00 1.29920483e+00 1.79596043e+00 1.18456912e+00 1.22278106e+00 6.49602711e-01 6.11390829e-01 6.87814593e-01 1.14635730e+00 1.10814536e+00 7.64238417e-01 7.64238417e-01 8.40662181e-01 1.03172159e+00 5.34966946e-01 1.06993353e+00 1.06993353e+00 5.73178887e-01 9.17085946e-01 8.40662181e-01 1.18456912e+00 7.64238417e-01 8.78874063e-01 9.55297828e-01 5.34966946e-01 7.26026535e-01 8.78874063e-01 7.26026535e-01 7.26026535e-01 8.78874063e-01 8.40662181e-01 1.41384077e+00 8.40662181e-01 7.64238417e-01 1.10814536e+00 7.26026535e-01 5.34966946e-01 6.87814593e-01 6.49602711e-01 7.64238417e-01 5.34966946e-01 7.64238417e-01 8.78874063e-01 9.17085946e-01 7.64238417e-01 3.82119238e-01 1.14635730e+00 5.34966946e-01 7.64238417e-01 5.73178887e-01 3.82119238e-01 6.87814593e-01 9.93509710e-01 9.55297828e-01 9.17085946e-01 7.64238417e-01 5.73178887e-01 5.34966946e-01 3.82119238e-01 5.34966946e-01 6.87814593e-01 8.40662181e-01 8.40662181e-01 6.49602711e-01 6.11390829e-01 6.11390829e-01 8.40662181e-01 3.05695385e-01 5.34966946e-01 4.20331180e-01 4.20331180e-01 7.26026535e-01 6.49602711e-01 8.40662181e-01 5.73178887e-01 5.73178887e-01 8.40662181e-01 4.96755034e-01 4.96755034e-01 3.43907297e-01 7.26026535e-01 4.96755034e-01 4.96755034e-01 2.67483443e-01 5.34966946e-01 4.58543092e-01 1.91059604e-01 4.20331180e-01 6.87814593e-01 4.20331180e-01 7.26026535e-01 4.20331180e-01 5.34966946e-01 7.64238417e-01 6.87814593e-01 3.82119238e-01 3.05695385e-01 6.87814593e-01 4.96755034e-01 9.93509710e-01 3.82119238e-01 4.20331180e-01 3.43907297e-01 5.34966946e-01 6.11390829e-01 3.82119238e-01 4.96755034e-01 6.49602711e-01 3.05695385e-01 4.96755034e-01 5.34966946e-01 6.87814593e-01 6.49602711e-01 6.11390829e-01 2.29271531e-01 3.43907297e-01 7.64238417e-01 5.73178887e-01 4.20331180e-01 4.96755034e-01 9.55297828e-01 6.87814593e-01 3.43907297e-01 4.96755034e-01 4.96755034e-01 4.20331180e-01 3.82119238e-01 4.58543092e-01 6.11390829e-01 3.82119238e-01 6.49602711e-01 3.82119238e-01 2.29271531e-01 1.14635766e-01 3.82119194e-02 3.82119238e-01 3.82119238e-01 4.20331180e-01 4.58543092e-01 4.96755034e-01 3.43907297e-01 4.96755034e-01 6.87814593e-01 3.05695385e-01 4.58543092e-01 3.05695385e-01 4.96755034e-01 1.14635766e-01 1.91059604e-01 2.67483443e-01 7.64238417e-01 7.26026535e-01 3.82119238e-01 4.58543092e-01 1.91059604e-01 4.58543092e-01 4.20331180e-01 7.26026535e-01 7.64238387e-02 1.14635766e-01 4.96755034e-01 3.05695385e-01 4.20331180e-01 3.82119238e-01 4.96755034e-01 3.43907297e-01 7.64238387e-02 4.96755034e-01 1.52847677e-01 3.82119238e-01 4.20331180e-01 4.20331180e-01 3.82119238e-01 3.82119238e-01 4.96755034e-01 3.43907297e-01 7.26026535e-01 4.20331180e-01 2.29271531e-01 4.58543092e-01 1.14635751e-01 3.05695385e-01 2.29271531e-01 6.49602711e-01 3.82119238e-01 2.67483443e-01 3.05695385e-01 4.20331180e-01 4.58543092e-01 4.96755034e-01 3.82119238e-01 2.29271531e-01 2.67483443e-01 2.29271531e-01 1.91059604e-01 4.58543092e-01 1.91059604e-01 3.82119238e-01 4.20331180e-01 3.82119238e-01 2.29271531e-01 3.43907297e-01 2.29271531e-01 5.73178887e-01 3.05695385e-01 4.20331180e-01 3.43907297e-01 3.82119238e-01 4.58543092e-01 1.91059604e-01 3.05695385e-01 4.20331180e-01 4.20331180e-01 3.05695385e-01 2.67483443e-01 3.43907297e-01 1.91059604e-01 3.82119238e-01 1.14635751e-01 4.58543092e-01 4.20331180e-01 3.43907297e-01 1.52847677e-01 3.05695385e-01 3.43907297e-01 3.82119238e-01 3.05695385e-01 1.14635766e-01 1.14635751e-01 4.20331180e-01 1.91059604e-01 3.43907297e-01 1.52847677e-01 2.67483443e-01 1.91059604e-01 2.29271531e-01 2.29271531e-01 2.67483443e-01 3.43907297e-01 3.05695385e-01 4.20331180e-01 3.43907297e-01 2.67483443e-01 1.91059604e-01 1.52847677e-01 2.67483443e-01 3.82119238e-01 2.29271531e-01 3.05695385e-01 4.58543092e-01 1.91059604e-01 3.05695385e-01 3.05695385e-01 2.29271531e-01 3.05695385e-01 2.29271531e-01 3.82119238e-01 1.14635751e-01 3.82119194e-02 1.52847677e-01 1.52847677e-01 1.52847677e-01 2.29271531e-01 4.96755034e-01 3.43907297e-01 4.58543092e-01 4.58543092e-01 4.58543092e-01 7.64238387e-02 7.64238462e-02 2.29271531e-01 3.82119194e-02 4.96755034e-01 2.67483443e-01 2.29271531e-01 2.67483443e-01 2.67483443e-01 1.52847677e-01 2.29271531e-01 2.29271531e-01 1.14635751e-01 1.14635751e-01 3.43907297e-01 3.05695385e-01 1.14635751e-01 2.67483443e-01 3.05695385e-01 1.14635751e-01 3.05695385e-01 1.52847677e-01 4.96755034e-01 5.73178887e-01 3.82119238e-01 1.91059604e-01 3.82119238e-01 3.43907297e-01 3.82119238e-01 1.91059604e-01 0.00000000e+00 3.82119238e-01 1.91059604e-01 2.29271531e-01 2.67483443e-01 4.20331180e-01 3.05695385e-01 3.43907297e-01 1.52847677e-01 2.67483443e-01 2.67483443e-01 4.20331180e-01 3.43907297e-01 3.05695385e-01 2.29271531e-01 3.43907297e-01 3.05695385e-01 3.82119194e-02 2.67483443e-01 4.20331180e-01 0.00000000e+00 7.64238387e-02 1.14635751e-01 7.64238387e-02 1.52847677e-01 1.91059604e-01 1.14635751e-01 2.67483443e-01 1.52847677e-01 4.20331180e-01 3.82119194e-02 4.58543092e-01 3.05695385e-01 1.52847677e-01 3.43907297e-01 3.82119238e-01 3.82119194e-02 3.43907297e-01 1.91059604e-01 4.20331180e-01 1.52847677e-01 3.43907297e-01 7.64238387e-02 1.52847677e-01 1.91059604e-01 3.43907297e-01 4.58543092e-01 1.91059604e-01 3.82119194e-02 7.64238387e-02 2.67483443e-01 1.14635751e-01 1.52847677e-01 0.00000000e+00 2.29271531e-01 3.82119268e-02 1.14635751e-01 1.91059604e-01 3.82119194e-02 1.52847677e-01 3.05695385e-01 2.29271531e-01 1.52847677e-01 2.67483443e-01 1.52847677e-01 1.91059604e-01 -3.82119194e-02 7.64238387e-02 1.91059604e-01 7.64238387e-02 1.52847677e-01 0.00000000e+00 1.14635751e-01 1.14635751e-01 3.05695385e-01 1.14635751e-01 1.14635751e-01 -3.82119194e-02 2.29271531e-01 2.29271531e-01 2.67483443e-01 3.82119238e-01 7.64238387e-02 1.91059604e-01 2.29271531e-01 7.64238387e-02 1.91059604e-01 2.67483443e-01 1.91059604e-01 3.05695385e-01 1.52847677e-01 1.52847677e-01 2.29271531e-01 7.64238387e-02 1.52847677e-01 1.91059604e-01 1.91059604e-01 2.29271531e-01 0.00000000e+00 1.91059604e-01 -7.64238387e-02 3.05695385e-01 1.52847677e-01 2.29271531e-01 1.91059604e-01 1.14635751e-01 3.82119238e-01 1.52847677e-01 3.82119194e-02 7.64238387e-02 1.91059604e-01 7.64238387e-02 2.29271531e-01 3.05695385e-01 1.14635751e-01 1.91059604e-01 3.05695385e-01 1.14635751e-01 1.14635751e-01 2.67483443e-01 2.67483443e-01 1.91059604e-01 2.67483443e-01 7.64238387e-02 4.20331180e-01 7.64238387e-02 3.05695385e-01 2.29271531e-01 2.67483443e-01 2.29271531e-01 3.82119238e-01 1.91059604e-01 1.14635751e-01 1.14635751e-01 3.43907297e-01 1.91059604e-01 7.64238387e-02 2.29271531e-01 2.67483443e-01 3.43907297e-01 1.14635751e-01 7.64238387e-02 2.67483443e-01 1.14635751e-01 3.82119194e-02 0.00000000e+00 2.67483443e-01 3.05695385e-01 1.91059604e-01 1.91059604e-01 2.29271531e-01 1.91059604e-01 1.91059604e-01 1.14635751e-01 -3.82119194e-02 1.14635751e-01 2.67483443e-01 3.05695385e-01 1.52847677e-01 1.52847677e-01 2.29271531e-01 1.52847677e-01 2.29271531e-01 3.82119194e-02 1.14635751e-01 1.52847677e-01 3.82119194e-02 7.64238387e-02 1.91059604e-01 1.14635751e-01 1.14635766e-01 3.82119194e-02 2.67483443e-01 -3.82119194e-02 2.29271531e-01 -3.82119194e-02 1.91059604e-01 3.82119194e-02 1.52847677e-01 3.43907297e-01 7.64238387e-02 3.82119194e-02 7.64238387e-02 3.43907297e-01 2.29271531e-01 1.52847677e-01 3.05695385e-01 7.64238387e-02 1.14635751e-01 7.64238387e-02 1.91059604e-01 1.91059604e-01 4.58543092e-01 2.67483443e-01 7.64238387e-02 3.82119194e-02 1.14635751e-01 1.14635751e-01 7.64238462e-02 1.52847677e-01 7.64238387e-02 2.67483443e-01 3.82119194e-02 1.14635751e-01 3.82119238e-01 7.64238387e-02 1.14635751e-01 1.14635751e-01 2.29271531e-01 2.29271531e-01 1.52847677e-01 3.82119238e-01 7.64238387e-02 2.29271531e-01 3.82119194e-02 3.82119194e-02 1.91059604e-01 1.91059604e-01 1.52847677e-01 0.00000000e+00 1.91059604e-01 1.91059604e-01 7.64238387e-02 1.14635751e-01 3.05695385e-01 -3.82119194e-02 1.14635751e-01 0.00000000e+00 1.91059604e-01 1.52847677e-01 1.52847677e-01 1.91059604e-01 0.00000000e+00 1.52847677e-01 3.05695385e-01 3.43907297e-01 1.14635751e-01 7.64238387e-02 1.91059604e-01 1.52847677e-01 4.20331180e-01 1.91059604e-01 2.67483443e-01 1.52847677e-01 1.14635751e-01 1.52847677e-01 7.64238387e-02 3.82119194e-02 7.64238387e-02 3.82119194e-02 1.52847677e-01 3.82119194e-02 -3.82119194e-02 3.82119194e-02 1.91059604e-01 0.00000000e+00 1.91059604e-01 3.82119194e-02 2.29271531e-01 2.29271531e-01 1.52847677e-01 3.05695385e-01 1.14635751e-01 2.67483443e-01 1.52847677e-01 2.67483443e-01 7.64238387e-02 2.29271531e-01 3.05695385e-01 7.64238387e-02 2.29271531e-01 2.29271531e-01 1.14635751e-01 3.43907297e-01 2.67483443e-01 1.14635751e-01 -7.64238387e-02 1.91059604e-01 1.14635751e-01 1.52847677e-01 2.67483443e-01 1.52847677e-01 3.82119194e-02 1.52847677e-01 2.67483443e-01 1.52847677e-01 2.29271531e-01 1.14635751e-01 3.82119194e-02 1.52847677e-01 7.64238387e-02 1.14635751e-01 1.52847677e-01 3.43907297e-01 1.52847677e-01 1.14635751e-01 3.43907297e-01 0.00000000e+00 7.64238387e-02 1.52847677e-01 -3.82119194e-02 7.64238387e-02 1.91059604e-01 1.14635751e-01 7.64238387e-02 1.14635766e-01 2.29271531e-01 1.91059604e-01 1.52847677e-01 1.52847677e-01 1.91059604e-01 2.29271531e-01 1.52847677e-01 2.29271531e-01 7.64238387e-02 1.14635751e-01 7.64238387e-02 2.29271531e-01 1.14635751e-01 3.82119194e-02 1.52847677e-01 1.14635751e-01 -3.82119194e-02 3.82119194e-02 1.91059604e-01 1.91059604e-01 1.91059604e-01 1.52847677e-01 1.52847677e-01 7.64238387e-02 3.82119194e-02 3.43907297e-01 1.14635751e-01 1.91059604e-01 1.52847677e-01 2.29271531e-01 1.14635751e-01 3.82119194e-02 7.64238387e-02 1.91059604e-01 1.14635751e-01 1.14635751e-01 3.82119194e-02 1.91059604e-01 1.52847677e-01 7.64238387e-02 2.29271531e-01 1.52847677e-01 7.64238387e-02 1.14635751e-01 3.82119194e-02 3.82119194e-02 -1.14635751e-01 1.14635751e-01 -3.82119194e-02 1.91059604e-01 1.91059604e-01 1.91059604e-01 1.91059604e-01 1.52847677e-01 2.67483443e-01 1.52847677e-01 1.14635751e-01 1.52847677e-01 1.91059604e-01 7.64238387e-02 1.14635751e-01 3.82119194e-02 0.00000000e+00 7.64238387e-02 2.29271531e-01 2.29271531e-01 3.82119194e-02 2.29271531e-01 7.64238387e-02 1.91059604e-01 1.52847677e-01 1.14635751e-01 7.64238387e-02 1.52847677e-01 0.00000000e+00 2.29271531e-01 3.05695385e-01 1.14635751e-01 7.64238387e-02 7.64238387e-02 3.82119194e-02 1.14635751e-01 3.82119194e-02 2.29271531e-01 1.14635751e-01 2.67483443e-01 1.52847677e-01 2.67483443e-01 7.64238387e-02 3.82119194e-02 1.91059604e-01 1.52847677e-01 1.91059604e-01 1.14635766e-01 1.52847677e-01 1.14635751e-01 0.00000000e+00 3.82119194e-02 3.82119194e-02 1.52847677e-01 1.14635751e-01 -3.82119194e-02 2.67483443e-01 1.14635751e-01 7.64238387e-02 -3.82119194e-02 2.67483443e-01 1.14635751e-01 1.52847677e-01 1.14635751e-01 7.64238387e-02 2.29271531e-01 3.82119194e-02 3.82119194e-02 1.14635751e-01 -7.64238387e-02 1.14635751e-01 7.64238387e-02 1.14635751e-01 1.52847677e-01 2.67483443e-01 3.82119194e-02 0.00000000e+00 1.52847677e-01 1.52847677e-01 -3.82119194e-02 1.52847677e-01 3.82119194e-02 1.14635751e-01 1.52847677e-01 1.14635751e-01 -3.82119194e-02 1.52847677e-01 1.14635751e-01 3.82119194e-02 1.91059604e-01 1.91059604e-01 0.00000000e+00 1.14635751e-01 7.64238387e-02 1.14635751e-01 0.00000000e+00 2.29271531e-01 1.52847677e-01 -3.82119194e-02 3.82119194e-02 1.14635751e-01 3.82119194e-02 1.14635751e-01 2.67483443e-01 1.91059604e-01 1.52847677e-01 1.52847677e-01 2.67483443e-01 1.14635751e-01 7.64238387e-02 3.82119194e-02 1.14635751e-01 7.64238387e-02 7.64238387e-02 1.52847677e-01 7.64238387e-02 -1.14635751e-01 1.52847677e-01 3.82119194e-02 3.05695385e-01 0.00000000e+00 7.64238387e-02 0.00000000e+00 1.52847677e-01 1.52847677e-01 1.52847677e-01 1.91059604e-01 0.00000000e+00 0.00000000e+00 7.64238387e-02 7.64238387e-02 1.91059604e-01 -3.82119194e-02 1.52847677e-01 7.64238387e-02 3.82119194e-02 7.64238387e-02 7.64238387e-02 1.14635751e-01 1.52847677e-01 1.91059604e-01 0.00000000e+00 1.14635751e-01 7.64238387e-02 3.05695385e-01 2.67483443e-01 3.82119194e-02 0.00000000e+00 7.64238387e-02 1.14635751e-01 0.00000000e+00 1.52847677e-01 3.82119194e-02 3.82119194e-02 3.82119194e-02 3.82119194e-02 0.00000000e+00 1.14635751e-01 0.00000000e+00 7.64238387e-02 1.52847677e-01 1.52847677e-01 1.52847677e-01 7.64238387e-02 1.14635751e-01 1.91059604e-01 0.00000000e+00 1.14635751e-01 0.00000000e+00 7.64238387e-02 3.82119194e-02 3.05695385e-01 1.14635751e-01 3.82119194e-02 1.91059604e-01 1.91059604e-01 1.91059604e-01 7.64238387e-02 7.64238387e-02 3.82119194e-02 7.64238387e-02 3.82119194e-02 1.52847677e-01 7.64238387e-02 1.14635751e-01 3.82119194e-02 1.91059604e-01 0.00000000e+00 0.00000000e+00 7.64238387e-02 1.52847677e-01 7.64238387e-02 7.64238387e-02 1.91059604e-01 -3.82119194e-02 0.00000000e+00 1.14635751e-01 1.14635751e-01 1.91059604e-01 1.52847677e-01 7.64238387e-02 1.14635751e-01 1.14635751e-01 3.82119194e-02 1.14635751e-01 -3.82119194e-02 3.82119194e-02 3.82119194e-02 -3.82119194e-02 7.64238387e-02 3.82119194e-02 -7.64238387e-02 1.14635751e-01 3.82119194e-02 7.64238387e-02 -7.64238387e-02 1.14635751e-01 3.82119194e-02 1.52847677e-01 7.64238387e-02 0.00000000e+00 2.29271531e-01 7.64238387e-02 7.64238387e-02 7.64238387e-02 7.64238387e-02 7.64238387e-02 1.52847677e-01 3.82119194e-02 1.14635751e-01 7.64238387e-02 7.64238387e-02 3.82119194e-02 3.82119194e-02 1.52847677e-01 1.14635751e-01 1.52847677e-01 3.82119194e-02 2.29271531e-01 3.82119194e-02 7.64238387e-02 1.52847677e-01 1.91059604e-01 0.00000000e+00 1.14635751e-01 1.14635751e-01 7.64238387e-02 7.64238387e-02 3.82119194e-02 7.64238387e-02 7.64238387e-02 7.64238387e-02 7.64238387e-02 7.64238387e-02 1.91059604e-01 0.00000000e+00 3.82119194e-02 1.14635751e-01 7.64238387e-02 7.64238387e-02 7.64238387e-02 7.64238387e-02 -3.82119194e-02 1.14635751e-01 7.64238387e-02 7.64238387e-02 7.64238387e-02 -3.82119194e-02 3.82119194e-02 0.00000000e+00 1.14635751e-01 1.52847677e-01 7.64238387e-02 1.14635751e-01 1.14635751e-01 0.00000000e+00 -3.82119194e-02 1.52847677e-01 3.82119194e-02 1.52847677e-01 1.14635751e-01 7.64238387e-02 3.82119194e-02 1.52847677e-01 -3.82119194e-02 0.00000000e+00 3.82119194e-02 3.82119194e-02 3.82119194e-02 3.82119194e-02 3.82119194e-02 0.00000000e+00 1.52847677e-01 2.29271531e-01 7.64238387e-02 0.00000000e+00 1.91059604e-01 7.64238387e-02 1.14635751e-01 1.52847677e-01 7.64238387e-02 7.64238387e-02 0.00000000e+00 7.64238387e-02 3.82119194e-02 0.00000000e+00 1.52847677e-01 7.64238387e-02 1.14635751e-01 0.00000000e+00 0.00000000e+00 -1.14635751e-01 1.14635751e-01 1.14635751e-01 -3.82119194e-02 0.00000000e+00 1.14635751e-01 3.82119194e-02 3.82119194e-02 3.82119194e-02 7.64238387e-02 7.64238387e-02 2.29271531e-01 1.14635751e-01 0.00000000e+00 3.82119194e-02 0.00000000e+00 7.64238387e-02 7.64238387e-02 1.14635751e-01 3.82119194e-02 1.14635751e-01 1.14635751e-01 7.64238387e-02 -3.82119194e-02 0.00000000e+00 3.82119194e-02 1.52847677e-01 7.64238387e-02 1.52847677e-01 1.14635751e-01 7.64238387e-02 7.64238387e-02 3.82119194e-02 7.64238387e-02 3.82119194e-02 0.00000000e+00 1.91059604e-01 3.82119194e-02 3.82119194e-02 7.64238387e-02 0.00000000e+00 0.00000000e+00 1.14635751e-01 7.64238387e-02 1.14635751e-01 0.00000000e+00 3.82119194e-02 3.82119194e-02 3.82119194e-02 -3.82119194e-02 3.82119194e-02 1.91059604e-01 2.67483443e-01 1.91059604e-01 -7.64238387e-02 7.64238387e-02 7.64238387e-02 -7.64238387e-02 3.82119194e-02 3.82119194e-02 7.64238387e-02 0.00000000e+00 0.00000000e+00 1.14635751e-01 1.14635751e-01 2.29271531e-01 1.91059604e-01 -3.82119194e-02 7.64238387e-02 7.64238387e-02 3.82119194e-02 7.64238387e-02 0.00000000e+00 0.00000000e+00 7.64238387e-02 1.91059604e-01 0.00000000e+00 7.64238387e-02 1.52847677e-01 3.82119194e-02 1.14635751e-01 1.14635751e-01 1.91059604e-01 3.82119194e-02 3.82119194e-02 7.64238387e-02 -3.82119194e-02 0.00000000e+00 1.14635751e-01 7.64238387e-02 -3.82119194e-02 3.82119194e-02 3.82119194e-02 1.52847677e-01 1.14635751e-01 2.67483443e-01 7.64238387e-02 1.52847677e-01 1.52847677e-01 -3.82119194e-02 1.14635751e-01 3.82119194e-02 0.00000000e+00 3.82119194e-02 3.82119194e-02 1.14635751e-01 1.14635751e-01 7.64238387e-02 0.00000000e+00 7.64238387e-02 0.00000000e+00 1.52847677e-01 1.52847677e-01 0.00000000e+00 1.14635751e-01 1.52847677e-01 3.82119194e-02 -3.82119194e-02 1.14635751e-01 1.14635751e-01 1.14635751e-01 1.52847677e-01 1.52847677e-01 7.64238387e-02 3.82119194e-02 -3.82119194e-02 1.14635751e-01 1.14635751e-01 7.64238387e-02 -3.82119194e-02 3.05695385e-01 -3.82119194e-02 1.14635751e-01 7.64238387e-02 3.82119194e-02 7.64238387e-02 0.00000000e+00 1.14635751e-01 1.14635751e-01 -3.82119194e-02 2.29271531e-01 2.29271531e-01 7.64238387e-02 -7.64238387e-02 3.05695385e-01 1.52847677e-01 7.64238387e-02 -3.82119194e-02 -3.82119194e-02 0.00000000e+00 3.82119194e-02 0.00000000e+00 0.00000000e+00 1.14635751e-01 7.64238387e-02 3.82119194e-02 3.82119194e-02 3.82119194e-02 0.00000000e+00 7.64238387e-02 1.14635751e-01 1.14635751e-01 1.14635751e-01 1.52847677e-01 0.00000000e+00 -3.82119194e-02 3.82119194e-02 3.82119194e-02 1.91059604e-01 0.00000000e+00 1.52847677e-01 1.14635751e-01 0.00000000e+00 7.64238387e-02 7.64238387e-02 3.82119194e-02 0.00000000e+00 1.52847677e-01 0.00000000e+00 7.64238387e-02 0.00000000e+00 1.14635751e-01 7.64238387e-02 -3.82119194e-02 3.82119194e-02 1.14635751e-01 0.00000000e+00 7.64238387e-02 0.00000000e+00 1.14635751e-01 3.82119194e-02 -3.82119194e-02 3.82119194e-02 7.64238387e-02 0.00000000e+00 -3.82119194e-02 3.82119194e-02 1.52847677e-01 -3.82119194e-02 1.52847677e-01 0.00000000e+00 1.14635751e-01 1.14635751e-01 7.64238387e-02 3.82119194e-02 7.64238387e-02 7.64238387e-02 0.00000000e+00 0.00000000e+00 0.00000000e+00 1.91059604e-01 7.64238387e-02 -3.82119194e-02 0.00000000e+00 7.64238387e-02 3.82119194e-02 3.82119194e-02 1.52847677e-01 -3.82119194e-02 -7.64238387e-02 3.82119194e-02 0.00000000e+00 1.14635751e-01 0.00000000e+00 -3.82119194e-02 7.64238387e-02 1.14635751e-01 1.91059604e-01 1.14635751e-01 1.14635751e-01 7.64238387e-02 1.14635751e-01 1.52847677e-01 -3.82119194e-02 -3.82119194e-02 1.52847677e-01 0.00000000e+00 1.91059604e-01 1.52847677e-01 -3.82119194e-02 3.82119194e-02 7.64238387e-02 7.64238387e-02 7.64238387e-02 7.64238387e-02 1.91059604e-01 -3.82119194e-02 3.82119194e-02 0.00000000e+00 1.52847677e-01 3.82119194e-02 3.82119194e-02 7.64238387e-02 1.91059604e-01 1.14635751e-01 1.52847677e-01 7.64238387e-02 1.91059604e-01 1.14635751e-01 0.00000000e+00 -3.82119194e-02 -3.82119194e-02 -3.82119194e-02 3.82119194e-02 0.00000000e+00 1.14635751e-01 -3.82119194e-02 0.00000000e+00 1.52847677e-01 1.91059604e-01 7.64238387e-02 -3.82119194e-02 -3.82119194e-02 3.82119194e-02 3.82119194e-02 -7.64238387e-02 1.14635751e-01 1.91059604e-01 1.14635751e-01 1.52847677e-01 7.64238387e-02 1.52847677e-01 0.00000000e+00 7.64238387e-02 1.14635751e-01 1.14635751e-01 7.64238387e-02 7.64238387e-02 1.52847677e-01 1.14635751e-01 7.64238387e-02 7.64238387e-02 7.64238387e-02 -1.14635751e-01 7.64238387e-02 7.64238387e-02 7.64238387e-02 3.82119194e-02 0.00000000e+00 1.14635751e-01 0.00000000e+00 7.64238387e-02 7.64238387e-02 -3.82119194e-02 1.14635751e-01 3.82119194e-02 1.91059604e-01 1.52847677e-01 1.14635751e-01 3.82119194e-02 7.64238387e-02 7.64238387e-02 7.64238387e-02 7.64238387e-02 3.82119194e-02 1.14635751e-01 3.82119194e-02 3.82119194e-02 1.14635751e-01 0.00000000e+00 3.82119194e-02 1.52847677e-01 7.64238387e-02 1.52847677e-01 1.14635751e-01 1.14635751e-01 7.64238387e-02 7.64238387e-02 0.00000000e+00 7.64238387e-02 1.91059604e-01 1.14635751e-01 0.00000000e+00 2.29271531e-01 1.14635751e-01 2.29271531e-01 2.29271531e-01 1.91059604e-01 0.00000000e+00 0.00000000e+00 1.52847677e-01 3.82119194e-02 7.64238387e-02 1.14635751e-01 -7.64238387e-02 1.14635751e-01 -7.64238387e-02 0.00000000e+00 1.14635751e-01 1.14635751e-01 1.14635751e-01 3.82119194e-02 1.52847677e-01 7.64238387e-02 0.00000000e+00 0.00000000e+00 3.82119194e-02 1.14635751e-01 0.00000000e+00 0.00000000e+00 1.52847677e-01 1.14635751e-01 -7.64238387e-02 3.82119194e-02 1.91059604e-01 -3.82119194e-02 7.64238387e-02 -3.82119194e-02 0.00000000e+00 1.14635751e-01 1.91059604e-01 3.82119194e-02 1.14635751e-01 -3.82119194e-02 3.82119194e-02 1.91059604e-01 7.64238387e-02 7.64238387e-02 -3.82119194e-02 3.82119194e-02 0.00000000e+00 3.82119194e-02 3.82119194e-02 1.14635751e-01 3.82119194e-02 0.00000000e+00 0.00000000e+00 3.82119194e-02 0.00000000e+00 -3.82119194e-02 1.14635751e-01 0.00000000e+00 7.64238387e-02 1.52847677e-01 -3.82119194e-02 3.82119194e-02 1.52847677e-01 3.82119194e-02 1.52847677e-01 3.82119194e-02 1.91059604e-01 1.14635751e-01 7.64238387e-02 7.64238387e-02 7.64238387e-02 0.00000000e+00 -3.82119194e-02 0.00000000e+00 1.91059604e-01 7.64238387e-02 7.64238387e-02 7.64238387e-02 1.14635751e-01 1.14635751e-01 7.64238387e-02 7.64238387e-02 1.52847677e-01 1.14635751e-01 7.64238387e-02 3.82119194e-02 3.82119194e-02 1.91059604e-01 -3.82119194e-02 -3.82119194e-02 2.29271531e-01 3.82119194e-02 7.64238387e-02 3.82119194e-02 3.82119194e-02 3.82119194e-02 7.64238387e-02 -3.82119194e-02 1.52847677e-01 1.14635751e-01 3.82119194e-02 7.64238387e-02 0.00000000e+00 -7.64238387e-02 1.52847677e-01 1.52847677e-01 7.64238387e-02 3.82119194e-02 7.64238387e-02 1.52847677e-01 7.64238387e-02 0.00000000e+00 7.64238387e-02 1.14635751e-01 1.14635751e-01 -3.82119194e-02 7.64238387e-02 1.52847677e-01 2.29271531e-01 1.52847677e-01 7.64238387e-02 3.82119194e-02 3.82119194e-02 0.00000000e+00 0.00000000e+00 0.00000000e+00 -3.82119194e-02 -3.82119194e-02 0.00000000e+00 -3.82119194e-02 0.00000000e+00 3.82119194e-02 7.64238387e-02 0.00000000e+00 7.64238387e-02 3.82119194e-02 -3.82119194e-02 0.00000000e+00 7.64238387e-02 3.82119194e-02 7.64238387e-02 1.52847677e-01 1.14635751e-01 3.82119194e-02 3.05695385e-01 1.52847677e-01 1.52847677e-01 3.82119194e-02 1.14635751e-01 -7.64238387e-02 3.82119194e-02 0.00000000e+00 1.14635751e-01 7.64238387e-02 7.64238387e-02 7.64238387e-02 3.82119194e-02 7.64238387e-02 7.64238387e-02 3.82119194e-02 7.64238387e-02 7.64238387e-02 1.14635751e-01 1.14635751e-01 0.00000000e+00 1.14635751e-01 1.14635751e-01 3.82119194e-02 2.29271531e-01 0.00000000e+00 0.00000000e+00 7.64238387e-02 7.64238387e-02 7.64238387e-02 3.82119194e-02 7.64238387e-02 1.14635751e-01 -3.82119194e-02 -3.82119194e-02 7.64238387e-02 7.64238387e-02 0.00000000e+00 3.82119194e-02 7.64238387e-02 7.64238387e-02 3.82119194e-02 3.82119194e-02 7.64238387e-02 3.82119194e-02 1.14635751e-01 7.64238387e-02 1.52847677e-01 1.14635751e-01 7.64238387e-02 0.00000000e+00 3.82119194e-02 7.64238387e-02 7.64238387e-02 1.52847677e-01 0.00000000e+00 1.14635751e-01 7.64238387e-02 3.82119194e-02 0.00000000e+00 1.14635751e-01 0.00000000e+00 3.82119194e-02 3.82119194e-02 3.82119194e-02 1.91059604e-01 3.82119194e-02 1.14635751e-01 0.00000000e+00 1.91059604e-01 7.64238387e-02 3.82119194e-02 0.00000000e+00 2.29271531e-01 -3.82119194e-02 -3.82119194e-02 3.82119194e-02 0.00000000e+00 7.64238387e-02 1.52847677e-01 3.82119194e-02 1.52847677e-01 0.00000000e+00 1.91059604e-01 7.64238387e-02 7.64238387e-02 3.05695385e-01 3.82119194e-02 1.14635751e-01 1.14635751e-01 1.91059604e-01 0.00000000e+00 1.14635751e-01 1.52847677e-01 1.52847677e-01 3.82119194e-02 3.82119194e-02 0.00000000e+00 3.82119194e-02 7.64238387e-02 1.52847677e-01 1.52847677e-01 1.52847677e-01 -3.82119194e-02 7.64238387e-02 -7.64238387e-02 7.64238387e-02 1.52847677e-01 1.14635751e-01 7.64238387e-02 1.52847677e-01 1.52847677e-01 1.14635751e-01 7.64238387e-02 7.64238387e-02 1.52847677e-01 3.05695385e-01 -3.82119194e-02 3.05695385e-01 7.64238387e-02 3.82119194e-02 1.91059604e-01 0.00000000e+00 1.52847677e-01 1.14635751e-01 3.82119194e-02 1.91059604e-01 -3.82119194e-02 1.14635751e-01 7.64238387e-02 -7.64238387e-02 1.14635751e-01 3.82119194e-02 7.64238387e-02 0.00000000e+00 1.91059604e-01 7.64238387e-02 0.00000000e+00 -3.82119194e-02 7.64238387e-02 1.14635751e-01 2.29271531e-01 3.82119194e-02 0.00000000e+00 0.00000000e+00 1.14635751e-01 1.52847677e-01 1.14635751e-01 1.14635751e-01 1.52847677e-01 -7.64238387e-02 0.00000000e+00 3.82119194e-02 7.64238387e-02 1.14635751e-01 0.00000000e+00 0.00000000e+00 1.91059604e-01 7.64238387e-02 1.52847677e-01 7.64238387e-02 1.52847677e-01 1.14635751e-01 1.14635751e-01 1.52847677e-01 1.14635751e-01 -3.82119194e-02 1.91059604e-01 1.14635751e-01 3.82119194e-02 1.14635751e-01 3.82119194e-02 2.67483443e-01 7.64238387e-02 3.82119194e-02 7.64238387e-02 1.91059604e-01 1.14635751e-01 3.82119194e-02 1.91059604e-01 0.00000000e+00 -3.82119194e-02 0.00000000e+00 -3.82119194e-02 0.00000000e+00 0.00000000e+00 
      </Histogram>
    </PDF>
  </MVAPdfs>
  <Weights NTrees="2000" AnalysisType="1">
    <BinaryTree type="DecisionTree" boostWeight="1.0000000000000000e+00" itree="0">
      <Node pos="s" depth="0" NCoef="0" IVar="0" Cut="2.8217304497957230e-02" cType="1" res="1.4422392472624779e-02" rms="4.9979194998741150e-01" purity="5.1442235708236694e-01" nType="0">
        <Node pos="l" depth="1" NCoef="0" IVar="-1" Cut="0.0000000000000000e+00" cType="1" res="3.5523537546396255e-02" rms="4.4892519712448120e-01" purity="7.2015035152435303e-01" nType="-99"/>
        <Node pos="r" depth="1" NCoef="0" IVar="6" Cut="5.0566088408231735e-02" cType="1" res="-3.4713706374168396e-01" rms="3.5985532402992249e-01" purity="1.5286293625831604e-01" nType="0">
          <Node pos="l" depth="2" NCoef="0" IVar="-1" Cut="0.0000000000000000e+00" cType="1" res="-2.6633787900209427e-02" rms="4.5160603523254395e-01" purity="2.8540271520614624e-01" nType="-99"/>
          <Node pos="r" depth="2" NCoef="0" IVar="-1" Cut="0.0000000000000000e+00" cType="1" res="-4.7981712967157364e-02" rms="2.5339239835739136e-01" purity="6.8963699042797089e-02" nType="-99"/>
        </Node>
      </Node>
    </BinaryTree>
    <BinaryTree type="DecisionTree" boostWeight="1.0000000000000000e+00" itree="1">
      <Node pos="s" depth="0" NCoef="0" IVar="0" Cut="2.7358207851648331e-02" cType="1" res="1.0302024893462658e-02" rms="4.8976764082908630e-01" purity="5.1442235708236694e-01" nType="0">
        <Node pos="l" depth="1" NCoef="0" IVar="-1" Cut="0.0000000000000000e+00" cType="1" res="3.5895671695470810e-02" rms="4.4010084867477417e-01" purity="7.3729991912841797e-01" nType="-99"/>
        <Node pos="r" depth="1" NCoef="0" IVar="6" Cut="4.2138408869504929e-02" cType="1" res="-3.0184838175773621e-01" rms="3.8212016224861145e-01" purity="1.8193283677101135e-01" nType="0">
          <Node pos="l" depth="2" NCoef="0" IVar="-1" Cut="0.0000000000000000e+00" cType="1" res="-1.8596246838569641e-02" rms="4.7340056300163269e-01" purity="3.4647822380065918e-01" nType="-99"/>
          <Node pos="r" depth="2" NCoef="0" IVar="-1" Cut="0.0000000000000000e+00" cType="1" res="-4.3942034244537354e-02" rms="2.8373861312866211e-01" purity="8.9475207030773163e-02" nType="-99"/>
        </Node>
      </Node>
    </BinaryTree>
    <BinaryTree type="DecisionTree" boostWeight="1.0000000000000000e+00" itree="2">
      <Node pos="s" depth="0" NCoef="0" IVar="0" Cut="2.8334455564618111e-02" cType="1" res="6.5490845590829849e-03" rms="4.8040279746055603e-01" purity="5.1442235708236694e-01" nType="0">
        <Node pos="l" depth="1" NCoef="0" IVar="-1" Cut="0.0000000000000000e+00" cType="1" res="2.9897172003984451e-02" rms="4.4846215844154358e-01" purity="7.1787619590759277e-01" nType="-99"/>
        <Node pos="r" depth="1" NCoef="0" IVar="6" Cut="5.8993771672248840e-02" cType="1" res="-3.1288468837738037e-01" rms="3.5361310839653015e-01" purity="1.4960747957229614e-01" nType="0">
          <Node pos="l" depth="2" NCoef="0" IVar="-1" Cut="0.0000000000000000e+00" cType="1" res="-2.5416471064090729e-02" rms="4.4177588820457458e-01" purity="2.6739206910133362e-01" nType="-99"/>
          <Node pos="r" depth="2" NCoef="0" IVar="-1" Cut="0.0000000000000000e+00" cType="1" res="-4.4014777988195419e-02" rms="2.3843160271644592e-01" purity="6.0511238873004913e-02" nType="-99"/>
        </Node>
      </Node>
    </BinaryTree>
    <BinaryTree type="DecisionTree" boostWeight="1.0000000000000000e+00" itree="3">
      <Node pos="s" depth="0" NCoef="0" IVar="0" Cut="2.7045808732509613e-02" cType="1" res="3.3980424050241709e-03" rms="4.7251793742179871e-01" purity="5.1442235708236694e-01" nType="0">
        <Node pos="l" depth="1" NCoef="0" IVar="-1" Cut="0.0000000000000000e+00" cType="1" res="3.2043132930994034e-02" rms="4.3651732802391052e-01" purity="7.4382907152175903e-01" nType="-99"/>
        <Node pos="r" depth="1" NCoef="0" IVar="15" Cut="1.6008214950561523e+00" cType="1" res="-2.6126158237457275e-01" rms="3.8542959094047546e-01" purity="1.9477969408035278e-01" nType="0">
          <Node pos="l" depth="2" NCoef="0" IVar="-1" Cut="0.0000000000000000e+00" cType="1" res="-1.8184963613748550e-02" rms="4.5158615708351135e-01" purity="3.1650760769844055e-01" nType="-99"/>
          <Node pos="r" depth="2" NCoef="0" IVar="-1" Cut="0.0000000000000000e+00" cType="1" res="-4.2198475450277328e-02" rms="2.6719868183135986e-01" purity="8.1208549439907074e-02" nType="-99"/>
        </Node>
      </Node>
    </BinaryTree>
    <BinaryTree type="DecisionTree" boostWeight="1.0000000000000000e+00" itree="4">
      <Node pos="s" depth="0" NCoef="0" IVar="6" Cut="5.0566088408231735e-02" cType="1" res="4.9341388512402773e-04" rms="4.6490472555160522e-01" purity="5.1442235708236694e-01" nType="0">
        <Node pos="l" depth="1" NCoef="0" IVar="-1" Cut="0.0000000000000000e+00" cType="1" res="2.6072120293974876e-02" rms="4.3596360087394714e-01" purity="6.9925224781036377e-01" nType="-99"/>
        <Node pos="r" depth="1" NCoef="0" IVar="15" Cut="1.3397275209426880e+00" cType="1" res="-2.8410944342613220e-01" rms="3.6799129843711853e-01" purity="1.8764942884445190e-01" nType="0">
          <Node pos="l" depth="2" NCoef="0" IVar="-1" Cut="0.0000000000000000e+00" cType="1" res="-2.0540799945592880e-02" rms="4.4005492329597473e-01" purity="3.2455733418464661e-01" nType="-99"/>
          <Node pos="r" depth="2" NCoef="0" IVar="-1" Cut="0.0000000000000000e+00" cType="1" res="-4.2461976408958435e-02" rms="2.8206783533096313e-01" purity="9.6959322690963745e-02" nType="-99"/>
        </Node>
      </Node>
    </BinaryTree>
    <BinaryTree type="DecisionTree" boostWeight="1.0000000000000000e+00" itree="5">
      <Node pos="s" depth="0" NCoef="0" IVar="0" Cut="2.8920203447341919e-02" cType="1" res="-1.7542124260216951e-03" rms="4.5822498202323914e-01" purity="5.1442235708236694e-01" nType="0">
        <Node pos="l" depth="1" NCoef="0" IVar="-1" Cut="0.0000000000000000e+00" cType="1" res="2.3438807576894760e-02" rms="4.4424775242805481e-01" purity="7.0702707767486572e-01" nType="-99"/>
        <Node pos="r" depth="1" NCoef="0" IVar="0" Cut="3.4756716340780258e-02" cType="1" res="-2.8784644603729248e-01" rms="3.3362704515457153e-01" purity="1.3565574586391449e-01" nType="0">
          <Node pos="l" depth="2" NCoef="0" IVar="-1" Cut="0.0000000000000000e+00" cType="1" res="-2.4800281971693039e-02" rms="4.0780013799667358e-01" purity="2.2697281837463379e-01" nType="-99"/>
          <Node pos="r" depth="2" NCoef="0" IVar="-1" Cut="0.0000000000000000e+00" cType="1" res="-4.0909618139266968e-02" rms="2.3704643547534943e-01" purity="6.2401726841926575e-02" nType="-99"/>
        </Node>
      </Node>
    </BinaryTree>
    <BinaryTree type="DecisionTree" boostWeight="1.0000000000000000e+00" itree="6">
      <Node pos="s" depth="0" NCoef="0" IVar="6" Cut="4.2138408869504929e-02" cType="1" res="-3.8446022663265467e-03" rms="4.5235687494277954e-01" purity="5.1442235708236694e-01" nType="0">
        <Node pos="l" depth="1" NCoef="0" IVar="-1" Cut="0.0000000000000000e+00" cType="1" res="2.5921832770109177e-02" rms="4.2540287971496582e-01" purity="7.1598315238952637e-01" nType="-99"/>
        <Node pos="r" depth="1" NCoef="0" IVar="15" Cut="1.4955080747604370e+00" cType="1" res="-2.4116343259811401e-01" rms="3.8085544109344482e-01" purity="2.1699690818786621e-01" nType="0">
          <Node pos="l" depth="2" NCoef="0" IVar="-1" Cut="0.0000000000000000e+00" cType="1" res="-1.6947794705629349e-02" rms="4.3973863124847412e-01" purity="3.4747844934463501e-01" nType="-99"/>
          <Node pos="r" depth="2" NCoef="0" IVar="-1" Cut="0.0000000000000000e+00" cType="1" res="-4.0036484599113464e-02" rms="2.8798454999923706e-01" purity="1.0469032824039459e-01" nType="-99"/>
        </Node>
      </Node>
    </BinaryTree>
    <BinaryTree type="DecisionTree" boostWeight="1.0000000000000000e+00" itree="7">
      <Node pos="s" depth="0" NCoef="0" IVar="0" Cut="2.6811510324478149e-02" cType="1" res="-5.6571285240352154e-03" rms="4.4640749692916870e-01" purity="5.1442235708236694e-01" nType="0">
        <Node pos="l" depth="1" NCoef="0" IVar="-1" Cut="0.0000000000000000e+00" cType="1" res="2.6912996545433998e-02" rms="4.2434203624725342e-01" purity="7.4901586771011353e-01" nType="-99"/>
        <Node pos="r" depth="1" NCoef="0" IVar="15" Cut="1.4776825904846191e+00" cType="1" res="-2.2048522531986237e-01" rms="3.7840884923934937e-01" purity="2.0646870136260986e-01" nType="0">
          <Node pos="l" depth="2" NCoef="0" IVar="-1" Cut="0.0000000000000000e+00" cType="1" res="-1.3638046570122242e-02" rms="4.4507631659507751e-01" purity="3.4308120608329773e-01" nType="-99"/>
          <Node pos="r" depth="2" NCoef="0" IVar="-1" Cut="0.0000000000000000e+00" cType="1" res="-3.7498813122510910e-02" rms="2.7915260195732117e-01" purity="9.4804152846336365e-02" nType="-99"/>
        </Node>
      </Node>
    </BinaryTree>
    <BinaryTree type="DecisionTree" boostWeight="1.0000000000000000e+00" itree="8">
      <Node pos="s" depth="0" NCoef="0" IVar="6" Cut="5.8993771672248840e-02" cType="1" res="-7.4854167178273201e-03" rms="4.4072079658508301e-01" purity="5.1442235708236694e-01" nType="0">
        <Node pos="l" depth="1" NCoef="0" IVar="-1" Cut="0.0000000000000000e+00" cType="1" res="1.9071858376264572e-02" rms="4.2921337485313416e-01" purity="6.8364483118057251e-01" nType="-99"/>
        <Node pos="r" depth="1" NCoef="0" IVar="11" Cut="1.8814554810523987e-01" cType="0" res="-2.6407891511917114e-01" rms="3.4255349636077881e-01" purity="1.6391195356845856e-01" nType="0">
          <Node pos="l" depth="2" NCoef="0" IVar="-1" Cut="0.0000000000000000e+00" cType="1" res="-2.5513868778944016e-02" rms="3.8451141119003296e-01" purity="2.3164299130439758e-01" nType="-99"/>
          <Node pos="r" depth="2" NCoef="0" IVar="-1" Cut="0.0000000000000000e+00" cType="1" res="-4.3406724929809570e-02" rms="2.2244518995285034e-01" purity="5.3789958357810974e-02" nType="-99"/>
        </Node>
      </Node>
    </BinaryTree>
    <BinaryTree type="DecisionTree" boostWeight="1.0000000000000000e+00" itree="9">
      <Node pos="s" depth="0" NCoef="0" IVar="17" Cut="-9.0935872867703438e-03" cType="0" res="-8.6938431486487389e-03" rms="4.3604493141174316e-01" purity="5.1442235708236694e-01" nType="0">
        <Node pos="l" depth="1" NCoef="0" IVar="-1" Cut="0.0000000000000000e+00" cType="1" res="2.1287979558110237e-02" rms="4.0646418929100037e-01" purity="6.7919462919235229e-01" nType="-99"/>
        <Node pos="r" depth="1" NCoef="0" IVar="13" Cut="2.4987505748867989e-03" cType="1" res="-2.3212485015392303e-01" rms="3.8708981871604919e-01" purity="2.4724100530147552e-01" nType="0">
          <Node pos="l" depth="2" NCoef="0" IVar="-1" Cut="0.0000000000000000e+00" cType="1" res="-2.4481168016791344e-02" rms="4.0406107902526855e-01" purity="2.9705166816711426e-01" nType="-99"/>
          <Node pos="r" depth="2" NCoef="0" IVar="-1" Cut="0.0000000000000000e+00" cType="1" res="-4.7615442425012589e-02" rms="2.5482943654060364e-01" purity="7.0632405579090118e-02" nType="-99"/>
        </Node>
      </Node>
    </BinaryTree>
    <BinaryTree type="DecisionTree" boostWeight="1.0000000000000000e+00" itree="10">
      <Node pos="s" depth="0" NCoef="0" IVar="0" Cut="2.8998302295804024e-02" cType="1" res="-9.6414769068360329e-03" rms="4.3115752935409546e-01" purity="5.1442235708236694e-01" nType="0">
        <Node pos="l" depth="1" NCoef="0" IVar="-1" Cut="0.0000000000000000e+00" cType="1" res="1.8414640799164772e-02" rms="4.2902719974517822e-01" purity="7.0553821325302124e-01" nType="-99"/>
        <Node pos="r" depth="1" NCoef="0" IVar="0" Cut="3.4900702536106110e-02" cType="1" res="-2.4774585664272308e-01" rms="3.2305985689163208e-01" purity="1.3401633501052856e-01" nType="0">
          <Node pos="l" depth="2" NCoef="0" IVar="-1" Cut="0.0000000000000000e+00" cType="1" res="-2.1872365847229958e-02" rms="3.9419299364089966e-01" purity="2.2324810922145844e-01" nType="-99"/>
          <Node pos="r" depth="2" NCoef="0" IVar="-1" Cut="0.0000000000000000e+00" cType="1" res="-3.7464383989572525e-02" rms="2.3225565254688263e-01" purity="6.1302140355110168e-02" nType="-99"/>
        </Node>
      </Node>
    </BinaryTree>
    <BinaryTree type="DecisionTree" boostWeight="1.0000000000000000e+00" itree="11">
      <Node pos="s" depth="0" NCoef="0" IVar="6" Cut="3.3710725605487823e-02" cType="1" res="-1.0756888426840305e-02" rms="4.2698705196380615e-01" purity="5.1442235708236694e-01" nType="0">
        <Node pos="l" depth="1" NCoef="0" IVar="-1" Cut="0.0000000000000000e+00" cType="1" res="2.3945400491356850e-02" rms="4.0406471490859985e-01" purity="7.3509931564331055e-01" nType="-99"/>
        <Node pos="r" depth="1" NCoef="0" IVar="11" Cut="1.7644356191158295e-01" cType="0" res="-1.8668757379055023e-01" rms="3.8413098454475403e-01" purity="2.5433406233787537e-01" nType="0">
          <Node pos="l" depth="2" NCoef="0" IVar="-1" Cut="0.0000000000000000e+00" cType="1" res="-1.5025705099105835e-02" rms="4.1278782486915588e-01" purity="3.4208101034164429e-01" nType="-99"/>
          <Node pos="r" depth="2" NCoef="0" IVar="-1" Cut="0.0000000000000000e+00" cType="1" res="-4.0280971676111221e-02" rms="2.7053555846214294e-01" purity="9.2187024652957916e-02" nType="-99"/>
        </Node>
      </Node>
    </BinaryTree>
    <BinaryTree type="DecisionTree" boostWeight="1.0000000000000000e+00" itree="12">
      <Node pos="s" depth="0" NCoef="0" IVar="17" Cut="-8.4154820069670677e-03" cType="0" res="-1.1742939241230488e-02" rms="4.2236921191215515e-01" purity="5.1442235708236694e-01" nType="0">
        <Node pos="l" depth="1" NCoef="0" IVar="-1" Cut="0.0000000000000000e+00" cType="1" res="1.9849229604005814e-02" rms="3.9513874053955078e-01" purity="6.8397665023803711e-01" nType="-99"/>
        <Node pos="r" depth="1" NCoef="0" IVar="13" Cut="2.4987505748867989e-03" cType="1" res="-2.0991793274879456e-01" rms="3.8419058918952942e-01" purity="2.5461614131927490e-01" nType="0">
          <Node pos="l" depth="2" NCoef="0" IVar="-1" Cut="0.0000000000000000e+00" cType="1" res="-2.2379189729690552e-02" rms="3.9973679184913635e-01" purity="3.0485510826110840e-01" nType="-99"/>
          <Node pos="r" depth="2" NCoef="0" IVar="-1" Cut="0.0000000000000000e+00" cType="1" res="-4.5680373907089233e-02" rms="2.6118782162666321e-01" purity="7.3512330651283264e-02" nType="-99"/>
        </Node>
      </Node>
    </BinaryTree>
    <BinaryTree type="DecisionTree" boostWeight="1.0000000000000000e+00" itree="13">
      <Node pos="s" depth="0" NCoef="0" IVar="0" Cut="2.6538161560893059e-02" cType="1" res="-1.2337126769125462e-02" rms="4.1813105344772339e-01" purity="5.1442235708236694e-01" nType="0">
        <Node pos="l" depth="1" NCoef="0" IVar="-1" Cut="0.0000000000000000e+00" cType="1" res="2.2487675771117210e-02" rms="4.0478029847145081e-01" purity="7.5464022159576416e-01" nType="-99"/>
        <Node pos="r" depth="1" NCoef="0" IVar="0" Cut="3.2334260642528534e-02" cType="1" res="-1.8210127949714661e-01" rms="3.6853256821632385e-01" purity="2.2118353843688965e-01" nType="0">
          <Node pos="l" depth="2" NCoef="0" IVar="-1" Cut="0.0000000000000000e+00" cType="1" res="-1.1737198568880558e-02" rms="4.3914419412612915e-01" purity="3.7702038884162903e-01" nType="-99"/>
          <Node pos="r" depth="2" NCoef="0" IVar="-1" Cut="0.0000000000000000e+00" cType="1" res="-3.3659171313047409e-02" rms="2.6531866192817688e-01" purity="8.4834188222885132e-02" nType="-99"/>
        </Node>
      </Node>
    </BinaryTree>
    <BinaryTree type="DecisionTree" boostWeight="1.0000000000000000e+00" itree="14">
      <Node pos="s" depth="0" NCoef="0" IVar="17" Cut="-1.0449797846376896e-02" cType="0" res="-1.3280997984111309e-02" rms="4.1411060094833374e-01" purity="5.1442235708236694e-01" nType="0">
        <Node pos="l" depth="1" NCoef="0" IVar="-1" Cut="0.0000000000000000e+00" cType="1" res="1.6557699069380760e-02" rms="3.9404419064521790e-01" purity="6.7121213674545288e-01" nType="-99"/>
        <Node pos="r" depth="1" NCoef="0" IVar="11" Cut="1.7636743187904358e-01" cType="0" res="-2.1052546799182892e-01" rms="3.7365043163299561e-01" purity="2.3520699143409729e-01" nType="0">
          <Node pos="l" depth="2" NCoef="0" IVar="-1" Cut="0.0000000000000000e+00" cType="1" res="-2.1527193486690521e-02" rms="3.9912635087966919e-01" purity="3.0158770084381104e-01" nType="-99"/>
          <Node pos="r" depth="2" NCoef="0" IVar="-1" Cut="0.0000000000000000e+00" cType="1" res="-4.1213508695363998e-02" rms="2.7895084023475647e-01" purity="9.4989337027072906e-02" nType="-99"/>
        </Node>
      </Node>
    </BinaryTree>
    <BinaryTree type="DecisionTree" boostWeight="1.0000000000000000e+00" itree="15">
      <Node pos="s" depth="0" NCoef="0" IVar="6" Cut="5.8993771672248840e-02" cType="1" res="-1.3614805415272713e-02" rms="4.1053423285484314e-01" purity="5.1442235708236694e-01" nType="0">
        <Node pos="l" depth="1" NCoef="0" IVar="-1" Cut="0.0000000000000000e+00" cType="1" res="1.4980033040046692e-02" rms="4.0646770596504211e-01" purity="6.8364483118057251e-01" nType="-99"/>
        <Node pos="r" depth="1" NCoef="0" IVar="11" Cut="2.1382717788219452e-01" cType="0" res="-2.2354261577129364e-01" rms="3.3177396655082703e-01" purity="1.6391195356845856e-01" nType="0">
          <Node pos="l" depth="2" NCoef="0" IVar="-1" Cut="0.0000000000000000e+00" cType="1" res="-2.2233011201024055e-02" rms="3.7180107831954956e-01" purity="2.3481227457523346e-01" nType="-99"/>
          <Node pos="r" depth="2" NCoef="0" IVar="-1" Cut="0.0000000000000000e+00" cType="1" res="-3.9487261325120926e-02" rms="2.3474550247192383e-01" purity="5.9368964284658432e-02" nType="-99"/>
        </Node>
      </Node>
    </BinaryTree>
    <BinaryTree type="DecisionTree" boostWeight="1.0000000000000000e+00" itree="16">
      <Node pos="s" depth="0" NCoef="0" IVar="0" Cut="2.6616260409355164e-02" cType="1" res="-1.4041760005056858e-02" rms="4.0721848607063293e-01" purity="5.1442235708236694e-01" nType="0">
        <Node pos="l" depth="1" NCoef="0" IVar="-1" Cut="0.0000000000000000e+00" cType="1" res="1.9879888743162155e-02" rms="3.9938381314277649e-01" purity="7.5294226408004761e-01" nType="-99"/>
        <Node pos="r" depth="1" NCoef="0" IVar="0" Cut="3.2141070812940598e-02" cType="1" res="-1.6868995130062103e-01" rms="3.6143663525581360e-01" purity="2.1672275662422180e-01" nType="0">
          <Node pos="l" depth="2" NCoef="0" IVar="-1" Cut="0.0000000000000000e+00" cType="1" res="-1.0783148929476738e-02" rms="4.3329527974128723e-01" purity="3.7516233325004578e-01" nType="-99"/>
          <Node pos="r" depth="2" NCoef="0" IVar="-1" Cut="0.0000000000000000e+00" cType="1" res="-3.1975075602531433e-02" rms="2.6713809370994568e-01" purity="8.7032444775104523e-02" nType="-99"/>
        </Node>
      </Node>
    </BinaryTree>
    <BinaryTree type="DecisionTree" boostWeight="1.0000000000000000e+00" itree="17">
      <Node pos="s" depth="0" NCoef="0" IVar="17" Cut="-6.3811661675572395e-03" cType="0" res="-1.4664146117866039e-02" rms="4.0392678976058960e-01" purity="5.1442235708236694e-01" nType="0">
        <Node pos="l" depth="1" NCoef="0" IVar="-1" Cut="0.0000000000000000e+00" cType="1" res="1.8637482076883316e-02" rms="3.7818339467048645e-01" purity="6.9714260101318359e-01" nType="-99"/>
        <Node pos="r" depth="1" NCoef="0" IVar="11" Cut="2.0419147610664368e-01" cType="0" res="-1.6842986643314362e-01" rms="3.8318389654159546e-01" purity="2.8045052289962769e-01" nType="0">
          <Node pos="l" depth="2" NCoef="0" IVar="-1" Cut="0.0000000000000000e+00" cType="1" res="-1.5404709614813328e-02" rms="4.0637087821960449e-01" purity="3.6393046379089355e-01" nType="-99"/>
          <Node pos="r" depth="2" NCoef="0" IVar="-1" Cut="0.0000000000000000e+00" cType="1" res="-3.8238283246755600e-02" rms="2.9743975400924683e-01" purity="1.1862532049417496e-01" nType="-99"/>
        </Node>
      </Node>
    </BinaryTree>
    <BinaryTree type="DecisionTree" boostWeight="1.0000000000000000e+00" itree="18">
      <Node pos="s" depth="0" NCoef="0" IVar="6" Cut="5.0566088408231735e-02" cType="1" res="-1.4864797703921795e-02" rms="4.0054821968078613e-01" purity="5.1442235708236694e-01" nType="0">
        <Node pos="l" depth="1" NCoef="0" IVar="-1" Cut="0.0000000000000000e+00" cType="1" res="1.4902772381901741e-02" rms="3.9705640077590942e-01" purity="6.9925224781036377e-01" nType="-99"/>
        <Node pos="r" depth="1" NCoef="0" IVar="11" Cut="1.8715779483318329e-01" cType="0" res="-1.9077418744564056e-01" rms="3.4192985296249390e-01" purity="1.8764942884445190e-01" nType="0">
          <Node pos="l" depth="2" NCoef="0" IVar="-1" Cut="0.0000000000000000e+00" cType="1" res="-1.8908504396677017e-02" rms="3.7847974896430969e-01" purity="2.6137703657150269e-01" nType="-99"/>
          <Node pos="r" depth="2" NCoef="0" IVar="-1" Cut="0.0000000000000000e+00" cType="1" res="-3.7720151245594025e-02" rms="2.4174052476882935e-01" purity="6.4748629927635193e-02" nType="-99"/>
        </Node>
      </Node>
    </BinaryTree>
    <BinaryTree type="DecisionTree" boostWeight="1.0000000000000000e+00" itree="19">
      <Node pos="s" depth="0" NCoef="0" IVar="17" Cut="-1.1127903126180172e-02" cType="0" res="-1.5105306170880795e-02" rms="3.9766755700111389e-01" purity="5.1442235708236694e-01" nType="0">
        <Node pos="l" depth="1" NCoef="0" IVar="-1" Cut="0.0000000000000000e+00" cType="1" res="1.3628117740154266e-02" rms="3.8277813792228699e-01" purity="6.6676002740859985e-01" nType="-99"/>
        <Node pos="r" depth="1" NCoef="0" IVar="13" Cut="2.4987505748867989e-03" cType="1" res="-1.8868461251258850e-01" rms="3.6559152603149414e-01" purity="2.2932882606983185e-01" nType="0">
          <Node pos="l" depth="2" NCoef="0" IVar="-1" Cut="0.0000000000000000e+00" cType="1" res="-2.1078975871205330e-02" rms="3.8194769620895386e-01" purity="2.7806302905082703e-01" nType="-99"/>
          <Node pos="r" depth="2" NCoef="0" IVar="-1" Cut="0.0000000000000000e+00" cType="1" res="-4.2892739176750183e-02" rms="2.5697264075279236e-01" purity="6.4740322530269623e-02" nType="-99"/>
        </Node>
      </Node>
    </BinaryTree>
    <BinaryTree type="DecisionTree" boostWeight="1.0000000000000000e+00" itree="20">
      <Node pos="s" depth="0" NCoef="0" IVar="6" Cut="3.3710725605487823e-02" cType="1" res="-1.5094484202563763e-02" rms="3.9491042494773865e-01" purity="5.1442235708236694e-01" nType="0">
        <Node pos="l" depth="1" NCoef="0" IVar="-1" Cut="0.0000000000000000e+00" cType="1" res="1.8197232857346535e-02" rms="3.8281258940696716e-01" purity="7.3509931564331055e-01" nType="-99"/>
        <Node pos="r" depth="1" NCoef="0" IVar="11" Cut="1.7445404827594757e-01" cType="0" res="-1.4979310333728790e-01" rms="3.6538365483283997e-01" purity="2.5433406233787537e-01" nType="0">
          <Node pos="l" depth="2" NCoef="0" IVar="-1" Cut="0.0000000000000000e+00" cType="1" res="-1.2554664164781570e-02" rms="3.9300936460494995e-01" purity="3.4163874387741089e-01" nType="-99"/>
          <Node pos="r" depth="2" NCoef="0" IVar="-1" Cut="0.0000000000000000e+00" cType="1" res="-3.6352790892124176e-02" rms="2.6778703927993774e-01" purity="9.1315157711505890e-02" nType="-99"/>
        </Node>
      </Node>
    </BinaryTree>
    <BinaryTree type="DecisionTree" boostWeight="1.0000000000000000e+00" itree="21">
      <Node pos="s" depth="0" NCoef="0" IVar="0" Cut="2.9310701414942741e-02" cType="1" res="-1.5324257314205170e-02" rms="3.9198911190032959e-01" purity="5.1442235708236694e-01" nType="0">
        <Node pos="l" depth="1" NCoef="0" IVar="-1" Cut="0.0000000000000000e+00" cType="1" res="1.2180651538074017e-02" rms="4.0088158845901489e-01" purity="6.9906932115554810e-01" nType="-99"/>
        <Node pos="r" depth="1" NCoef="0" IVar="0" Cut="3.5476628690958023e-02" cType="1" res="-1.9061698019504547e-01" rms="3.0576112866401672e-01" purity="1.2765777111053467e-01" nType="0">
          <Node pos="l" depth="2" NCoef="0" IVar="-1" Cut="0.0000000000000000e+00" cType="1" res="-1.8717346712946892e-02" rms="3.6956006288528442e-01" purity="2.0944979786872864e-01" nType="-99"/>
          <Node pos="r" depth="2" NCoef="0" IVar="-1" Cut="0.0000000000000000e+00" cType="1" res="-3.3439043909311295e-02" rms="2.2606363892555237e-01" purity="5.7464361190795898e-02" nType="-99"/>
        </Node>
      </Node>
    </BinaryTree>
    <BinaryTree type="DecisionTree" boostWeight="1.0000000000000000e+00" itree="22">
      <Node pos="s" depth="0" NCoef="0" IVar="17" Cut="-1.3162218965590000e-02" cType="0" res="-1.5461452305316925e-02" rms="3.8972315192222595e-01" purity="5.1442235708236694e-01" nType="0">
        <Node pos="l" depth="1" NCoef="0" IVar="-1" Cut="0.0000000000000000e+00" cType="1" res="1.1429377831518650e-02" rms="3.7829476594924927e-01" purity="6.5371751785278320e-01" nType="-99"/>
        <Node pos="r" depth="1" NCoef="0" IVar="13" Cut="2.4987505748867989e-03" cType="1" res="-1.8692186474800110e-01" rms="3.5738813877105713e-01" purity="2.1453633904457092e-01" nType="0">
          <Node pos="l" depth="2" NCoef="0" IVar="-1" Cut="0.0000000000000000e+00" cType="1" res="-2.1719155833125114e-02" rms="3.7504085898399353e-01" purity="2.6225417852401733e-01" nType="-99"/>
          <Node pos="r" depth="2" NCoef="0" IVar="-1" Cut="0.0000000000000000e+00" cType="1" res="-4.1921373456716537e-02" rms="2.5594580173492432e-01" purity="6.1387781053781509e-02" nType="-99"/>
        </Node>
      </Node>
    </BinaryTree>
    <BinaryTree type="DecisionTree" boostWeight="1.0000000000000000e+00" itree="23">
      <Node pos="s" depth="0" NCoef="0" IVar="11" Cut="1.4567150175571442e-01" cType="0" res="-1.5296473167836666e-02" rms="3.8737624883651733e-01" purity="5.1442235708236694e-01" nType="0">
        <Node pos="l" depth="1" NCoef="0" IVar="-1" Cut="0.0000000000000000e+00" cType="1" res="8.3276983350515366e-03" rms="3.8044008612632751e-01" purity="6.0679793357849121e-01" nType="-99"/>
        <Node pos="r" depth="1" NCoef="0" IVar="16" Cut="8.7111759185791016e-01" cType="0" res="-2.2765007615089417e-01" rms="3.3119410276412964e-01" purity="2.0155735313892365e-01" nType="0">
          <Node pos="l" depth="2" NCoef="0" IVar="-1" Cut="0.0000000000000000e+00" cType="1" res="-2.2655211389064789e-02" rms="3.6312958598136902e-01" purity="3.0188441276550293e-01" nType="-99"/>
          <Node pos="r" depth="2" NCoef="0" IVar="-1" Cut="0.0000000000000000e+00" cType="1" res="-4.4271156191825867e-02" rms="2.3335035145282745e-01" purity="5.1926665008068085e-02" nType="-99"/>
        </Node>
      </Node>
    </BinaryTree>
    <BinaryTree type="DecisionTree" boostWeight="1.0000000000000000e+00" itree="24">
      <Node pos="s" depth="0" NCoef="0" IVar="6" Cut="6.7421451210975647e-02" cType="1" res="-1.5023019164800644e-02" rms="3.8501390814781189e-01" purity="5.1442235708236694e-01" nType="0">
        <Node pos="l" depth="1" NCoef="0" IVar="-1" Cut="0.0000000000000000e+00" cType="1" res="1.0515213944017887e-02" rms="3.8937404751777649e-01" purity="6.6919904947280884e-01" nType="-99"/>
        <Node pos="r" depth="1" NCoef="0" IVar="11" Cut="2.6815372705459595e-01" cType="0" res="-1.9123764336109161e-01" rms="3.1002226471900940e-01" purity="1.4512920379638672e-01" nType="0">
          <Node pos="l" depth="2" NCoef="0" IVar="-1" Cut="0.0000000000000000e+00" cType="1" res="-2.1130308508872986e-02" rms="3.5484555363655090e-01" purity="2.1653938293457031e-01" nType="-99"/>
          <Node pos="r" depth="2" NCoef="0" IVar="-1" Cut="0.0000000000000000e+00" cType="1" res="-3.5532359033823013e-02" rms="2.3048703372478485e-01" purity="5.6311678141355515e-02" nType="-99"/>
        </Node>
      </Node>
    </BinaryTree>
    <BinaryTree type="DecisionTree" boostWeight="1.0000000000000000e+00" itree="25">
      <Node pos="s" depth="0" NCoef="0" IVar="0" Cut="2.6460062712430954e-02" cType="1" res="-1.4978398568928242e-02" rms="3.8292816281318665e-01" purity="5.1442235708236694e-01" nType="0">
        <Node pos="l" depth="1" NCoef="0" IVar="-1" Cut="0.0000000000000000e+00" cType="1" res="1.6501605510711670e-02" rms="3.8004675507545471e-01" purity="7.5603824853897095e-01" nType="-99"/>
        <Node pos="r" depth="1" NCoef="0" IVar="0" Cut="3.2713759690523148e-02" cType="1" res="-1.3593736290931702e-01" rms="3.4983777999877930e-01" purity="2.2569115459918976e-01" nType="0">
          <Node pos="l" depth="2" NCoef="0" IVar="-1" Cut="0.0000000000000000e+00" cType="1" res="-9.8546501249074936e-03" rms="4.1308790445327759e-01" purity="3.7476739287376404e-01" nType="-99"/>
          <Node pos="r" depth="2" NCoef="0" IVar="-1" Cut="0.0000000000000000e+00" cType="1" res="-2.9759649187326431e-02" rms="2.5769922137260437e-01" purity="8.1166684627532959e-02" nType="-99"/>
        </Node>
      </Node>
    </BinaryTree>
    <BinaryTree type="DecisionTree" boostWeight="1.0000000000000000e+00" itree="26">
      <Node pos="s" depth="0" NCoef="0" IVar="17" Cut="-5.7030608877539635e-03" cType="0" res="-1.5174223110079765e-02" rms="3.8072255253791809e-01" purity="5.1442235708236694e-01" nType="0">
        <Node pos="l" depth="1" NCoef="0" IVar="-1" Cut="0.0000000000000000e+00" cType="1" res="1.5956761315464973e-02" rms="3.5842442512512207e-01" purity="7.0182639360427856e-01" nType="-99"/>
        <Node pos="r" depth="1" NCoef="0" IVar="13" Cut="2.4987505748867989e-03" cType="1" res="-1.3402068614959717e-01" rms="3.7228512763977051e-01" purity="2.9121863842010498e-01" nType="0">
          <Node pos="l" depth="2" NCoef="0" IVar="-1" Cut="0.0000000000000000e+00" cType="1" res="-1.4416253194212914e-02" rms="3.8077560067176819e-01" purity="3.4409630298614502e-01" nType="-99"/>
          <Node pos="r" depth="2" NCoef="0" IVar="-1" Cut="0.0000000000000000e+00" cType="1" res="-4.1448820382356644e-02" rms="2.8173932433128357e-01" purity="8.4143310785293579e-02" nType="-99"/>
        </Node>
      </Node>
    </BinaryTree>
    <BinaryTree type="DecisionTree" boostWeight="1.0000000000000000e+00" itree="27">
      <Node pos="s" depth="0" NCoef="0" IVar="11" Cut="1.4567150175571442e-01" cType="0" res="-1.5060894191265106e-02" rms="3.7827402353286743e-01" purity="5.1442235708236694e-01" nType="0">
        <Node pos="l" depth="1" NCoef="0" IVar="-1" Cut="0.0000000000000000e+00" cType="1" res="7.5817569158971310e-03" rms="3.7358206510543823e-01" purity="6.0679793357849121e-01" nType="-99"/>
        <Node pos="r" depth="1" NCoef="0" IVar="16" Cut="8.7111759185791016e-01" cType="0" res="-2.0844213664531708e-01" rms="3.2649844884872437e-01" purity="2.0155735313892365e-01" nType="0">
          <Node pos="l" depth="2" NCoef="0" IVar="-1" Cut="0.0000000000000000e+00" cType="1" res="-2.1217538043856621e-02" rms="3.5761058330535889e-01" purity="3.0188441276550293e-01" nType="-99"/>
          <Node pos="r" depth="2" NCoef="0" IVar="-1" Cut="0.0000000000000000e+00" cType="1" res="-4.2597487568855286e-02" rms="2.3539534211158752e-01" purity="5.1926665008068085e-02" nType="-99"/>
        </Node>
      </Node>
    </BinaryTree>
    <BinaryTree type="DecisionTree" boostWeight="1.0000000000000000e+00" itree="28">
      <Node pos="s" depth="0" NCoef="0" IVar="6" Cut="6.7421451210975647e-02" cType="1" res="-1.4727894216775894e-02" rms="3.7623363733291626e-01" purity="5.1442235708236694e-01" nType="0">
        <Node pos="l" depth="1" NCoef="0" IVar="-1" Cut="0.0000000000000000e+00" cType="1" res="9.4973724335432053e-03" rms="3.8249379396438599e-01" purity="6.6919904947280884e-01" nType="-99"/>
        <Node pos="r" depth="1" NCoef="0" IVar="6" Cut="1.0939782112836838e-01" cType="1" res="-1.7389844357967377e-01" rms="3.0702650547027588e-01" purity="1.4512920379638672e-01" nType="0">
          <Node pos="l" depth="2" NCoef="0" IVar="-1" Cut="0.0000000000000000e+00" cType="1" res="-1.7460899427533150e-02" rms="3.5520303249359131e-01" purity="2.2414213418960571e-01" nType="-99"/>
          <Node pos="r" depth="2" NCoef="0" IVar="-1" Cut="0.0000000000000000e+00" cType="1" res="-3.1038347631692886e-02" rms="2.7000507712364197e-01" purity="1.0043935477733612e-01" nType="-99"/>
        </Node>
      </Node>
    </BinaryTree>
    <BinaryTree type="DecisionTree" boostWeight="1.0000000000000000e+00" itree="29">
      <Node pos="s" depth="0" NCoef="0" IVar="17" Cut="-1.4518429525196552e-02" cType="0" res="-1.4582407660782337e-02" rms="3.7450569868087769e-01" purity="5.1442235708236694e-01" nType="0">
        <Node pos="l" depth="1" NCoef="0" IVar="-1" Cut="0.0000000000000000e+00" cType="1" res="9.5009738579392433e-03" rms="3.6580890417098999e-01" purity="6.4637637138366699e-01" nType="-99"/>
        <Node pos="r" depth="1" NCoef="0" IVar="13" Cut="2.4987505748867989e-03" cType="1" res="-1.6838006675243378e-01" rms="3.4852808713912964e-01" purity="2.0670726895332336e-01" nType="0">
          <Node pos="l" depth="2" NCoef="0" IVar="-1" Cut="0.0000000000000000e+00" cType="1" res="-2.0557450130581856e-02" rms="3.6686563491821289e-01" purity="2.5430667400360107e-01" nType="-99"/>
          <Node pos="r" depth="2" NCoef="0" IVar="-1" Cut="0.0000000000000000e+00" cType="1" res="-3.9808072149753571e-02" rms="2.5483414530754089e-01" purity="5.8414477854967117e-02" nType="-99"/>
        </Node>
      </Node>
    </BinaryTree>
    <BinaryTree type="DecisionTree" boostWeight="1.0000000000000000e+00" itree="30">
      <Node pos="s" depth="0" NCoef="0" IVar="0" Cut="2.6225762441754341e-02" cType="1" res="-1.4319550246000290e-02" rms="3.7267962098121643e-01" purity="5.1442235708236694e-01" nType="0">
        <Node pos="l" depth="1" NCoef="0" IVar="-1" Cut="0.0000000000000000e+00" cType="1" res="1.5639726072549820e-02" rms="3.6967334151268005e-01" purity="7.6006555557250977e-01" nType="-99"/>
        <Node pos="r" depth="1" NCoef="0" IVar="4" Cut="1.8878284841775894e-02" cType="1" res="-1.1881251633167267e-01" rms="3.4739387035369873e-01" purity="2.4018533527851105e-01" nType="0">
          <Node pos="l" depth="2" NCoef="0" IVar="-1" Cut="0.0000000000000000e+00" cType="1" res="-5.7268184609711170e-03" rms="3.9638334512710571e-01" purity="3.8500759005546570e-01" nType="-99"/>
          <Node pos="r" depth="2" NCoef="0" IVar="-1" Cut="0.0000000000000000e+00" cType="1" res="-2.5864243507385254e-02" rms="3.0123361945152283e-01" purity="1.4912736415863037e-01" nType="-99"/>
        </Node>
      </Node>
    </BinaryTree>
    <BinaryTree type="DecisionTree" boostWeight="1.0000000000000000e+00" itree="31">
      <Node pos="s" depth="0" NCoef="0" IVar="11" Cut="1.6061767935752869e-01" cType="0" res="-1.4378543011844158e-02" rms="3.7082064151763916e-01" purity="5.1442235708236694e-01" nType="0">
        <Node pos="l" depth="1" NCoef="0" IVar="-1" Cut="0.0000000000000000e+00" cType="1" res="7.5442865490913391e-03" rms="3.6748224496841431e-01" purity="6.1091685295104980e-01" nType="-99"/>
        <Node pos="r" depth="1" NCoef="0" IVar="16" Cut="8.7111759185791016e-01" cType="0" res="-1.8442633748054504e-01" rms="3.2686224579811096e-01" purity="2.1644566953182220e-01" nType="0">
          <Node pos="l" depth="2" NCoef="0" IVar="-1" Cut="0.0000000000000000e+00" cType="1" res="-1.8562294542789459e-02" rms="3.5590484738349915e-01" purity="3.2092809677124023e-01" nType="-99"/>
          <Node pos="r" depth="2" NCoef="0" IVar="-1" Cut="0.0000000000000000e+00" cType="1" res="-4.1076824069023132e-02" rms="2.3759391903877258e-01" purity="5.3828477859497070e-02" nType="-99"/>
        </Node>
      </Node>
    </BinaryTree>
    <BinaryTree type="DecisionTree" boostWeight="1.0000000000000000e+00" itree="32">
      <Node pos="s" depth="0" NCoef="0" IVar="6" Cut="2.5283044204115868e-02" cType="1" res="-1.4049706049263477e-02" rms="3.6897385120391846e-01" purity="5.1442235708236694e-01" nType="0">
        <Node pos="l" depth="1" NCoef="0" IVar="-1" Cut="0.0000000000000000e+00" cType="1" res="1.7531311139464378e-02" rms="3.5474044084548950e-01" purity="7.5711196660995483e-01" nType="-99"/>
        <Node pos="r" depth="1" NCoef="0" IVar="11" Cut="1.8639111518859863e-01" cType="0" res="-1.0339436680078506e-01" rms="3.5799735784530640e-01" purity="3.0074888467788696e-01" nType="0">
          <Node pos="l" depth="2" NCoef="0" IVar="-1" Cut="0.0000000000000000e+00" cType="1" res="-8.4553863853216171e-03" rms="3.8288041949272156e-01" purity="3.9819434285163879e-01" nType="-99"/>
          <Node pos="r" depth="2" NCoef="0" IVar="-1" Cut="0.0000000000000000e+00" cType="1" res="-3.0983306467533112e-02" rms="2.8139486908912659e-01" purity="1.1800543963909149e-01" nType="-99"/>
        </Node>
      </Node>
    </BinaryTree>
    <BinaryTree type="DecisionTree" boostWeight="1.0000000000000000e+00" itree="33">
      <Node pos="s" depth="0" NCoef="0" IVar="17" Cut="-5.7030608877539635e-03" cType="0" res="-1.4038272202014923e-02" rms="3.6700123548507690e-01" purity="5.1442235708236694e-01" nType="0">
        <Node pos="l" depth="1" NCoef="0" IVar="-1" Cut="0.0000000000000000e+00" cType="1" res="1.4217509888112545e-02" rms="3.4701699018478394e-01" purity="7.0182639360427856e-01" nType="-99"/>
        <Node pos="r" depth="1" NCoef="0" IVar="13" Cut="2.4987505748867989e-03" cType="1" res="-1.1673553287982941e-01" rms="3.6370727419853210e-01" purity="2.9121863842010498e-01" nType="0">
          <Node pos="l" depth="2" NCoef="0" IVar="-1" Cut="0.0000000000000000e+00" cType="1" res="-1.2780285440385342e-02" rms="3.7167590856552124e-01" purity="3.4409630298614502e-01" nType="-99"/>
          <Node pos="r" depth="2" NCoef="0" IVar="-1" Cut="0.0000000000000000e+00" cType="1" res="-3.9609767496585846e-02" rms="2.8280541300773621e-01" purity="8.4143310785293579e-02" nType="-99"/>
